{"learner":{"attributes":{"scikit_learn":"{\"_estimator_type\": \"classifier\"}"},"feature_names":[],"feature_types":[],"gradient_booster":{"model":{"gbtree_model_param":{"num_parallel_tree":"1","num_trees":"300"},"iteration_indptr":[0,1,2,3,4,5,6,7,8,9,10,11,12,13,14,15,16,17,18,19,20,21,22,23,24,25,26,27,28,29,30,31,32,33,34,35,36,37,38,39,40,41,42,43,44,45,46,47,48,49,50,51,52,53,54,55,56,57,58,59,60,61,62,63,64,65,66,67,68,69,70,71,72,73,74,75,76,77,78,79,80,81,82,83,84,85,86,87,88,89,90,91,92,93,94,95,96,97,98,99,100,101,102,103,104,105,106,107,108,109,110,111,112,113,114,115,116,117,118,119,120,121,122,123,124,125,126,127,128,129,130,131,132,133,134,135,136,137,138,139,140,141,142,143,144,145,146,147,148,149,150,151,152,153,154,155,156,157,158,159,160,161,162,163,164,165,166,167,168,169,170,171,172,173,174,175,176,177,178,179,180,181,182,183,184,185,186,187,188,189,190,191,192,193,194,195,196,197,198,199,200,201,202,203,204,205,206,207,208,209,210,211,212,213,214,215,216,217,218,219,220,221,222,223,224,225,226,227,228,229,230,231,232,233,234,235,236,237,238,239,240,241,242,243,244,245,246,247,248,249,250,251,252,253,254,255,256,257,258,259,260,261,262,263,264,265,266,267,268,269,270,271,272,273,274,275,276,277,278,279,280,281,282,283,284,285,286,287,288,289,290,291,292,293,294,295,296,297,298,299,300],"tree_info":[0,0,0,0,0,0,0,0,0,0,0,0,0,0,0,0,0,0,0,0,0,0,0,0,0,0,0,0,0,0,0,0,0,0,0,0,0,0,0,0,0,0,0,0,0,0,0,0,0,0,0,0,0,0,0,0,0,0,0,0,0,0,0,0,0,0,0,0,0,0,0,0,0,0,0,0,0,0,0,0,0,0,0,0,0,0,0,0,0,0,0,0,0,0,0,0,0,0,0,0,0,0,0,0,0,0,0,0,0,0,0,0,0,0,0,0,0,0,0,0,0,0,0,0,0,0,0,0,0,0,0,0,0,0,0,0,0,0,0,0,0,0,0,0,0,0,0,0,0,0,0,0,0,0,0,0,0,0,0,0,0,0,0,0,0,0,0,0,0,0,0,0,0,0,0,0,0,0,0,0,0,0,0,0,0,0,0,0,0,0,0,0,0,0,0,0,0,0,0,0,0,0,0,0,0,0,0,0,0,0,0,0,0,0,0,0,0,0,0,0,0,0,0,0,0,0,0,0,0,0,0,0,0,0,0,0,0,0,0,0,0,0,0,0,0,0,0,0,0,0,0,0,0,0,0,0,0,0,0,0,0,0,0,0,0,0,0,0,0,0,0,0,0,0,0,0,0,0,0,0,0,0,0,0,0,0,0,0,0,0,0,0,0,0,0,0,0,0,0,0],"trees":[{"base_weights":[-1.96915E-2,1.8670391E0,-1.5682251E0,1.9914945E0,7.7611274E-1,-1.7799666E0,-3.8068235E-1,-1.9310345E-1,1.9945633E0,-2.9855257E-1,1.8064755E0,-6.3005126E-1,-1.8280586E0,6.574546E-1,-1.3910056E0,1.9964288E0,-1.8888889E-1,7.552006E-1,-1.4146063E0,1.9081466E0,-1.9644444E-1,-1.9971077E-1,3.1918332E-1,-1.9281296E0,-1.4327477E0,1.0503359E0,-1.9958049E-1,1.0730517E0,-1.8207545E0,1.9966484E0,-1.3333334E-1,-1.9875E-1,1.2477751E0,1.5908812E0,-1.9975881E-1,-1.9157895E-1,1.9516073E0,-1.9928636E-1,1.2220713E0,-1.9629134E0,-8.1058717E-1,-4.5136803E-1,-1.80424E0,1.6073204E0,-2.2706895E-1,-1.9792208E-1,1.6972069E0,-1.9992977E-1,-4.9563497E-1,-1.1111112E-1,1.9967857E-1,-1.9747634E-1,1.5610962E-1,-1.8787879E-1,1.9725694E-1,-1.7777778E-1,1.9671208E-1,1.7109777E-1,-1.9790576E-1,-1.3340142E-1,-1.9808923E-1,1.2406724E-1,-1.9967559E-1,-1.9974571E-1,3.8615737E-2,-1.8986472E-1,9.926247E-2,-1.973064E-1,1.729214E-1,8.755604E-2,-1.9946809E-1,1.965692E-1,-1.9389313E-1,1.5523459E-1,-1.9910315E-1],"categories":[],"categories_nodes":[],"categories_segments":[],"categories_sizes":[],"default_left":[0,0,0,0,0,0,0,0,0,0,0,0,0,0,0,0,0,0,0,0,0,0,0,0,0,0,0,0,0,0,0,0,0,0,0,0,0,0,0,0,0,0,0,0,0,0,0,0,0,0,0,0,0,0,0,0,0,0,0,0,0,0,0,0,0,0,0,0,0,0,0,0,0,0,0],"id":0,"left_children":[1,3,5,7,9,11,13,-1,15,17,19,21,23,25,27,29,-1,31,33,35,-1,-1,37,39,41,43,-1,45,47,49,-1,-1,51,53,-1,-1,55,-1,57,59,61,63,65,67,69,-1,71,-1,73,-1,-1,-1,-1,-1,-1,-1,-1,-1,-1,-1,-1,-1,-1,-1,-1,-1,-1,-1,-1,-1,-1,-1,-1,-1,-1],"loss_changes":[2.6318397E5,5.5115938E3,1.2439711E4,4.4257812E2,4.606552E3,2.3208125E3,7.8544907E3,0E0,2.6759375E2,2.396595E3,8.1798535E2,2.1898364E3,1.5915312E3,3.8524995E3,4.0206191E3,2.928125E1,0E0,1.4188004E3,1.7370519E3,3.4750635E2,0E0,0E0,2.0827305E3,1.2484375E3,2.9686758E3,2.2899407E3,0E0,1.0782441E3,7.636289E2,1.775E1,0E0,0E0,9.0106165E2,2.1735028E2,0E0,0E0,1.21856445E2,0E0,1.1259814E3,3.4997656E2,2.3684497E3,2.8986472E3,1.5618965E3,9.8144727E2,1.9078245E3,0E0,4.6164026E2,0E0,1.1823915E3,0E0,0E0,0E0,0E0,0E0,0E0,0E0,0E0,0E0,0E0,0E0,0E0,0E0,0E0,0E0,0E0,0E0,0E0,0E0,0E0,0E0,0E0,0E0,0E0,0E0,0E0],"parents":[2147483647,0,0,1,1,2,2,3,3,4,4,5,5,6,6,8,8,9,9,10,10,11,11,12,12,13,13,14,14,15,15,17,17,18,18,19,19,22,22,23,23,24,24,25,25,27,27,28,28,29,29,32,32,33,33,36,36,38,38,39,39,40,40,41,41,42,42,43,43,44,44,46,46,48,48],"right_children":[2,4,6,8,10,12,14,-1,16,18,20,22,24,26,28,30,-1,32,34,36,-1,-1,38,40,42,44,-1,46,48,50,-1,-1,52,54,-1,-1,56,-1,58,60,62,64,66,68,70,-1,72,-1,74,-1,-1,-1,-1,-1,-1,-1,-1,-1,-1,-1,-1,-1,-1,-1,-1,-1,-1,-1,-1,-1,-1,-1,-1,-1,-1],"split_conditions":[1.7208378E-1,3.015067E-1,-3.6834437E-1,-4.1435972E-1,-3.2788545E-1,1.451837E-1,3.7435943E-1,-1.9310345E-1,6.0212847E-2,5.3752464E-1,3.3304796E-1,-3.7436762E-1,2.0471613E-1,7.175448E-1,5.3021854E-1,6.688191E-1,-1.8888889E-1,1.6132638E-1,-7.442436E-2,3.8259995E-1,-1.9644444E-1,-1.9971077E-1,-5.1419526E-1,1.8627615E-1,2.5862512E-1,3.085334E-1,-1.9958049E-1,4.7809133E-1,5.0013983E-1,-9.344067E-1,-1.3333334E-1,-1.9875E-1,3.1105906E-1,-3.8327205E-1,-1.9975881E-1,-1.9157895E-1,-3.74992E-1,-1.9928636E-1,4.1181824E-1,-4.2593297E-2,-3.1041297E-1,-4.9824598E-1,-4.320163E-1,-6.123892E-1,5.671519E-1,-1.9792208E-1,4.8473966E-1,-1.9992977E-1,5.0183266E-1,-1.1111112E-1,1.9967857E-1,-1.9747634E-1,1.5610962E-1,-1.8787879E-1,1.9725694E-1,-1.7777778E-1,1.9671208E-1,1.7109777E-1,-1.9790576E-1,-1.3340142E-1,-1.9808923E-1,1.2406724E-1,-1.9967559E-1,-1.9974571E-1,3.8615737E-2,-1.8986472E-1,9.926247E-2,-1.973064E-1,1.729214E-1,8.755604E-2,-1.9946809E-1,1.965692E-1,-1.9389313E-1,1.5523459E-1,-1.9910315E-1],"split_indices":[14,12,4,11,4,20,12,0,10,2,23,28,25,3,8,3,0,20,10,18,0,0,4,20,14,14,0,12,12,0,0,0,18,4,0,0,28,0,12,10,13,4,7,11,8,0,12,0,12,0,0,0,0,0,0,0,0,0,0,0,0,0,0,0,0,0,0,0,0,0,0,0,0,0,0],"split_type":[0,0,0,0,0,0,0,0,0,0,0,0,0,0,0,0,0,0,0,0,0,0,0,0,0,0,0,0,0,0,0,0,0,0,0,0,0,0,0,0,0,0,0,0,0,0,0,0,0,0,0,0,0,0,0,0,0,0,0,0,0,0,0,0,0,0,0,0,0,0,0,0,0,0,0],"sum_hessian":[9.00781E4,4.0604926E4,4.9473176E4,3.644623E4,4.158697E3,4.1986406E4,7.486769E3,2.8E1,3.641823E4,2.0359341E3,2.1227627E3,1.6860393E3,4.0300367E4,3.6927297E3,3.7940393E3,3.640123E4,1.7E1,1.0473617E3,9.885723E2,2.0675127E3,5.525E1,6.905E2,9.9553937E2,3.215629E4,8.1440786E3,3.2169797E3,4.7575E2,5.6321704E2,3.2308223E3,3.639923E4,2E0,1.59E2,8.883617E2,1.6032234E2,8.2825E2,2.275E1,2.0447628E3,2.7925E2,7.1628937E2,3.1184895E4,9.7139465E2,2.236934E3,5.9071445E3,2.2400127E3,9.7696704E2,9.525E1,4.6796704E2,2.84675E3,3.8407233E2,1.25E0,3.639798E4,7.825E1,8.101117E2,1.55E1,1.4482234E2,8E0,2.0367628E3,6.2178937E2,9.45E1,8.688223E2,3.0316072E4,3.5589468E2,6.155E2,7.855E2,1.4514341E3,5.7145723E3,1.9257234E2,7.325E1,2.1667627E3,6.0196704E2,3.75E2,4.3621704E2,3.175E1,1.6207234E2,2.22E2],"tree_param":{"num_deleted":"0","num_feature":"30","num_nodes":"75","size_leaf_vector":"1"}},{"base_weights":[1.4230054E-2,1.7062002E0,-1.4612428E0,1.8110274E0,6.073466E-1,-1.5394483E0,5.498641E-1,1.8121579E0,-1.7083387E-1,9.813389E-1,-1.0574813E0,-1.5999447E0,3.1077105E-1,9.2236936E-1,-1.880046E-1,1.8127568E0,-1.6482648E-1,1.1599463E0,-1.8189804E-1,1.7815213E-1,-1.829693E-1,1.4225291E0,-1.6327626E0,1.2639929E0,-1.8393281E-1,-1.8321835E-1,1.3240666E0,1.8130393E0,-1.384087E-1,1.5991153E0,3.3740687E-1,1.7920362E0,-1.8097538E-1,-2.2929685E-1,-1.687867E0,1.5360664E0,-1.8459545E-1,1.4974644E0,-1.8038002E-1,1.8148303E-1,1.3844521E-1,1.6938235E-1,-1.8085329E-1,1.1777045E-1,-1.8495066E-1,-1.5310135E-1,1.8241495E-1,-1.8365972E-1,6.9503635E-2,-7.218314E-2,-1.7211625E-1,-1.8445866E-1,1.7211805E-1,-1.8126893E-1,1.6381262E-1],"categories":[],"categories_nodes":[],"categories_segments":[],"categories_sizes":[],"default_left":[0,0,0,0,0,0,0,0,0,0,0,0,0,0,0,0,0,0,0,0,0,0,0,0,0,0,0,0,0,0,0,0,0,0,0,0,0,0,0,0,0,0,0,0,0,0,0,0,0,0,0,0,0,0,0],"id":1,"left_children":[1,3,5,7,9,11,13,15,-1,17,19,21,23,25,-1,27,-1,29,-1,-1,-1,31,33,35,-1,-1,37,39,-1,41,43,45,-1,47,49,51,-1,53,-1,-1,-1,-1,-1,-1,-1,-1,-1,-1,-1,-1,-1,-1,-1,-1,-1],"loss_changes":[2.2624762E5,4.861797E3,7.614922E3,1.5642969E2,2.2911384E3,5.2163984E3,1.6426146E3,8.282031E1,0E0,1.504542E3,1.4834519E3,4.4782266E3,3.0279165E3,1.7424187E3,0E0,3.7320312E1,0E0,1.01973706E3,0E0,0E0,0E0,5.827726E2,3.4519375E3,8.6876074E2,0E0,0E0,7.4735156E2,2.7046875E1,0E0,5.9722754E2,1.8111277E3,4.931482E1,0E0,2.5085642E3,1.3803047E3,5.924392E2,0E0,6.0891724E2,0E0,0E0,0E0,0E0,0E0,0E0,0E0,0E0,0E0,0E0,0E0,0E0,0E0,0E0,0E0,0E0,0E0],"parents":[2147483647,0,0,1,1,2,2,3,3,4,4,5,5,6,6,7,7,9,9,10,10,11,11,12,12,13,13,15,15,17,17,21,21,22,22,23,23,26,26,27,27,29,29,30,30,31,31,33,33,34,34,35,35,37,37],"right_children":[2,4,6,8,10,12,14,16,-1,18,20,22,24,26,-1,28,-1,30,-1,-1,-1,32,34,36,-1,-1,38,40,-1,42,44,46,-1,48,50,52,-1,54,-1,-1,-1,-1,-1,-1,-1,-1,-1,-1,-1,-1,-1,-1,-1,-1,-1],"split_conditions":[1.7208378E-1,-5.6041647E-2,3.6501536E-1,6.688191E-1,-2.675682E-1,5.562885E-1,-9.558603E-1,1.6470042E-1,-1.7083387E-1,3.4330014E-2,-5.120715E-1,3.684898E-1,5.7056594E-1,1.4371452E-1,-1.880046E-1,9.700449E-1,-1.6482648E-1,4.525181E-2,-1.8189804E-1,1.7815213E-1,-1.829693E-1,1.305295E-1,-9.9994004E-1,2.701518E-1,-1.8393281E-1,-1.8321835E-1,7.129467E-1,1.4471485E-1,-1.384087E-1,3.75474E-2,5.3424853E-1,3.40337E-1,-1.8097538E-1,-3.7251636E-1,-1.297642E-1,-7.520986E-2,-1.8459545E-1,-2.4909066E-1,-1.8038002E-1,1.8148303E-1,1.3844521E-1,1.6938235E-1,-1.8085329E-1,1.1777045E-1,-1.8495066E-1,-1.5310135E-1,1.8241495E-1,-1.8365972E-1,6.9503635E-2,-7.218314E-2,-1.7211625E-1,-1.8445866E-1,1.7211805E-1,-1.8126893E-1,1.6381262E-1],"split_indices":[14,10,23,3,15,17,29,14,0,10,7,17,8,20,0,0,0,19,0,0,0,20,29,14,0,0,3,14,0,22,5,23,0,28,19,9,0,26,0,0,0,0,0,0,0,0,0,0,0,0,0,0,0,0,0],"split_type":[0,0,0,0,0,0,0,0,0,0,0,0,0,0,0,0,0,0,0,0,0,0,0,0,0,0,0,0,0,0,0,0,0,0,0,0,0,0,0,0,0,0,0,0,0,0,0,0,0,0,0,0,0,0,0],"sum_hessian":[9.0625516E4,4.221552E4,4.8409996E4,3.853843E4,3.6770913E3,4.6598176E4,1.8118187E3,3.852654E4,1.1889988E1,3.002917E3,6.7417444E2,4.5122934E4,1.4752429E3,1.5715245E3,2.4029428E2,3.8520348E4,6.189886E0,2.8234219E3,1.7949507E2,1.4388403E2,5.302904E2,4.8422534E2,4.4638707E4,1.0223901E3,4.528528E2,1.9955539E2,1.3719691E3,3.8517375E4,2.9717991E0,1.8400443E3,9.833777E2,4.349486E2,4.9276726E1,1.6866353E3,4.295207E4,9.4060724E2,8.178285E1,1.3004008E3,7.15683E1,3.8353867E4,1.6350926E2,1.7907764E3,4.9267857E1,7.1074365E2,2.72634E2,3.71629E0,4.3123233E2,6.1545276E2,1.0711825E3,1.4318225E3,4.152025E4,4.8365543E1,8.922417E2,5.2522297E1,1.2478785E3],"tree_param":{"num_deleted":"0","num_feature":"30","num_nodes":"55","size_leaf_vector":"1"}},{"base_weights":[1.4266089E-2,1.6103895E0,-1.1502014E0,-1.7326747E-1,1.6585358E0,-1.4245918E0,5.152031E-1,-1.7692696E-1,1.6684726E0,7.774009E-1,-1.489886E0,1.3368886E0,-2.9422265E-1,-1.6898555E-1,1.670157E0,1.461382E0,-1.7002869E-1,-9.727641E-1,-1.5592762E0,1.4722451E0,-1.7142943E-1,6.857973E-1,-9.859208E-1,1.2080661E0,1.6766362E0,-1.6821657E-1,1.7151756E0,-2.725569E-1,-1.707605E-1,-1.6096488E0,-7.698857E-1,1.5219063E0,-1.743972E-1,1.0210243E0,-1.7386355E-1,-1.709994E-1,2.4787559E-1,-1.7726025E-1,1.5873837E-1,-1.02507435E-1,1.6767567E-1,-1.657836E-1,1.8539456E-1,3.129719E-2,-1.7154081E-1,-1.6356032E-1,1.1914358E-2,-1.7103447E-1,2.0721862E-2,-1.6847663E-1,1.5617324E-1,1.2119422E-1,-1.7230718E-1,-1.7024635E-1,1.2502937E-1],"categories":[],"categories_nodes":[],"categories_segments":[],"categories_sizes":[],"default_left":[0,0,0,0,0,0,0,0,0,0,0,0,0,0,0,0,0,0,0,0,0,0,0,0,0,0,0,0,0,0,0,0,0,0,0,0,0,0,0,0,0,0,0,0,0,0,0,0,0,0,0,0,0,0,0],"id":2,"left_children":[1,3,5,-1,7,9,11,-1,13,15,17,19,21,-1,23,25,-1,27,29,31,-1,33,35,37,39,-1,41,43,-1,45,47,49,-1,51,-1,-1,53,-1,-1,-1,-1,-1,-1,-1,-1,-1,-1,-1,-1,-1,-1,-1,-1,-1,-1],"loss_changes":[1.6427339E5,6.0036406E3,2.3352852E4,0E0,1.2548125E3,6.309211E3,4.8085376E3,0E0,2.10125E2,2.1448293E3,1.5274844E3,1.4842144E3,2.4699321E3,0E0,1.0764844E2,7.936826E2,0E0,2.5948335E3,1.4925859E3,5.5142236E2,0E0,1.227202E3,1.9085002E3,5.795243E2,1.3484375E1,0E0,4.3260254E2,2.1835896E3,0E0,1.5847031E3,2.0728887E3,4.3481152E2,0E0,6.9638477E2,0E0,0E0,1.5481215E3,0E0,0E0,0E0,0E0,0E0,0E0,0E0,0E0,0E0,0E0,0E0,0E0,0E0,0E0,0E0,0E0,0E0,0E0],"parents":[2147483647,0,0,1,1,2,2,4,4,5,5,6,6,8,8,9,9,10,10,11,11,12,12,14,14,15,15,17,17,18,18,19,19,21,21,22,22,23,23,24,24,26,26,27,27,29,29,30,30,31,31,33,33,36,36],"right_children":[2,4,6,-1,8,10,12,-1,14,16,18,20,22,-1,24,26,-1,28,30,32,-1,34,36,38,40,-1,42,44,-1,46,48,50,-1,52,-1,-1,54,-1,-1,-1,-1,-1,-1,-1,-1,-1,-1,-1,-1,-1,-1,-1,-1,-1,-1],"split_conditions":[-5.6041647E-2,-5.3832144E-1,-3.0201706E-1,-1.7326747E-1,-4.8738602E-1,1.305295E-1,3.1177958E-2,-1.7692696E-1,3.6807585E-1,-2.5308636E-1,-2.2817066E-2,5.809851E-1,5.678656E-1,-1.6898555E-1,-3.461004E-1,-1.7271599E-1,-1.7002869E-1,5.70712E-1,5.2733094E-1,-4.4654706E-1,-1.7142943E-1,1.5972783E-1,4.8121583E-1,8.832791E-1,-9.344067E-1,-1.6821657E-1,-3.7940556E-1,-1.8752639E-1,-1.707605E-1,3.6501536E-1,-8.3892636E-2,-5.822546E-1,-1.743972E-1,2.111766E-1,-1.7386355E-1,-1.709994E-1,5.4295576E-1,-1.7726025E-1,1.5873837E-1,-1.02507435E-1,1.6767567E-1,-1.657836E-1,1.8539456E-1,3.129719E-2,-1.7154081E-1,-1.6356032E-1,1.1914358E-2,-1.7103447E-1,2.0721862E-2,-1.6847663E-1,1.5617324E-1,1.2119422E-1,-1.7230718E-1,-1.7024635E-1,1.2502937E-1],"split_indices":[10,4,4,0,11,20,10,0,2,26,10,8,8,0,11,27,0,8,17,7,0,20,17,1,0,0,28,26,0,23,16,11,0,25,0,0,5,0,0,0,0,0,0,0,0,0,0,0,0,0,0,0,0,0,0],"split_type":[0,0,0,0,0,0,0,0,0,0,0,0,0,0,0,0,0,0,0,0,0,0,0,0,0,0,0,0,0,0,0,0,0,0,0,0,0,0,0,0,0,0,0,0,0,0,0,0,0,0,0,0,0,0,0],"sum_hessian":[8.8381945E4,3.7280953E4,5.1100992E4,5.287959E2,3.6752156E4,4.3872715E4,7.228277E3,1.05720055E2,3.6646438E4,1.26315E3,4.2609562E4,3.5866506E3,3.6416262E3,1.7868013E1,3.662857E4,9.9020734E2,2.7294272E2,5.042913E3,3.7566652E4,3.434794E3,1.5185677E2,1.5067804E3,2.1348457E3,5.090834E2,3.6119484E4,7.3551605E1,9.1665576E2,2.5830117E3,2.4599016E3,3.5312266E4,2.2543865E3,3.383083E3,5.1710857E1,1.3242542E3,1.8252623E2,1.3450789E3,7.8976697E2,5.705709E1,4.520263E2,1.2318989E0,3.6118254E4,3.5789562E1,8.808662E2,1.8379354E3,7.4507623E2,3.4790016E4,5.222477E2,1.148352E3,1.1060344E3,4.099512E1,3.342088E3,1.2386356E3,8.561852E1,2.678773E2,5.2188965E2],"tree_param":{"num_deleted":"0","num_feature":"30","num_nodes":"55","size_leaf_vector":"1"}},{"base_weights":[3.0772911E-2,1.4865425E0,-1.1714399E0,1.578452E0,7.844043E-1,1.4931115E0,-1.2226853E0,-1.6355018E-1,1.5800537E0,-1.6522668E-1,9.652876E-1,1.6760855E0,-1.5793645E-1,-4.5882547E-1,-1.3307891E0,1.5808517E0,-1.4254932E-1,1.1128154E0,-1.6606843E-1,-1.4002578E-1,1.6945155E0,-1.0265813E0,2.8653902E-1,-1.393121E0,9.638562E-2,1.5810509E0,-1.2909494E-1,-1.6374546E-1,1.2049078E0,1.8431905E-1,1.6131386E-1,-1.2935592E0,1.2691723E0,9.313194E-1,-9.9730396E-1,-9.310686E-1,-1.526974E0,-1.6578011E-1,8.8761055E-1,-1.1252866E-1,1.5812014E-1,1.4201425E-1,2.3279518E-2,-2.1180343E-3,-1.6144155E-1,-1.723835E-1,1.7656882E-1,1.2666202E-1,-1.6349886E-1,-1.6221185E-1,1.6375448E-1,-2.6973441E-2,-1.4822108E-1,-1.540946E-1,4.056644E-2,1.2545834E-1,-1.6468553E-1],"categories":[],"categories_nodes":[],"categories_segments":[],"categories_sizes":[],"default_left":[0,0,0,0,0,0,0,0,0,0,0,0,0,0,0,0,0,0,0,0,0,0,0,0,0,0,0,0,0,0,0,0,0,0,0,0,0,0,0,0,0,0,0,0,0,0,0,0,0,0,0,0,0,0,0,0,0],"id":3,"left_children":[1,3,5,7,9,11,13,-1,15,-1,17,19,-1,21,23,25,-1,27,-1,-1,29,31,33,35,37,39,-1,-1,41,-1,-1,43,45,47,49,51,53,-1,55,-1,-1,-1,-1,-1,-1,-1,-1,-1,-1,-1,-1,-1,-1,-1,-1,-1,-1],"loss_changes":[1.5015247E5,2.502961E3,6.418039E3,1.7921875E2,1.9821602E3,5.013656E2,3.8064219E3,0E0,8.4515625E1,0E0,1.6226287E3,4.9870117E1,0E0,2.419761E3,3.5928984E3,2.165625E1,0E0,1.00540234E3,0E0,0E0,7.1071777E0,1.9908638E3,2.0478804E3,2.3918672E3,2.3485374E3,1.575E1,0E0,0E0,8.018613E2,0E0,0E0,1.1871177E3,5.0624744E2,1.4189343E3,1.3644413E3,3.168728E3,8.107969E2,0E0,1.0865675E3,0E0,0E0,0E0,0E0,0E0,0E0,0E0,0E0,0E0,0E0,0E0,0E0,0E0,0E0,0E0,0E0,0E0,0E0],"parents":[2147483647,0,0,1,1,2,2,3,3,4,4,5,5,6,6,8,8,10,10,11,11,13,13,14,14,15,15,17,17,20,20,21,21,22,22,23,23,24,24,25,25,28,28,31,31,32,32,33,33,34,34,35,35,36,36,38,38],"right_children":[2,4,6,8,10,12,14,-1,16,-1,18,20,-1,22,24,26,-1,28,-1,-1,30,32,34,36,38,40,-1,-1,42,-1,-1,44,46,48,50,52,54,-1,56,-1,-1,-1,-1,-1,-1,-1,-1,-1,-1,-1,-1,-1,-1,-1,-1,-1,-1],"split_conditions":[1.7208378E-1,3.015067E-1,3.684898E-1,-5.119052E-1,3.1105906E-1,3.4360394E-1,5.6076E-1,-1.6355018E-1,2.0735988E-1,-1.6522668E-1,7.309304E-3,3.3239564E-1,-1.5793645E-1,1.8996139E-1,3.537932E-1,9.832112E-1,-1.4254932E-1,5.0047547E-1,-1.6606843E-1,-1.4002578E-1,3.4089118E-1,5.619084E-1,-1.1604076E-1,2.5862512E-1,-2.904864E-1,-9.344067E-1,-1.2909494E-1,-1.6374546E-1,-2.632257E-1,1.8431905E-1,1.6131386E-1,-4.893606E-1,-4.5599732E-1,5.5451834E-1,5.6277458E-2,-1.2773739E-1,5.884451E-1,-1.6578011E-1,4.1181824E-1,-1.1252866E-1,1.5812014E-1,1.4201425E-1,2.3279518E-2,-2.1180343E-3,-1.6144155E-1,-1.723835E-1,1.7656882E-1,1.2666202E-1,-1.6349886E-1,-1.6221185E-1,1.6375448E-1,-2.6973441E-2,-1.4822108E-1,-1.540946E-1,4.056644E-2,1.2545834E-1,-1.6468553E-1],"split_indices":[14,12,17,11,18,12,8,0,9,0,26,23,0,19,23,1,0,17,0,0,23,17,13,14,15,0,0,0,15,0,0,7,7,2,24,0,17,0,12,0,0,0,0,0,0,0,0,0,0,0,0,0,0,0,0,0,0],"split_type":[0,0,0,0,0,0,0,0,0,0,0,0,0,0,0,0,0,0,0,0,0,0,0,0,0,0,0,0,0,0,0,0,0,0,0,0,0,0,0,0,0,0,0,0,0,0,0,0,0,0,0,0,0,0,0,0,0],"sum_hessian":[8.579232E4,3.8803996E4,4.6988324E4,3.4311406E4,4.4925913E3,8.861104E2,4.610221E4,1.658248E1,3.4294824E4,3.0989374E2,4.1826978E3,8.3673517E2,4.937527E1,5.716279E3,4.0385934E4,3.4286195E4,8.629675E0,3.9607576E3,2.2194016E2,4.536429E0,8.321987E2,3.2445085E3,2.4717705E3,3.869591E4,1.6900228E3,3.4284266E4,1.928806E0,1.27784676E2,3.832973E3,2.8671783E2,5.454809E2,2.9068962E3,3.3761237E2,1.645587E3,8.261834E2,8.693709E3,3.0002201E4,5.249924E2,1.1650305E3,1.4899335E0,3.4282773E4,3.1377788E3,6.951941E2,5.8562476E2,2.3212712E3,4.768634E1,2.8992603E2,1.4558762E3,1.897109E2,6.681307E2,1.5805273E2,3.9524812E3,4.741227E3,2.978706E4,2.1514192E2,1.0181191E3,1.4691145E2],"tree_param":{"num_deleted":"0","num_feature":"30","num_nodes":"57","size_leaf_vector":"1"}},{"base_weights":[-1.3185095E-2,1.3938001E0,-1.1179571E0,1.4764429E0,5.4068947E-1,-3.0657715E-1,-1.2831968E0,1.4844263E0,-1.5530498E-1,-1.6845291E0,8.5278565E-1,2.310293E-1,-1.2033285E0,7.905879E-1,-1.3158534E0,1.4995039E0,1.1585758E0,-1.9639684E-1,-1.6442394E-1,1.023899E0,-1.5533267E-1,9.199778E-1,-4.041252E-1,-1.5301308E-1,6.345908E-1,1.6128349E0,-1.5308785E-1,-1.358913E0,3.5664654E-1,1.5002828E0,-1.9229062E-1,1.3948377E0,-1.7628606E-1,-1.7144907E-1,1.1568067E0,1.2314054E0,-4.7248438E-1,-6.7757225E-1,1.5453004E0,-1.5438323E-1,1.695237E0,1.7036895E0,-1.4010632E-1,-5.0445235E-1,-1.406379E0,-1.651205E-1,1.0404407E0,1.4935437E-1,1.6575377E-1,1.4375053E-1,-1.76474E-1,1.2422221E-1,-1.6050543E-1,3.867608E-2,1.6716295E-1,1.6426896E-1,-1.5891676E-1,9.563585E-2,-1.23792365E-1,1.7217988E-1,-1.4882664E-1,-1.3873394E-1,1.7627479E-1,1.7214204E-1,-1.0692667E-1,8.4208034E-2,-1.5511099E-1,-1.4909515E-1,-1.1324426E-1,-1.6625164E-1,1.4406282E-1],"categories":[],"categories_nodes":[],"categories_segments":[],"categories_sizes":[],"default_left":[0,0,0,0,0,0,0,0,0,0,0,0,0,0,0,0,0,0,0,0,0,0,0,0,0,0,0,0,0,0,0,0,0,0,0,0,0,0,0,0,0,0,0,0,0,0,0,0,0,0,0,0,0,0,0,0,0,0,0,0,0,0,0,0,0,0,0,0,0,0,0],"id":4,"left_children":[1,3,5,7,9,11,13,15,-1,17,19,21,23,25,27,29,31,-1,-1,33,-1,35,37,-1,39,41,-1,43,45,47,-1,49,-1,-1,51,53,55,57,59,-1,61,63,-1,65,67,-1,69,-1,-1,-1,-1,-1,-1,-1,-1,-1,-1,-1,-1,-1,-1,-1,-1,-1,-1,-1,-1,-1,-1,-1,-1],"loss_changes":[1.2479435E5,2.4888516E3,6.029133E3,7.8090625E2,2.1684028E3,3.6692542E3,2.5313516E3,1.5600781E2,0E0,1.095581E0,1.1285138E3,2.0827788E3,1.7143413E3,1.1093315E3,2.6495586E3,8.46875E1,9.856373E2,0E0,0E0,9.3224756E2,0E0,9.906284E2,1.3213276E3,0E0,9.9927905E2,1.19773315E2,0E0,1.4537344E3,1.2703978E3,3.0039062E1,0E0,1.8027393E2,0E0,0E0,5.771975E2,6.932095E2,9.8993134E2,1.9905349E3,1.6585779E2,0E0,6.2917847E1,2.2323608E1,0E0,2.6633376E3,7.853828E2,0E0,7.4866815E2,0E0,0E0,0E0,0E0,0E0,0E0,0E0,0E0,0E0,0E0,0E0,0E0,0E0,0E0,0E0,0E0,0E0,0E0,0E0,0E0,0E0,0E0,0E0,0E0],"parents":[2147483647,0,0,1,1,2,2,3,3,4,4,5,5,6,6,7,7,9,9,10,10,11,11,12,12,13,13,14,14,15,15,16,16,19,19,21,21,22,22,24,24,25,25,27,27,28,28,29,29,31,31,34,34,35,35,36,36,37,37,38,38,40,40,41,41,43,43,44,44,46,46],"right_children":[2,4,6,8,10,12,14,16,-1,18,20,22,24,26,28,30,32,-1,-1,34,-1,36,38,-1,40,42,-1,44,46,48,-1,50,-1,-1,52,54,56,58,60,-1,62,64,-1,66,68,-1,70,-1,-1,-1,-1,-1,-1,-1,-1,-1,-1,-1,-1,-1,-1,-1,-1,-1,-1,-1,-1,-1,-1,-1,-1],"split_conditions":[1.7208378E-1,8.639033E-2,5.624029E-1,6.0212847E-2,-4.9129406E-1,-9.877451E-2,1.305295E-1,-4.6451434E-1,-1.5530498E-1,-5.6041647E-2,-9.118384E-3,-4.7640386E-1,2.4682865E-1,-1.7659798E-1,3.6501536E-1,3.3427384E-2,4.7001857E-2,-1.9639684E-1,-1.6442394E-1,-3.9036062E-1,-1.5533267E-1,-1.6601536E-1,1.8666707E-1,-1.5301308E-1,-9.558603E-1,2.6355627E-1,-1.5308785E-1,-1.035973E-1,1.7079729E-1,-3.4915768E-2,-1.9229062E-1,-8.365324E-3,-1.7628606E-1,-1.7144907E-1,7.0142186E-1,5.3204024E-1,1.9270483E-1,-2.3555E-2,1.3955691E-1,-1.5438323E-1,5.2074313E-1,-1.1876727E-1,-1.4010632E-1,5.707863E-1,1.9779867E-1,-1.651205E-1,1.3841492E-1,1.4935437E-1,1.6575377E-1,1.4375053E-1,-1.76474E-1,1.2422221E-1,-1.6050543E-1,3.867608E-2,1.6716295E-1,1.6426896E-1,-1.5891676E-1,9.563585E-2,-1.23792365E-1,1.7217988E-1,-1.4882664E-1,-1.3873394E-1,1.7627479E-1,1.7214204E-1,-1.0692667E-1,8.4208034E-2,-1.5511099E-1,-1.4909515E-1,-1.1324426E-1,-1.6625164E-1,1.4406282E-1],"split_indices":[14,14,8,10,6,13,20,7,0,10,9,7,13,16,23,16,14,0,0,24,0,24,22,0,29,14,0,19,19,10,0,10,0,0,3,5,14,10,20,0,5,9,0,8,25,0,21,0,0,0,0,0,0,0,0,0,0,0,0,0,0,0,0,0,0,0,0,0,0,0,0],"split_type":[0,0,0,0,0,0,0,0,0,0,0,0,0,0,0,0,0,0,0,0,0,0,0,0,0,0,0,0,0,0,0,0,0,0,0,0,0,0,0,0,0,0,0,0,0,0,0,0,0,0,0,0,0,0,0,0,0,0,0,0,0,0,0,0,0,0,0,0,0,0,0],"sum_hessian":[8.028269E4,3.531144E4,4.4971242E4,3.2192182E4,3.119262E3,7.6094155E3,3.7361824E4,3.210808E4,8.410036E1,3.8313626E2,2.7361255E3,4.7578223E3,2.8515933E3,5.7886774E2,3.6782957E4,3.0684648E4,1.4234335E3,4.226311E1,3.4087314E2,2.5549985E3,1.8112708E2,2.2820488E3,2.4757737E3,2.421238E3,4.303552E2,4.2768866E2,1.5117905E2,3.585991E4,9.2304913E2,3.0678227E4,6.420392E0,1.3174143E3,1.0601919E2,1.17715996E2,2.4372825E3,1.865043E3,4.1700574E2,2.171788E3,3.0398553E2,1.4077235E2,2.8958282E2,4.1559518E2,1.2093477E1,1.8878253E3,3.3972082E4,2.3413492E2,6.8891425E2,2.9427611E4,1.2506163E3,1.3003986E3,1.7015797E1,2.3647004E3,7.258221E1,6.3964825E2,1.2253948E3,1.4392259E2,2.7308313E2,5.5442664E2,1.6173615E3,2.876802E2,1.6305342E1,5.787192E0,2.8379565E2,4.1333145E2,2.2637317E0,8.2572253E2,1.0621028E3,2.5954656E4,8.0174277E3,8.843691E1,6.0047736E2],"tree_param":{"num_deleted":"0","num_feature":"30","num_nodes":"71","size_leaf_vector":"1"}},{"base_weights":[-9.125611E-3,1.3269528E0,-1.0461826E0,-8.1672144E-1,1.3617128E0,-1.2284288E0,1.9370107E-1,-1.6097991E0,1.183401E0,1.3726357E0,-1.5174693E-1,-7.645362E-1,-1.4002444E0,9.476318E-1,-1.0057347E0,-1.5386598E0,-1.9420161E0,1.5328301E0,-1.6033979E-1,1.4250451E0,9.5087373E-1,-1.3539286E0,-1.923925E-1,-1.4459494E0,-6.409714E-1,-1.5582009E-1,1.076478E0,3.9765912E-1,-1.4726894E-1,-1.6238129E-1,-1.4311366E-1,-1.5674536E-1,-2.1131463E-1,-8.316352E-2,1.559056E-1,1.4252833E0,-1.2366976E-1,2.1653792E-1,1.3407165E0,-1.0482711E-1,-1.4629977E0,1.4103587E0,-5.799642E-1,-1.5478717E-1,-1.4438798E0,1.0491984E0,-1.483933E-1,1.389614E0,3.5346732E-1,1.5866513E0,-1.4840333E-1,-9.478923E-2,1.4254303E-1,1.12036906E-1,-1.6148315E-1,1.3709538E-1,-1.9699198E-1,-1.4864177E-1,2.0883186E-1,-1.4942835E-1,-1.4464162E-1,-1.496002E-1,1.6152082E-1,5.1455427E-2,-1.10042095E-1,-1.4428297E-1,-1.5629283E-1,-1.522506E-1,1.507687E-1,-1.5201819E-1,1.4367776E-1,1.0995443E-1,-1.5939878E-1,-1.4426051E-1,2.0837994E-1],"categories":[],"categories_nodes":[],"categories_segments":[],"categories_sizes":[],"default_left":[0,0,0,0,0,0,0,0,0,0,0,0,0,0,0,0,0,0,0,0,0,0,0,0,0,0,0,0,0,0,0,0,0,0,0,0,0,0,0,0,0,0,0,0,0,0,0,0,0,0,0,0,0,0,0,0,0,0,0,0,0,0,0,0,0,0,0,0,0,0,0,0,0,0,0],"id":5,"left_children":[1,3,5,7,9,11,13,15,17,19,-1,21,23,25,27,29,31,33,-1,35,37,39,41,43,45,-1,47,49,-1,-1,-1,-1,-1,-1,-1,51,-1,53,55,57,59,61,63,-1,65,67,-1,69,71,73,-1,-1,-1,-1,-1,-1,-1,-1,-1,-1,-1,-1,-1,-1,-1,-1,-1,-1,-1,-1,-1,-1,-1,-1,-1],"loss_changes":[1.0593448E5,2.490668E3,9.726625E3,8.485476E2,1.0360625E3,2.9900547E3,4.989888E3,6.0545654E0,1.505917E2,7.2264453E2,0E0,3.4208237E3,9.49375E2,1.0955889E3,1.3963123E3,6.055298E-1,7.6872253E-1,9.710358E0,0E0,2.0230469E1,1.0369597E3,6.8063477E2,3.199289E3,3.2148438E0,2.2193262E3,0E0,7.292029E2,1.1937848E3,0E0,0E0,0E0,0E0,0E0,0E0,0E0,1.1511719E1,0E0,2.0835596E3,2.3960645E2,1.2222919E3,2.2167969E-1,5.995388E2,2.3629412E3,0E0,9.140625E-1,6.137564E2,0E0,3.107788E2,1.418927E3,4.9518E2,0E0,0E0,0E0,0E0,0E0,0E0,0E0,0E0,0E0,0E0,0E0,0E0,0E0,0E0,0E0,0E0,0E0,0E0,0E0,0E0,0E0,0E0,0E0,0E0,0E0],"parents":[2147483647,0,0,1,1,2,2,3,3,4,4,5,5,6,6,7,7,8,8,9,9,11,11,12,12,13,13,14,14,15,15,16,16,17,17,19,19,20,20,21,21,22,22,23,23,24,24,26,26,27,27,35,35,37,37,38,38,39,39,40,40,41,41,42,42,44,44,45,45,47,47,48,48,49,49],"right_children":[2,4,6,8,10,12,14,16,18,20,-1,22,24,26,28,30,32,34,-1,36,38,40,42,44,46,-1,48,50,-1,-1,-1,-1,-1,-1,-1,52,-1,54,56,58,60,62,64,-1,66,68,-1,70,72,74,-1,-1,-1,-1,-1,-1,-1,-1,-1,-1,-1,-1,-1,-1,-1,-1,-1,-1,-1,-1,-1,-1,-1,-1,-1],"split_conditions":[1.7208378E-1,-5.3832144E-1,-3.2788545E-1,9.300546E-1,4.1441843E-2,2.6355627E-1,5.693251E-1,1.4927792E-2,-4.8233393E-1,4.7001857E-2,-1.5174693E-1,-4.9824598E-1,1.4203782E-1,3.1974176E-1,-9.998614E-1,-7.742669E-3,3.0991012E-1,-5.9907836E-1,-1.6033979E-1,6.688191E-1,-3.4819862E-1,-4.2593297E-2,1.4983164E-1,5.3611296E-1,-3.1041297E-1,-1.5582009E-1,1.19401515E-1,-1.8339993E-1,-1.4726894E-1,-1.6238129E-1,-1.4311366E-1,-1.5674536E-1,-2.1131463E-1,-8.316352E-2,1.559056E-1,-9.5636374E-1,-1.2366976E-1,-8.617281E-2,5.541708E-1,-1.882383E-1,-1.2773739E-1,-1.6902044E-1,-8.7186694E-2,-1.5478717E-1,3.6501536E-1,3.7683755E-1,-1.483933E-1,-5.822546E-1,3.0169547E-1,-1.8892218E-1,-1.4840333E-1,-9.478923E-2,1.4254303E-1,1.12036906E-1,-1.6148315E-1,1.3709538E-1,-1.9699198E-1,-1.4864177E-1,2.0883186E-1,-1.4942835E-1,-1.4464162E-1,-1.496002E-1,1.6152082E-1,5.1455427E-2,-1.10042095E-1,-1.4428297E-1,-1.5629283E-1,-1.522506E-1,1.507687E-1,-1.5201819E-1,1.4367776E-1,1.0995443E-1,-1.5939878E-1,-1.4426051E-1,2.0837994E-1],"split_indices":[14,4,4,0,10,14,8,16,7,14,0,4,21,23,29,9,18,4,0,3,4,10,20,8,13,0,21,26,0,0,0,0,0,0,0,0,0,16,5,15,0,27,9,0,23,18,0,11,14,26,0,0,0,0,0,0,0,0,0,0,0,0,0,0,0,0,0,0,0,0,0,0,0,0,0],"split_type":[0,0,0,0,0,0,0,0,0,0,0,0,0,0,0,0,0,0,0,0,0,0,0,0,0,0,0,0,0,0,0,0,0,0,0,0,0,0,0,0,0,0,0,0,0,0,0,0,0,0,0,0,0,0,0,0,0,0,0,0,0,0,0,0,0,0,0,0,0,0,0,0,0,0,0],"sum_hessian":[7.6452445E4,3.3409496E4,4.304295E4,5.3273755E2,3.2876758E4,3.7526996E4,5.5159546E3,3.816163E2,1.5112128E2,3.2753023E4,1.23733826E2,1.0144049E4,2.7382947E4,3.3871191E3,2.1288354E3,3.189494E2,6.2666893E1,1.3468364E2,1.6437645E1,2.9130768E4,3.622257E3,4.9960317E3,5.1480166E3,2.5827342E4,1.5556044E3,1.6510097E2,3.2220183E3,5.315261E2,1.5973093E3,1.7012051E2,1.4882889E2,2.2838453E1,3.9828438E1,1.140589E0,1.3354305E2,2.9128625E4,2.1413705E0,1.256666E3,2.3655908E3,4.013683E2,4.5946636E3,1.00194934E3,4.1460674E3,4.9915247E2,2.532819E4,5.1758405E2,1.0380203E3,2.2476418E3,9.743763E2,3.2581128E2,2.0571481E2,1.4055499E0,2.912722E4,8.41668E2,4.1499808E2,2.3447612E3,2.0829609E1,2.464422E2,1.5492609E2,1.5607452E3,3.0339185E3,6.555575E1,9.363936E2,1.3361534E3,2.8099138E3,2.5119705E4,2.0848468E2,7.796281E1,4.3962125E2,3.5351765E1,2.2122903E3,7.0480023E2,2.6957605E2,4.5664345E1,2.8014694E2],"tree_param":{"num_deleted":"0","num_feature":"30","num_nodes":"75","size_leaf_vector":"1"}},{"base_weights":[3.4819514E-2,1.2801079E0,-9.827513E-1,-1.4939883E0,1.3019083E0,-1.1831137E0,4.1015027E-3,-1.3889144E-1,-1.6369897E-1,1.3696994E0,7.9799443E-1,2.1494924E-1,-1.2291772E0,5.798265E-1,-7.482697E-1,-1.6075006E-1,1.3716947E0,1.4808945E-1,1.2862922E0,-1.4349099E-1,1.2744111E0,-1.328588E0,-9.892407E-1,8.778518E-1,-1.4328371E-1,7.406465E-1,-1.191885E0,1.3723667E0,-1.315108E-1,6.689349E-1,-1.5971057E-1,1.361696E0,-1.7901555E0,-1.407822E-1,1.6335567E0,-1.3456966E0,3.2214466E-1,1.9759247E-2,-1.1520221E0,1.3736056E0,-1.1164065E-1,-1.4766057E-1,1.1736991E0,-1.418895E-1,2.7091944E-1,1.3706237E-1,1.7204277E-1,1.1721524E-1,-1.494895E-1,-1.5211692E-1,1.3881253E-1,-1.9765267E-1,-1.4562665E-1,1.7101428E-1,-1.4171702E-1,-1.3922615E-1,-7.822661E-2,1.5597738E-1,-1.4020233E-1,-8.587466E-2,1.15845025E-1,-1.21396296E-1,1.3083278E-1,1.5646327E-1,-1.5071476E-1,1.3386826E-1,-1.4741366E-1,-1.4894155E-1,1.3488929E-1,-1.4172006E-1,2.0276211E-1],"categories":[],"categories_nodes":[],"categories_segments":[],"categories_sizes":[],"default_left":[0,0,0,0,0,0,0,0,0,0,0,0,0,0,0,0,0,0,0,0,0,0,0,0,0,0,0,0,0,0,0,0,0,0,0,0,0,0,0,0,0,0,0,0,0,0,0,0,0,0,0,0,0,0,0,0,0,0,0,0,0,0,0,0,0,0,0,0,0,0,0],"id":6,"left_children":[1,3,5,7,9,11,13,-1,-1,15,17,19,21,23,25,-1,27,29,31,-1,33,35,37,39,-1,41,43,45,-1,47,-1,49,51,-1,53,55,57,59,61,63,65,-1,67,-1,69,-1,-1,-1,-1,-1,-1,-1,-1,-1,-1,-1,-1,-1,-1,-1,-1,-1,-1,-1,-1,-1,-1,-1,-1,-1,-1],"loss_changes":[9.436958E4,2.0272578E3,8.103621E3,1.6569214E0,1.1340234E3,2.194164E3,2.9968813E3,0E0,0E0,1.7617969E2,1.2509653E3,1.9027161E3,7.8534766E2,2.3522375E3,1.9818857E3,0E0,5.4648438E1,1.5395233E3,5.246238E2,0E0,6.407471E2,6.5891406E2,1.5875371E3,1.6751414E3,0E0,6.6339014E2,7.6784326E2,1.5394531E1,0E0,1.4218617E3,0E0,1.6956177E2,4.9964905E-1,0E0,1.3909583E2,6.043633E2,5.142774E2,1.3451465E3,1.2699434E3,1.2542378E3,2.255969E3,0E0,2.712395E2,0E0,9.26091E2,0E0,0E0,0E0,0E0,0E0,0E0,0E0,0E0,0E0,0E0,0E0,0E0,0E0,0E0,0E0,0E0,0E0,0E0,0E0,0E0,0E0,0E0,0E0,0E0,0E0,0E0],"parents":[2147483647,0,0,1,1,2,2,3,3,4,4,5,5,6,6,9,9,10,10,11,11,12,12,13,13,14,14,16,16,17,17,18,18,20,20,21,21,22,22,23,23,25,25,26,26,27,27,29,29,31,31,32,32,34,34,35,35,36,36,37,37,38,38,39,39,40,40,42,42,44,44],"right_children":[2,4,6,8,10,12,14,-1,-1,16,18,20,22,24,26,-1,28,30,32,-1,34,36,38,40,-1,42,44,46,-1,48,-1,50,52,-1,54,56,58,60,62,64,66,-1,68,-1,70,-1,-1,-1,-1,-1,-1,-1,-1,-1,-1,-1,-1,-1,-1,-1,-1,-1,-1,-1,-1,-1,-1,-1,-1,-1,-1],"split_conditions":[1.7208378E-1,-5.638597E-1,-3.6834437E-1,5.0047547E-1,3.015067E-1,1.3955691E-1,3.90868E-1,-1.3889144E-1,-1.6369897E-1,-3.9584142E-1,-3.2788545E-1,8.4767E-1,1.8996139E-1,7.175448E-1,-4.88608E-1,-1.6075006E-1,6.0212847E-2,-1.6623265E-1,3.3304796E-1,-1.4349099E-1,-4.9256402E-1,-1.2776998E-1,5.6076E-1,3.0169547E-1,-1.4328371E-1,-3.6984566E-1,5.0013983E-1,4.1441843E-2,-1.315108E-1,-1.8752639E-1,-1.5971057E-1,3.8259995E-1,3.959243E-2,-1.407822E-1,-4.7248098E-1,2.3085675E-1,1.451837E-1,-4.5994964E-1,2.4367544E-1,-4.700127E-1,5.490365E-1,-1.4766057E-1,-8.178619E-2,-1.418895E-1,4.3906745E-2,1.3706237E-1,1.7204277E-1,1.1721524E-1,-1.494895E-1,-1.5211692E-1,1.3881253E-1,-1.9765267E-1,-1.4562665E-1,1.7101428E-1,-1.4171702E-1,-1.3922615E-1,-7.822661E-2,1.5597738E-1,-1.4020233E-1,-8.587466E-2,1.15845025E-1,-1.21396296E-1,1.3083278E-1,1.5646327E-1,-1.5071476E-1,1.3386826E-1,-1.4741366E-1,-1.4894155E-1,1.3488929E-1,-1.4172006E-1,2.0276211E-1],"split_indices":[14,4,4,17,12,20,12,0,0,11,4,1,19,3,7,0,10,27,23,0,4,27,8,14,0,28,12,10,0,26,0,18,10,0,6,25,20,6,26,6,8,0,0,0,10,0,0,0,0,0,0,0,0,0,0,0,0,0,0,0,0,0,0,0,0,0,0,0,0,0,0],"split_type":[0,0,0,0,0,0,0,0,0,0,0,0,0,0,0,0,0,0,0,0,0,0,0,0,0,0,0,0,0,0,0,0,0,0,0,0,0,0,0,0,0,0,0,0,0,0,0,0,0,0,0,0,0,0,0,0,0,0,0,0,0,0,0,0,0,0,0,0,0,0,0],"sum_hessian":[7.447077E4,3.3488176E4,4.0982598E4,2.6059085E2,3.3227582E4,3.4065934E4,6.9166646E3,1.5639122E2,1.0419963E2,2.9286037E4,3.941546E3,1.0864874E3,3.2979445E4,3.9184448E3,2.9982197E3,1.9074669E1,2.9266963E4,1.6915126E3,2.2500332E3,4.247251E2,6.617624E2,2.3315004E4,9.664441E3,3.4135474E3,5.0489746E2,6.880919E2,2.3101277E3,2.9260135E4,6.829363E0,1.3031963E3,3.8831622E2,2.1967483E3,5.328505E1,7.780037E1,5.83962E2,2.3076023E4,2.3898091E2,1.3426859E3,8.321756E3,2.2738958E3,1.1396516E3,1.1203861E2,5.760533E2,1.9998108E3,3.1031693E2,2.9119248E4,1.4088588E2,1.0576815E3,2.4551477E2,1.9442392E1,2.177306E3,3.1039587E1,2.224546E1,5.700898E2,1.3872212E1,2.1313121E4,1.7629019E3,1.3917482E2,9.9806076E1,7.580739E2,5.8461194E2,8.117889E3,2.0386633E2,2.1329158E3,1.4097997E2,5.52042E2,5.8760956E2,3.5093685E1,5.409596E2,1.58346E2,1.5197092E2],"tree_param":{"num_deleted":"0","num_feature":"30","num_nodes":"71","size_leaf_vector":"1"}},{"base_weights":[3.1654738E-2,1.231741E0,-9.160975E-1,1.3217071E0,4.8847413E-1,6.2869674E-1,-9.986939E-1,1.3224117E0,-1.1716419E-1,6.6542894E-1,-1.4816889E0,1.1820642E0,-1.3830541E-1,-1.0556556E0,4.7471935E-1,1.3229026E0,-1.4431942E-1,-1.4194648E-1,8.0666614E-1,-1.3312626E-1,-1.5398155E-1,1.3328941E0,-1.4255346E-1,-4.433676E-1,-1.1815412E0,1.101521E0,-1.38858E-1,1.32602E0,9.9515957E-1,9.4245285E-1,-1.4207612E-1,1.4222504E0,-1.4706138E-1,5.345162E-1,-7.2226566E-1,-1.240535E0,-1.7674935E-1,1.2879215E0,-1.4302804E-1,1.3264108E-1,-1.1464124E-1,1.3866161E-1,-1.9066893E-1,-1.5148495E-1,1.0304876E-1,1.4676628E-1,-1.3525353E-1,9.339335E-2,-1.4128906E-1,-9.0412736E-2,1.1353512E-1,-8.794014E-2,-1.3428114E-1,-1.3717462E-1,7.2486E-2,-1.608486E-1,1.3735928E-1],"categories":[],"categories_nodes":[],"categories_segments":[],"categories_sizes":[],"default_left":[0,0,0,0,0,0,0,0,0,0,0,0,0,0,0,0,0,0,0,0,0,0,0,0,0,0,0,0,0,0,0,0,0,0,0,0,0,0,0,0,0,0,0,0,0,0,0,0,0,0,0,0,0,0,0,0,0],"id":7,"left_children":[1,3,5,7,9,11,13,15,-1,17,19,21,-1,23,25,27,-1,-1,29,-1,-1,31,-1,33,35,37,-1,39,41,43,-1,45,-1,47,49,51,53,55,-1,-1,-1,-1,-1,-1,-1,-1,-1,-1,-1,-1,-1,-1,-1,-1,-1,-1,-1],"loss_changes":[7.937471E4,2.0585234E3,4.9759062E3,4.979297E1,1.1607046E3,2.2054624E3,3.107043E3,3.9195312E1,0E0,9.001575E2,3.4991455E-1,6.12751E2,0E0,2.7463047E3,1.6113759E3,2.6734375E1,0E0,0E0,8.6635376E2,0E0,0E0,3.700232E2,0E0,1.65831E3,1.7519258E3,4.88864E2,0E0,2.7796875E1,3.010749E2,5.84834E2,0E0,1.8140479E2,0E0,1.0510697E3,1.599096E3,1.0300391E3,1.7683931E3,2.4085461E2,0E0,0E0,0E0,0E0,0E0,0E0,0E0,0E0,0E0,0E0,0E0,0E0,0E0,0E0,0E0,0E0,0E0,0E0,0E0],"parents":[2147483647,0,0,1,1,2,2,3,3,4,4,5,5,6,6,7,7,9,9,10,10,11,11,13,13,14,14,15,15,18,18,21,21,23,23,24,24,25,25,27,27,28,28,29,29,31,31,33,33,34,34,35,35,36,36,37,37],"right_children":[2,4,6,8,10,12,14,16,-1,18,20,22,-1,24,26,28,-1,-1,30,-1,-1,32,-1,34,36,38,-1,40,42,44,-1,46,-1,48,50,52,54,56,-1,-1,-1,-1,-1,-1,-1,-1,-1,-1,-1,-1,-1,-1,-1,-1,-1,-1,-1],"split_conditions":[1.7208378E-1,3.015067E-1,1.3955691E-1,2.0735988E-1,-1.6269709E-1,4.032287E-1,5.562885E-1,9.832112E-1,-1.1716419E-1,3.1105906E-1,4.996229E-1,-6.4149864E-2,-1.3830541E-1,-9.998505E-1,5.7056594E-1,1.1448551E-1,-1.4431942E-1,-1.4194648E-1,7.309304E-3,-1.3312626E-1,-1.5398155E-1,3.5670528E-1,-1.4255346E-1,-1.2045497E-1,-9.59878E-1,2.701518E-1,-1.38858E-1,1.2172257E-1,4.6693367E-1,-3.8053304E-1,-1.4207612E-1,4.1330165E-1,-1.4706138E-1,-7.7501014E-2,1.3852665E-1,2.5862512E-1,1.7079729E-1,-1.6796146E-1,-1.4302804E-1,1.3264108E-1,-1.1464124E-1,1.3866161E-1,-1.9066893E-1,-1.5148495E-1,1.0304876E-1,1.4676628E-1,-1.3525353E-1,9.339335E-2,-1.4128906E-1,-9.0412736E-2,1.1353512E-1,-8.794014E-2,-1.3428114E-1,-1.3717462E-1,7.2486E-2,-1.608486E-1,1.3735928E-1],"split_indices":[14,12,20,9,27,12,17,1,0,18,17,13,0,29,8,14,0,0,26,0,0,23,0,9,29,14,0,9,8,28,0,18,0,16,13,14,19,27,0,0,0,0,0,0,0,0,0,0,0,0,0,0,0,0,0,0,0],"split_type":[0,0,0,0,0,0,0,0,0,0,0,0,0,0,0,0,0,0,0,0,0,0,0,0,0,0,0,0,0,0,0,0,0,0,0,0,0,0,0,0,0,0,0,0,0,0,0,0,0,0,0,0,0,0,0,0,0],"sum_hessian":[6.978507E4,3.079313E4,3.8991938E4,2.7467627E4,3.325505E3,1.9786565E3,3.701328E4,2.7460338E4,7.288977E0,3.0520408E3,2.7346396E2,1.5521285E3,4.2652786E2,3.563589E4,1.3773884E3,2.7455986E4,4.3518124E0,1.9306305E2,2.8589778E3,8.2880196E1,1.9058376E2,1.467721E3,8.44077E1,6.0779956E3,2.9557896E4,1.0309817E3,3.4640668E2,2.719427E4,2.6171555E2,2.695249E3,1.6372879E2,1.4228625E3,4.4858303E1,1.3485918E3,4.729404E3,2.7918498E4,1.6393986E3,9.6073987E2,7.024187E1,2.7190436E4,3.8338523E0,2.3106702E2,3.0648542E1,9.265902E1,2.60259E3,1.4004144E3,2.2448168E1,1.1195002E3,2.2909146E2,4.3081475E3,4.212567E2,6.1638413E3,2.1754656E4,7.047708E2,9.3462775E2,2.7090158E1,9.3364966E2],"tree_param":{"num_deleted":"0","num_feature":"30","num_nodes":"57","size_leaf_vector":"1"}},{"base_weights":[2.402092E-2,1.2001004E0,-8.0193436E-1,-1.328484E-1,1.2388102E0,-9.9816E-1,4.654049E-1,-1.3677499E-1,1.2525178E0,5.384174E-1,-1.0735395E0,8.124118E-1,-1.3551875E0,1.2582598E0,-1.3782378E-1,1.0773888E0,-1.3304605E-1,-1.189495E0,-6.3542485E-1,1.105324E0,-2.2057648E-1,-1.4534715E-1,-1.3236286E-1,1.2621884E0,-1.3291909E-1,1.3025396E0,-1.3868637E-1,-1.2166153E0,1.2878991E0,-2.458253E-1,-1.329475E-1,1.1726167E0,-1.3760537E-1,-1.3635782E0,1.272574E0,1.2827863E-1,9.511625E-2,-1.3489702E-1,1.4224371E-1,-1.2446081E-1,2.4061963E-2,1.486223E-1,-1.2528113E-1,-9.050351E-2,8.754667E-2,-1.6169517E-1,1.2241205E-1,-1.4897858E-1,-1.3112804E-1,1.4640754E-1,-1.4297317E-1],"categories":[],"categories_nodes":[],"categories_segments":[],"categories_sizes":[],"default_left":[0,0,0,0,0,0,0,0,0,0,0,0,0,0,0,0,0,0,0,0,0,0,0,0,0,0,0,0,0,0,0,0,0,0,0,0,0,0,0,0,0,0,0,0,0,0,0,0,0,0,0],"id":8,"left_children":[1,3,5,-1,7,9,11,-1,13,15,17,19,21,23,-1,25,-1,27,29,31,33,-1,-1,35,-1,37,-1,39,41,43,-1,45,-1,47,49,-1,-1,-1,-1,-1,-1,-1,-1,-1,-1,-1,-1,-1,-1,-1,-1],"loss_changes":[6.379196E4,2.653539E3,9.59418E3,0E0,9.5516406E2,3.8698633E3,3.2691597E3,0E0,4.0271875E2,1.5756132E3,1.6169805E3,1.3150698E3,6.459961E-1,2.7094922E2,0E0,6.751177E2,0E0,1.6932617E3,1.8022937E3,5.669419E2,1.6415292E3,0E0,0E0,1.6822656E2,0E0,3.5558313E2,0E0,1.01627734E3,1.3948999E2,3.1577156E3,0E0,4.7564014E2,0E0,1.6417236E0,2.1794757E2,0E0,0E0,0E0,0E0,0E0,0E0,0E0,0E0,0E0,0E0,0E0,0E0,0E0,0E0,0E0,0E0],"parents":[2147483647,0,0,1,1,2,2,4,4,5,5,6,6,8,8,9,9,10,10,11,11,12,12,13,13,15,15,17,17,18,18,19,19,20,20,23,23,25,25,27,27,28,28,29,29,31,31,33,33,34,34],"right_children":[2,4,6,-1,8,10,12,-1,14,16,18,20,22,24,-1,26,-1,28,30,32,34,-1,-1,36,-1,38,-1,40,42,44,-1,46,-1,48,50,-1,-1,-1,-1,-1,-1,-1,-1,-1,-1,-1,-1,-1,-1,-1,-1],"split_conditions":[-4.9123127E-2,-6.1326563E-1,-2.7867228E-1,-1.328484E-1,-5.259214E-1,1.3955691E-1,7.048872E-1,-1.3677499E-1,4.8473966E-1,4.032287E-1,4.950034E-1,6.327143E-2,5.693251E-1,6.962695E-1,-1.3782378E-1,3.8924646E-2,-1.3304605E-1,-1.0586964E-1,5.743205E-1,5.809851E-1,-7.237017E-2,-1.4534715E-1,-1.3236286E-1,-9.4236396E-2,-1.3291909E-1,-3.7940556E-1,-1.3868637E-1,3.6501536E-1,-4.8233393E-1,5.70712E-1,-1.329475E-1,-2.4909066E-1,-1.3760537E-1,5.678656E-1,-1.3169275E-1,1.2827863E-1,9.511625E-2,-1.3489702E-1,1.4224371E-1,-1.2446081E-1,2.4061963E-2,1.486223E-1,-1.2528113E-1,-9.050351E-2,8.754667E-2,-1.6169517E-1,1.2241205E-1,-1.4897858E-1,-1.3112804E-1,1.4640754E-1,-1.4297317E-1],"split_indices":[10,4,4,0,11,20,3,0,12,12,17,10,8,3,0,10,0,11,8,8,4,0,0,16,0,28,0,23,7,8,0,26,0,8,16,0,0,0,0,0,0,0,0,0,0,0,0,0,0,0,0],"split_type":[0,0,0,0,0,0,0,0,0,0,0,0,0,0,0,0,0,0,0,0,0,0,0,0,0,0,0,0,0,0,0,0,0,0,0,0,0,0,0,0,0,0,0,0,0,0,0,0,0,0,0],"sum_hessian":[6.5668875E4,2.7092025E4,3.8576848E4,4.0799252E2,2.6684033E4,3.3404887E4,5.1719585E3,1.3907762E2,2.6544955E4,1.5618157E3,3.1843072E4,4.3444546E3,8.275041E2,2.6487666E4,5.7290382E1,1.2125487E3,3.4926706E2,2.5177615E4,6.6654556E3,3.3846416E3,9.5981287E2,1.9017802E2,6.3732605E2,2.644802E4,3.9645607E1,1.1114688E3,1.01079895E2,2.490548E4,2.7213474E2,4.269923E3,2.3955327E3,3.2957905E3,8.885126E1,5.4369946E2,4.1611337E2,2.4802346E4,1.6456731E3,4.7641247E1,1.0638275E3,2.443622E4,4.692605E2,2.528154E2,1.9319334E1,2.689156E3,1.580767E3,5.9196022E1,3.2365945E3,1.5123819E2,3.9246127E2,3.8900443E2,2.7108967E1],"tree_param":{"num_deleted":"0","num_feature":"30","num_nodes":"51","size_leaf_vector":"1"}},{"base_weights":[4.7543637E-2,1.161215E0,-8.474681E-1,1.2473161E0,5.21024E-1,-1.0270339E0,2.5515653E-2,-1.2869519E-1,1.2490996E0,-7.991143E-2,1.143842E0,-1.6467679E-1,-1.0947639E0,5.587905E-1,-7.2474176E-1,1.2500117E0,-1.2473553E-1,-1.1094338E0,1.1636052E0,1.2315439E0,-1.6624917E0,-9.813984E-1,8.5265964E-1,-6.692143E-1,-1.1890451E0,8.5107064E-1,-8.33433E-1,5.188697E-1,-1.1375201E0,1.2503886E0,-1.4659786E-1,-1.4511387E0,6.515788E-1,1.4144484E0,-1.448928E-1,1.2542366E0,-1.6230589E-1,-1.8296783E-1,-1.3111727E-1,1.3057926E0,-1.2914944E-1,1.3275408E0,-1.3161321E-1,-8.650931E-1,1.7873199E0,-1.2414607E0,-8.252291E-2,1.2019314E0,-4.9833663E-2,1.3035443E-1,-1.2983213E-1,-1.3190727E-1,9.9314725E-1,1.1182301E0,-1.29839E-1,1.24822855E-1,1.6231887E-1,-1.5404789E-1,-1.3649581E-1,1.3040079E-1,-1.419598E-1,1.5301657E-1,-1.5818457E-1,-1.4861529E-1,1.2702875E-1,-1.22141294E-1,1.4976136E-1,-1.305338E-1,1.5481776E-1,1.42144775E-2,-1.1481666E-1,2.762217E-1,-1.2881602E-1,-1.2679793E-1,-8.368726E-2,-1.302179E-1,8.990529E-2,1.2855509E-1,-1.4830524E-1,1.0697057E-1,-1.3722251E-1,1.3119636E-1,-1.3163665E-1,-1.22766905E-1,1.346107E-1],"categories":[],"categories_nodes":[],"categories_segments":[],"categories_sizes":[],"default_left":[0,0,0,0,0,0,0,0,0,0,0,0,0,0,0,0,0,0,0,0,0,0,0,0,0,0,0,0,0,0,0,0,0,0,0,0,0,0,0,0,0,0,0,0,0,0,0,0,0,0,0,0,0,0,0,0,0,0,0,0,0,0,0,0,0,0,0,0,0,0,0,0,0,0,0,0,0,0,0,0,0,0,0,0,0],"id":9,"left_children":[1,3,5,7,9,11,13,-1,15,17,19,21,23,25,27,29,-1,31,33,35,37,39,41,43,45,47,49,51,53,55,-1,57,59,61,-1,63,-1,-1,-1,65,-1,67,-1,69,71,73,75,77,79,-1,-1,-1,81,83,-1,-1,-1,-1,-1,-1,-1,-1,-1,-1,-1,-1,-1,-1,-1,-1,-1,-1,-1,-1,-1,-1,-1,-1,-1,-1,-1,-1,-1,-1,-1],"loss_changes":[6.2393285E4,1.5367578E3,5.4403887E3,1.1271875E2,1.2382649E3,1.6810605E3,2.3696626E3,0E0,5.7496094E1,2.1579834E3,4.0189282E2,1.743453E3,1.0699805E3,1.4094579E3,1.2637948E3,2.6976562E1,0E0,5.558273E2,5.0239648E2,1.0412256E2,5.176544E-1,8.2712854E2,9.6419165E2,2.3317898E3,1.2669824E3,9.0464795E2,5.9895636E2,5.3646185E2,6.7200586E2,1.7746094E1,0E0,3.8458252E0,2.0527563E2,2.4412732E2,0E0,7.068457E1,0E0,0E0,0E0,6.943013E1,0E0,4.4765015E2,0E0,1.2791592E3,1.0768181E3,2.2273438E2,1.1853501E3,4.643413E2,1.1904307E3,0E0,0E0,0E0,3.6146283E2,6.769708E1,0E0,0E0,0E0,0E0,0E0,0E0,0E0,0E0,0E0,0E0,0E0,0E0,0E0,0E0,0E0,0E0,0E0,0E0,0E0,0E0,0E0,0E0,0E0,0E0,0E0,0E0,0E0,0E0,0E0,0E0,0E0],"parents":[2147483647,0,0,1,1,2,2,3,3,4,4,5,5,6,6,8,8,9,9,10,10,11,11,12,12,13,13,14,14,15,15,17,17,18,18,19,19,20,20,21,21,22,22,23,23,24,24,25,25,26,26,27,27,28,28,29,29,31,31,32,32,33,33,35,35,39,39,41,41,43,43,44,44,45,45,46,46,47,47,48,48,52,52,53,53],"right_children":[2,4,6,8,10,12,14,-1,16,18,20,22,24,26,28,30,-1,32,34,36,38,40,42,44,46,48,50,52,54,56,-1,58,60,62,-1,64,-1,-1,-1,66,-1,68,-1,70,72,74,76,78,80,-1,-1,-1,82,84,-1,-1,-1,-1,-1,-1,-1,-1,-1,-1,-1,-1,-1,-1,-1,-1,-1,-1,-1,-1,-1,-1,-1,-1,-1,-1,-1,-1,-1,-1,-1],"split_conditions":[1.7208378E-1,3.015067E-1,-3.6834437E-1,-5.5268246E-1,-3.2788545E-1,1.4869595E-1,3.90868E-1,-1.2869519E-1,6.0212847E-2,-9.9174815E-1,3.3304796E-1,-4.6681052E-1,2.4866995E-1,5.739277E-1,-9.998614E-1,9.832112E-1,-1.2473553E-1,9.300546E-1,-2.2817066E-2,-4.551222E-1,3.959243E-2,-9.999416E-1,-4.8103026E-1,2.4765357E-1,-9.59878E-1,3.085334E-1,-9.442618E-2,2.9459167E-1,-6.627739E-2,5.7195805E-2,-1.4659786E-1,-7.470536E-2,-4.8233393E-1,-9.1649845E-2,-1.448928E-1,-7.095357E-2,-1.6230589E-1,-1.8296783E-1,-1.3111727E-1,1.8666707E-1,-1.2914944E-1,8.144111E-1,-1.3161321E-1,-9.9989957E-1,-1.9979693E-1,1.3852665E-1,1.9975188E-1,-1.635216E-1,2.0593101E-1,1.3035443E-1,-1.2983213E-1,-1.3190727E-1,-9.560125E-2,8.77223E-1,-1.29839E-1,1.24822855E-1,1.6231887E-1,-1.5404789E-1,-1.3649581E-1,1.3040079E-1,-1.419598E-1,1.5301657E-1,-1.5818457E-1,-1.4861529E-1,1.2702875E-1,-1.22141294E-1,1.4976136E-1,-1.305338E-1,1.5481776E-1,1.42144775E-2,-1.1481666E-1,2.762217E-1,-1.2881602E-1,-1.2679793E-1,-8.368726E-2,-1.302179E-1,8.990529E-2,1.2855509E-1,-1.4830524E-1,1.0697057E-1,-1.3722251E-1,1.3119636E-1,-1.3163665E-1,-1.22766905E-1,1.346107E-1],"split_indices":[14,12,4,4,4,20,12,0,10,29,23,4,14,8,29,1,0,0,10,7,10,29,6,14,29,14,10,14,10,10,0,9,7,16,0,16,0,0,0,22,0,1,0,29,13,13,19,27,12,0,0,0,16,1,0,0,0,0,0,0,0,0,0,0,0,0,0,0,0,0,0,0,0,0,0,0,0,0,0,0,0,0,0,0,0],"split_type":[0,0,0,0,0,0,0,0,0,0,0,0,0,0,0,0,0,0,0,0,0,0,0,0,0,0,0,0,0,0,0,0,0,0,0,0,0,0,0,0,0,0,0,0,0,0,0,0,0,0,0,0,0,0,0,0,0,0,0,0,0,0,0,0,0,0,0,0,0,0,0,0,0,0,0,0,0,0,0,0,0,0,0,0,0],"sum_hessian":[6.2594812E4,2.7890324E4,3.4704484E4,2.458312E4,3.307206E3,2.8783725E4,5.9207617E3,1.6781168E1,2.4566338E4,1.6836157E3,1.6235903E3,2.0963123E3,2.6687412E4,3.4609856E3,2.459776E3,2.4557865E4,8.472387E0,9.211185E2,7.624972E2,1.5749326E3,4.865771E1,1.1628262E3,9.334861E2,4.841739E3,2.1845674E4,2.8607874E3,6.001983E2,6.129211E2,1.8468549E3,2.4554996E4,2.8683503E0,7.7157825E2,1.4954028E2,6.9611786E2,6.637937E1,1.5630676E3,1.1865007E1,3.0117369E1,1.8540344E1,1.384491E2,1.0243772E3,7.6612286E2,1.6736327E2,4.48478E3,3.56959E2,2.0857537E4,9.881366E2,2.0586887E3,8.020986E2,1.06918106E2,4.932802E2,1.2535569E2,4.8756537E2,1.22545586E2,1.7243093E3,2.4417865E4,1.3713098E2,3.7055923E2,4.0101898E2,1.1400017E2,3.5540115E1,6.7070447E2,2.5413391E1,8.568524E0,1.5544991E3,9.388603E0,1.2906049E2,5.885729E1,7.0726556E2,9.839975E2,3.5007825E3,2.7111887E2,8.584016E1,1.9572527E4,1.2850084E3,4.4048535E2,5.4765125E2,1.9970162E3,6.1672615E1,4.3446805E2,3.6763052E2,4.2880325E2,5.8762115E1,1.0461482E1,1.1208411E2],"tree_param":{"num_deleted":"0","num_feature":"30","num_nodes":"85","size_leaf_vector":"1"}},{"base_weights":[4.879429E-2,1.1244807E0,-7.639667E-1,1.2168998E0,4.0018985E-1,-1.0354415E0,-2.0941511E-1,-1.2525152E-1,1.2187868E0,-2.0577921E-1,1.0813483E0,-6.795505E-2,-1.0866863E0,5.5199796E-1,-5.974403E-1,-1.847818E-1,1.21929E0,6.9123334E-1,-1.0517329E0,1.1794393E0,-1.541576E-1,-1.2575741E-1,6.9320786E-1,-1.1567519E0,-5.280432E-1,9.026674E-1,-9.26545E-1,2.018792E-1,-8.7961197E-1,-1.2242391E-1,1.2198395E0,1.2034903E0,-1.3512574E-1,7.9771405E-1,-1.4221641E0,-1.616834E0,1.2245735E0,-1.2667458E-1,1.1200793E0,-1.2109423E0,-5.712228E-1,2.623773E-1,-1.261037E-1,1.4371651E0,-1.1514733E-2,1.2225407E0,-1.2881224E-1,6.245299E-1,-1.2559853E-1,-9.76305E-1,1.7239834E0,1.2202456E-1,-1.2921515E-1,-1.3141905E-1,1.3917717E-1,-1.4163755E-1,1.2735839E-1,-1.23724476E-1,-1.4651282E-1,-1.9874623E-1,-1.2086318E-1,1.2393331E-1,-2.5425455E-1,1.3169426E-1,-1.2440783E-1,-1.24195516E-1,-7.51323E-2,9.314871E-2,-1.24868885E-1,-1.2555504E-1,9.937507E-2,1.5592758E-1,-1.3676856E-1,-1.3560843E-1,8.384819E-2,1.271465E-1,-1.13084555E-1,8.188635E-2,-1.2930305E-1,-1.2421816E-1,-2.8017068E-2,-1.2445004E-1,3.5299122E-1],"categories":[],"categories_nodes":[],"categories_segments":[],"categories_sizes":[],"default_left":[0,0,0,0,0,0,0,0,0,0,0,0,0,0,0,0,0,0,0,0,0,0,0,0,0,0,0,0,0,0,0,0,0,0,0,0,0,0,0,0,0,0,0,0,0,0,0,0,0,0,0,0,0,0,0,0,0,0,0,0,0,0,0,0,0,0,0,0,0,0,0,0,0,0,0,0,0,0,0,0,0,0,0],"id":10,"left_children":[1,3,5,7,9,11,13,-1,15,17,19,21,23,25,27,-1,29,31,33,35,-1,-1,37,39,41,43,45,47,49,-1,51,53,-1,55,57,59,61,-1,63,65,67,69,-1,71,73,75,-1,77,-1,79,81,-1,-1,-1,-1,-1,-1,-1,-1,-1,-1,-1,-1,-1,-1,-1,-1,-1,-1,-1,-1,-1,-1,-1,-1,-1,-1,-1,-1,-1,-1,-1,-1],"loss_changes":[5.0855508E4,1.6753086E3,4.987963E3,1.04984375E2,1.1701741E3,1.1027559E3,3.2179636E3,0E0,3.6484375E1,1.1396234E3,3.4519043E2,1.0150246E3,8.2625977E2,1.9072793E3,1.627426E3,0E0,3.1273438E1,7.644149E2,5.305794E2,1.644154E2,0E0,0E0,5.733841E2,5.948789E2,1.3653876E3,1.4525107E3,5.4970605E2,1.1611553E3,1.3441431E3,0E0,2.4203125E1,2.78377E2,0E0,1.3835185E2,3.305542E0,7.5610733E-1,7.360803E1,0E0,2.631576E2,2.4393945E2,1.6217634E3,1.2606998E3,0E0,6.4461597E2,1.2557289E3,1.3193481E1,0E0,5.453532E2,0E0,9.5140186E2,1.0299851E3,0E0,0E0,0E0,0E0,0E0,0E0,0E0,0E0,0E0,0E0,0E0,0E0,0E0,0E0,0E0,0E0,0E0,0E0,0E0,0E0,0E0,0E0,0E0,0E0,0E0,0E0,0E0,0E0,0E0,0E0,0E0,0E0],"parents":[2147483647,0,0,1,1,2,2,3,3,4,4,5,5,6,6,8,8,9,9,10,10,11,11,12,12,13,13,14,14,16,16,17,17,18,18,19,19,22,22,23,23,24,24,25,25,26,26,27,27,28,28,30,30,31,31,33,33,34,34,35,35,36,36,38,38,39,39,40,40,41,41,43,43,44,44,45,45,47,47,49,49,50,50],"right_children":[2,4,6,8,10,12,14,-1,16,18,20,22,24,26,28,-1,30,32,34,36,-1,-1,38,40,42,44,46,48,50,-1,52,54,-1,56,58,60,62,-1,64,66,68,70,-1,72,74,76,-1,78,-1,80,82,-1,-1,-1,-1,-1,-1,-1,-1,-1,-1,-1,-1,-1,-1,-1,-1,-1,-1,-1,-1,-1,-1,-1,-1,-1,-1,-1,-1,-1,-1,-1,-1],"split_conditions":[1.7208378E-1,3.015067E-1,-4.306213E-1,-5.5094165E-1,-3.2788545E-1,1.451837E-1,2.6355627E-1,-1.2525152E-1,-6.896176E-1,-4.7326156E-1,3.3304796E-1,-5.1419526E-1,-4.5625055E-1,5.743205E-1,3.5009524E-1,-1.847818E-1,-5.1467633E-1,5.648224E-1,-4.8233393E-1,9.0402704E-1,-1.541576E-1,-1.2575741E-1,-3.7436762E-1,2.8390402E-1,-1.8324602E-1,-1.312496E-1,3.684898E-1,5.713275E-1,1.3852665E-1,-1.2242391E-1,6.8813175E-1,-1.6775474E-1,-1.3512574E-1,9.300546E-1,4.9643427E-1,-1.2308035E-1,7.363767E-1,-1.2667458E-1,4.1181824E-1,7.4219674E-1,2.4866995E-1,4.587627E-1,-1.261037E-1,9.5894945E-1,-3.0201706E-1,4.793345E-1,-1.2881224E-1,7.1088964E-1,-1.2559853E-1,-2.7867228E-1,9.604015E-1,1.2202456E-1,-1.2921515E-1,-1.3141905E-1,1.3917717E-1,-1.4163755E-1,1.2735839E-1,-1.23724476E-1,-1.4651282E-1,-1.9874623E-1,-1.2086318E-1,1.2393331E-1,-2.5425455E-1,1.3169426E-1,-1.2440783E-1,-1.24195516E-1,-7.51323E-2,9.314871E-2,-1.24868885E-1,-1.2555504E-1,9.937507E-2,1.5592758E-1,-1.3676856E-1,-1.3560843E-1,8.384819E-2,1.271465E-1,-1.13084555E-1,8.188635E-2,-1.2930305E-1,-1.2421816E-1,-2.8017068E-2,-1.2445004E-1,3.5299122E-1],"split_indices":[14,12,4,4,4,20,14,0,24,11,23,4,7,8,12,0,11,8,7,1,0,0,28,19,13,13,17,8,13,0,3,27,0,0,17,9,0,0,12,3,14,17,0,1,4,2,0,3,0,4,1,0,0,0,0,0,0,0,0,0,0,0,0,0,0,0,0,0,0,0,0,0,0,0,0,0,0,0,0,0,0,0,0],"split_type":[0,0,0,0,0,0,0,0,0,0,0,0,0,0,0,0,0,0,0,0,0,0,0,0,0,0,0,0,0,0,0,0,0,0,0,0,0,0,0,0,0,0,0,0,0,0,0,0,0,0,0,0,0,0,0,0,0,0,0,0,0,0,0,0,0,0,0,0,0,0,0,0,0,0,0,0,0,0,0,0,0,0,0],"sum_hessian":[5.8166734E4,2.5033973E4,3.313276E4,2.220052E4,2.8334534E3,2.2243049E4,1.0889714E4,1.6445719E1,2.2184072E4,1.4998561E3,1.3335973E3,1.1189998E3,2.1124049E4,3.6759863E3,7.213728E3,3.036861E0,2.2181037E4,7.280483E2,7.718078E2,1.2860524E3,4.754491E1,4.3636078E2,6.82639E2,1.8768957E4,2.3550918E3,2.9715957E3,7.043906E2,1.8822069E3,5.331521E3,4.4861674E0,2.217655E4,5.823945E2,1.4565384E2,1.285991E2,6.4320874E2,1.987509E1,1.2661774E3,1.217346E2,5.609044E2,1.7178066E4,1.5908907E3,1.133466E3,1.2216259E3,1.8748495E3,1.0967462E3,1.01101074E2,6.0328955E2,1.4596191E3,4.2258777E2,5.1412104E3,1.9031075E2,2.217348E4,3.0703366E0,4.0107056E1,5.422874E2,2.240031E1,1.0619879E2,1.2688556E2,5.163232E2,8.389243E0,1.1485847E1,1.2619042E3,4.2731466E0,5.181971E2,4.270729E1,1.6090646E4,1.0874199E3,4.942355E2,1.0966553E3,3.6832004E2,7.651459E2,1.7970576E3,7.779178E1,4.2455978E2,6.7218646E2,9.949247E1,1.6086028E0,1.3258273E3,1.3379189E2,3.7197368E3,1.4214736E3,7.210292E1,1.18207825E2],"tree_param":{"num_deleted":"0","num_feature":"30","num_nodes":"83","size_leaf_vector":"1"}},{"base_weights":[6.441835E-2,1.0527517E0,-7.8613937E-1,1.1099576E0,-4.9427214E-1,-1.1117015E-1,-9.028867E-1,1.1929759E0,6.396604E-1,-9.92654E-1,1.0310823E0,3.529514E-1,-6.65404E-1,-4.3040162E-1,-1.0755924E0,1.2004544E0,9.7176576E-1,1.0374593E0,-7.201947E-2,9.806959E-1,-1.2991352E-1,-1.2263079E-1,1.2678787E0,1.4565307E0,-1.9484352E-1,1.0580733E0,-1.2562333E0,8.535206E-1,-7.017954E-1,-5.44545E-1,-1.1935854E0,1.2008629E0,-1.752992E-1,-1.492626E-1,1.1230774E0,1.11709E0,-1.301087E-1,-1.4233334E0,6.6611063E-1,1.19616665E-1,-1.1907631E-1,1.2847053E-1,-7.899046E-2,-1.2877935E-1,2.3337557E0,1.119046E0,-9.644084E-1,1.2183279E0,-1.3311571E-1,-1.3458334E-1,-1.2345816E-1,1.1906537E0,-3.674657E-1,3.829138E-1,-9.5149183E-1,-1.0547556E0,3.8478953E-1,-9.073538E-1,-1.2116994E0,1.3406672E-1,1.19613424E-1,1.15068845E-1,-3.1181657E-1,-1.2648134E-1,1.1509533E-1,-1.799908E-1,-1.3794339E-1,9.44772E-2,-1.4608756E-1,2.5727022E-1,-1.2657975E-1,1.4026125E-1,-1.2585974E-1,1.3130252E-1,-1.2524454E-1,1.2982623E-1,-1.24582306E-1,-1.2908654E-1,1.4446175E-1,1.19090796E-1,-1.2760362E-1,1.1602165E-1,-1.2622051E-1,-1.23938195E-1,2.8749866E-2,8.177756E-2,-1.2369765E-1,8.495095E-2,-1.2742265E-1,9.364036E-2,-1.2094635E-1,-1.2097525E-1,-1.3396935E-1],"categories":[],"categories_nodes":[],"categories_segments":[],"categories_sizes":[],"default_left":[0,0,0,0,0,0,0,0,0,0,0,0,0,0,0,0,0,0,0,0,0,0,0,0,0,0,0,0,0,0,0,0,0,0,0,0,0,0,0,0,0,0,0,0,0,0,0,0,0,0,0,0,0,0,0,0,0,0,0,0,0,0,0,0,0,0,0,0,0,0,0,0,0,0,0,0,0,0,0,0,0,0,0,0,0,0,0,0,0,0,0,0,0],"id":11,"left_children":[1,3,5,7,9,11,13,15,17,19,21,23,25,27,29,31,33,35,37,39,-1,-1,41,43,45,47,49,51,53,55,57,59,-1,-1,61,63,-1,65,67,-1,-1,-1,-1,-1,69,71,73,75,-1,-1,-1,77,79,81,83,85,87,89,91,-1,-1,-1,-1,-1,-1,-1,-1,-1,-1,-1,-1,-1,-1,-1,-1,-1,-1,-1,-1,-1,-1,-1,-1,-1,-1,-1,-1,-1,-1,-1,-1,-1,-1],"loss_changes":[4.6369895E4,2.258498E3,2.336088E3,9.5986914E2,6.9319543E2,1.1250792E3,2.0619902E3,3.3427734E1,1.0457928E3,4.1663727E2,1.2167612E2,1.4394205E3,2.0310818E3,2.3586484E3,1.1590938E3,2.650586E1,2.5863306E2,4.4268896E2,1.3228727E3,4.4888725E1,0E0,0E0,8.074005E0,1.9043651E3,1.6105509E3,1.9667273E2,1.2192383E0,4.8670306E2,1.5135867E3,1.5967131E3,7.741406E1,1.1765625E1,0E0,0E0,7.968329E1,1.8632227E2,0E0,5.262268E0,5.0980804E2,0E0,0E0,0E0,0E0,0E0,5.183264E2,3.9848523E2,6.604851E2,9.5754456E1,0E0,0E0,0E0,5.854064E2,3.6450473E2,1.3392458E3,1.6203921E3,7.427012E2,9.215907E2,5.053736E2,1.9277344E0,0E0,0E0,0E0,0E0,0E0,0E0,0E0,0E0,0E0,0E0,0E0,0E0,0E0,0E0,0E0,0E0,0E0,0E0,0E0,0E0,0E0,0E0,0E0,0E0,0E0,0E0,0E0,0E0,0E0,0E0,0E0,0E0,0E0,0E0],"parents":[2147483647,0,0,1,1,2,2,3,3,4,4,5,5,6,6,7,7,8,8,9,9,10,10,11,11,12,12,13,13,14,14,15,15,16,16,17,17,18,18,19,19,22,22,23,23,24,24,25,25,26,26,27,27,28,28,29,29,30,30,31,31,34,34,35,35,37,37,38,38,44,44,45,45,46,46,47,47,51,51,52,52,53,53,54,54,55,55,56,56,57,57,58,58],"right_children":[2,4,6,8,10,12,14,16,18,20,22,24,26,28,30,32,34,36,38,40,-1,-1,42,44,46,48,50,52,54,56,58,60,-1,-1,62,64,-1,66,68,-1,-1,-1,-1,-1,70,72,74,76,-1,-1,-1,78,80,82,84,86,88,90,92,-1,-1,-1,-1,-1,-1,-1,-1,-1,-1,-1,-1,-1,-1,-1,-1,-1,-1,-1,-1,-1,-1,-1,-1,-1,-1,-1,-1,-1,-1,-1,-1,-1,-1],"split_conditions":[1.9948252E-1,6.688191E-1,-9.9989957E-1,4.7001857E-2,-9.761054E-1,-1.8752639E-1,2.6355627E-1,-4.612775E-1,-8.340331E-2,-3.972762E-1,1.8868819E-1,-3.843465E-1,5.3021854E-1,1.4983164E-1,5.633867E-1,2.2088474E-2,-1.4907853E-1,5.52211E-1,-4.8055735E-1,-9.9994004E-1,-1.2991352E-1,-1.2263079E-1,-9.558603E-1,-4.8620307E-1,-1.3406712E-2,-8.478399E-2,2.4866995E-1,1.8438354E-2,-7.4558225E-3,2.3339981E-1,1.0934203E-1,-3.4468967E-1,-1.752992E-1,-1.492626E-1,9.5412254E-1,-5.4655874E-1,-1.301087E-1,-4.4494107E-2,1.6139339E-1,1.19616665E-1,-1.1907631E-1,1.2847053E-1,-7.899046E-2,-1.2877935E-1,3.2730058E-1,5.678656E-1,3.6807585E-1,-9.9994004E-1,-1.3311571E-1,-1.3458334E-1,-1.2345816E-1,-3.6780638E-1,4.757867E-1,9.3579415E-4,2.8390402E-1,-1.4125611E-1,5.4371995E-1,-1.1133039E-1,3.6501536E-1,1.3406672E-1,1.19613424E-1,1.15068845E-1,-3.1181657E-1,-1.2648134E-1,1.1509533E-1,-1.799908E-1,-1.3794339E-1,9.44772E-2,-1.4608756E-1,2.5727022E-1,-1.2657975E-1,1.4026125E-1,-1.2585974E-1,1.3130252E-1,-1.2524454E-1,1.2982623E-1,-1.24582306E-1,-1.2908654E-1,1.4446175E-1,1.19090796E-1,-1.2760362E-1,1.1602165E-1,-1.2622051E-1,-1.23938195E-1,2.8749866E-2,8.177756E-2,-1.2369765E-1,8.495095E-2,-1.2742265E-1,9.364036E-2,-1.2094635E-1,-1.2097525E-1,-1.3396935E-1],"split_indices":[14,3,29,14,29,26,14,7,16,13,20,0,8,20,8,16,26,5,6,29,0,0,29,0,19,16,14,0,19,19,21,11,0,0,1,11,0,19,20,0,0,0,0,0,23,8,2,29,0,0,0,0,3,22,19,19,2,19,23,0,0,0,0,0,0,0,0,0,0,0,0,0,0,0,0,0,0,0,0,0,0,0,0,0,0,0,0,0,0,0,0,0,0],"split_type":[0,0,0,0,0,0,0,0,0,0,0,0,0,0,0,0,0,0,0,0,0,0,0,0,0,0,0,0,0,0,0,0,0,0,0,0,0,0,0,0,0,0,0,0,0,0,0,0,0,0,0,0,0,0,0,0,0,0,0,0,0,0,0,0,0,0,0,0,0,0,0,0,0,0,0,0,0,0,0,0,0,0,0,0,0,0,0,0,0,0,0,0,0],"sum_hessian":[5.5158605E4,2.5512861E4,2.9645742E4,2.460336E4,9.095021E2,4.3718804E3,2.5273861E4,2.091062E4,3.692741E3,6.857839E2,2.2371822E2,2.3795676E3,1.9923129E3,6.7662827E3,1.8507578E4,2.0222525E4,6.880933E2,2.368431E3,1.32431E3,9.1895256E1,5.938886E2,2.084293E1,2.0287529E2,7.888014E2,1.5907661E3,5.0842422E2,1.4838887E3,1.1803033E3,5.585979E3,3.3656265E3,1.5141952E4,2.0220322E4,2.2033398E0,3.9291607E1,6.488017E2,2.2909434E3,7.748741E1,4.6750616E2,8.568039E2,8.400837E1,7.886886E0,2.0160248E2,1.2728152E0,1.9095303E2,5.978484E2,5.874131E2,1.0033531E3,4.7692514E2,3.1499077E1,2.768908E2,1.2069978E3,9.249385E2,2.5536491E2,1.045159E3,4.5408203E3,2.1726775E3,1.192949E3,9.042526E2,1.4237699E4,6.522944E2,1.9568027E4,6.453292E2,3.4724898E0,3.1604107E1,2.2593394E3,4.4633568E1,4.228726E2,7.580463E2,9.875755E1,5.6089984E2,3.6948517E1,5.251874E2,6.2225708E1,1.1225145E2,8.911016E2,4.623986E2,1.4526558E1,8.549279E1,8.394457E2,9.393592E1,1.6142899E2,7.0999023E2,3.3516876E2,3.684658E3,8.561623E2,1.9236949E2,1.9803081E3,9.3228674E2,2.6066223E2,1.2701123E2,7.772414E2,1.4034672E4,2.0302757E2],"tree_param":{"num_deleted":"0","num_feature":"30","num_nodes":"93","size_leaf_vector":"1"}},{"base_weights":[3.2525633E-2,1.076868E0,-7.357127E-1,-6.695532E-1,1.1082609E0,-8.634477E-1,1.5528777E-1,-1.3020462E0,9.303911E-1,1.1255928E0,-1.3736982E0,-4.0760654E-1,-1.0575765E0,6.2800103E-1,-8.022057E-1,-1.199127E-1,-1.376823E-1,-1.2731962E-1,1.2206596E-1,1.1341476E0,-1.2263485E-1,-1.2904064E-1,-2.3938659E-1,-1.0572904E0,1.06849246E-1,-1.0885224E0,6.7780817E-1,8.6774945E-1,-4.3822342E-1,2.2263053E-1,-1.25726E0,1.1731873E0,8.469289E-1,3.8756144E-1,-1.2132467E0,6.883339E-1,-6.335236E-1,-1.1171021E0,7.1444994E-1,-1.2335551E-1,1.2650284E0,-1.3026147E-1,9.760221E-1,-1.2608272E0,1.1948341E0,-1.287586E-1,1.0336328E0,-1.3652945E-1,-1.21437214E-1,-1.6913995E-1,1.1736456E-1,1.0398384E-1,-5.1439743E-2,-1.2552291E-1,2.2442818E-1,-1.2055635E-1,-1.2807688E-1,1.0072335E-1,-1.23623885E-1,2.5301567E-1,-8.992659E-2,-1.155286E-1,-3.795436E-2,2.499504E-1,-1.218961E-1,1.3440302E-1,-1.0875992E-1,1.04606465E-1,-1.3150612E-1,-1.8888727E-1,-1.2469504E-1,1.5137242E-1,-1.257145E-1,-1.2857838E-1,1.2305649E-1],"categories":[],"categories_nodes":[],"categories_segments":[],"categories_sizes":[],"default_left":[0,0,0,0,0,0,0,0,0,0,0,0,0,0,0,0,0,0,0,0,0,0,0,0,0,0,0,0,0,0,0,0,0,0,0,0,0,0,0,0,0,0,0,0,0,0,0,0,0,0,0,0,0,0,0,0,0,0,0,0,0,0,0,0,0,0,0,0,0,0,0,0,0,0,0],"id":12,"left_children":[1,3,5,7,9,11,13,15,17,19,21,23,25,27,29,-1,-1,-1,-1,31,-1,-1,-1,33,35,37,39,41,43,45,47,49,51,53,55,57,59,61,63,-1,65,-1,67,69,71,-1,73,-1,-1,-1,-1,-1,-1,-1,-1,-1,-1,-1,-1,-1,-1,-1,-1,-1,-1,-1,-1,-1,-1,-1,-1,-1,-1,-1,-1],"loss_changes":[3.998923E4,1.1589336E3,3.2685527E3,3.7933252E2,8.9426953E2,2.2222305E3,1.6306793E3,4.1314697E-1,6.964095E1,4.1605664E2,9.177856E0,2.5080132E3,9.466953E2,6.1689465E2,5.556437E2,0E0,0E0,0E0,0E0,2.2926367E2,0E0,0E0,0E0,7.47678E2,1.8036199E3,8.9257227E2,3.4862866E2,4.6405566E2,5.971738E2,4.5086346E2,2.1638184E0,2.5714844E1,6.4677136E2,9.9051733E2,8.7890625E-3,1.44135E3,1.5517377E3,4.7936523E2,9.371633E2,0E0,4.551886E1,0E0,3.024818E2,2.1884155E-1,1.1844711E2,0E0,1.1090901E2,0E0,0E0,0E0,0E0,0E0,0E0,0E0,0E0,0E0,0E0,0E0,0E0,0E0,0E0,0E0,0E0,0E0,0E0,0E0,0E0,0E0,0E0,0E0,0E0,0E0,0E0,0E0,0E0],"parents":[2147483647,0,0,1,1,2,2,3,3,4,4,5,5,6,6,7,7,8,8,9,9,10,10,11,11,12,12,13,13,14,14,19,19,23,23,24,24,25,25,26,26,27,27,28,28,29,29,30,30,31,31,32,32,33,33,34,34,35,35,36,36,37,37,38,38,40,40,42,42,43,43,44,44,46,46],"right_children":[2,4,6,8,10,12,14,16,18,20,22,24,26,28,30,-1,-1,-1,-1,32,-1,-1,-1,34,36,38,40,42,44,46,48,50,52,54,56,58,60,62,64,-1,66,-1,68,70,72,-1,74,-1,-1,-1,-1,-1,-1,-1,-1,-1,-1,-1,-1,-1,-1,-1,-1,-1,-1,-1,-1,-1,-1,-1,-1,-1,-1,-1,-1],"split_conditions":[1.7208378E-1,-5.370577E-1,-3.0201706E-1,9.300546E-1,9.8107827E-1,2.6355627E-1,6.88568E-1,4.988201E-1,3.349807E-1,6.0212847E-2,-3.2788545E-1,-4.9824598E-1,1.8666707E-1,9.5724523E-1,2.902157E-2,-1.199127E-1,-1.376823E-1,-1.2731962E-1,1.2206596E-1,4.7001857E-2,-1.2263485E-1,-1.2904064E-1,-2.3938659E-1,-4.2593297E-2,-1.3404244E-1,5.0564134E-1,-6.806562E-2,3.1974176E-1,-4.0918443E-2,-2.7032667E-1,5.692471E-1,-6.7686063E-1,5.7728386E-1,2.5791916E-1,2.8390402E-1,5.743205E-1,-4.9726123E-1,-9.59878E-1,-6.0755306E-1,-1.2335551E-1,6.069031E-1,-1.3026147E-1,2.1797639E-1,3.1177958E-2,-4.7581267E-1,-1.287586E-1,1.8701223E-1,-1.3652945E-1,-1.21437214E-1,-1.6913995E-1,1.1736456E-1,1.0398384E-1,-5.1439743E-2,-1.2552291E-1,2.2442818E-1,-1.2055635E-1,-1.2807688E-1,1.0072335E-1,-1.23623885E-1,2.5301567E-1,-8.992659E-2,-1.155286E-1,-3.795436E-2,2.499504E-1,-1.218961E-1,1.3440302E-1,-1.0875992E-1,1.04606465E-1,-1.3150612E-1,-1.8888727E-1,-1.2469504E-1,1.5137242E-1,-1.257145E-1,-1.2857838E-1,1.2305649E-1],"split_indices":[14,4,4,0,1,14,3,17,23,10,4,4,22,1,10,0,0,0,0,14,0,0,0,10,13,19,9,23,9,15,8,24,17,14,19,8,4,29,24,0,3,0,25,10,6,0,25,0,0,0,0,0,0,0,0,0,0,0,0,0,0,0,0,0,0,0,0,0,0,0,0,0,0,0,0],"split_type":[0,0,0,0,0,0,0,0,0,0,0,0,0,0,0,0,0,0,0,0,0,0,0,0,0,0,0,0,0,0,0,0,0,0,0,0,0,0,0,0,0,0,0,0,0,0,0,0,0,0,0,0,0,0,0,0,0,0,0,0,0,0,0,0,0,0,0,0,0,0,0,0,0,0,0],"sum_hessian":[4.9841008E4,2.112428E4,2.8716727E4,3.7265463E2,2.0751625E4,2.5116084E4,3.6006438E3,2.6720776E2,1.0544687E2,2.060826E4,1.4336516E2,7.5024346E3,1.7613648E4,2.4107861E3,1.1898578E3,1.19613464E2,1.475943E2,1.1879185E1,9.356769E1,2.0534088E4,7.4171265E1,1.3463756E2,8.727599E0,3.3150044E3,4.18743E3,1.7305426E4,3.0822214E2,1.9683698E3,4.424163E2,3.6602866E2,8.2382916E2,1.8074293E4,2.4597961E3,3.228146E2,2.9921897E3,2.3454207E3,1.8420099E3,1.7035766E4,2.6966092E2,7.218007E1,2.3604208E2,9.3005745E1,1.875364E3,2.9436612E2,1.4805017E2,1.27680115E2,2.3834854E2,2.2534634E2,5.984828E2,2.3011055E0,1.8071992E4,2.1546965E3,3.0509946E2,1.7144623E2,1.5136838E2,2.7034214E3,2.8876843E2,2.0124384E3,3.3298215E2,1.4207513E2,1.6999347E3,1.61966875E4,8.3907776E2,1.400576E2,1.296033E2,2.2878802E2,7.2540483E0,1.8202589E3,5.5105152E1,3.4425416E0,2.9092358E2,1.3135017E2,1.6699991E1,1.8220713E1,2.2012782E2],"tree_param":{"num_deleted":"0","num_feature":"30","num_nodes":"75","size_leaf_vector":"1"}},{"base_weights":[4.5051537E-2,1.0582951E0,-7.1188337E-1,1.1530997E0,5.0837696E-1,6.054081E-1,-7.929009E-1,1.1542459E0,-1.11537986E-1,6.3795185E-1,-1.2696452E0,1.0195568E0,-1.2042328E-1,-8.452559E-1,4.6950746E-1,-1.3111381E-1,1.1549029E0,9.631942E-1,1.4872554E-1,-1.6069707E0,-1.199499E-1,1.1384658E0,-1.2672631E-1,-1.0436566E0,-5.597044E-1,7.44892E-1,-1.3367227E-1,1.1566689E0,9.7365314E-1,1.0461236E0,-1.3846879E-1,6.465502E-1,-1.3395666E-1,-1.3062677E-1,-1.8765117E-1,1.2071729E0,-1.2873383E-1,-1.1078664E0,5.8948778E-2,1.2722621E0,-6.764829E-1,-1.2631081E-1,9.359078E-1,1.1551727E-1,1.3651441E-1,1.2020452E-1,-2.1438625E-1,1.0888497E-1,-1.4731193E-1,8.4974125E-2,-1.3647465E-1,1.2427431E-1,-1.1818969E-1,-2.4462013E-2,-1.13850966E-1,-1.2273389E-1,7.228625E-2,-1.1859132E-1,1.8595569E-1,7.756172E-3,-9.59709E-2,1.0382991E-1,-1.2755345E-1],"categories":[],"categories_nodes":[],"categories_segments":[],"categories_sizes":[],"default_left":[0,0,0,0,0,0,0,0,0,0,0,0,0,0,0,0,0,0,0,0,0,0,0,0,0,0,0,0,0,0,0,0,0,0,0,0,0,0,0,0,0,0,0,0,0,0,0,0,0,0,0,0,0,0,0,0,0,0,0,0,0,0,0],"id":13,"left_children":[1,3,5,7,9,11,13,15,-1,17,19,21,-1,23,25,-1,27,29,31,33,-1,35,-1,37,39,41,-1,43,45,47,-1,49,-1,-1,-1,51,-1,53,55,57,59,-1,61,-1,-1,-1,-1,-1,-1,-1,-1,-1,-1,-1,-1,-1,-1,-1,-1,-1,-1,-1,-1],"loss_changes":[3.617977E4,1.0510391E3,2.8822002E3,4.6021484E1,6.845806E2,1.17416E3,1.6816572E3,2.9371094E1,0E0,4.4013196E2,2.850586E0,3.4790344E2,0E0,1.3831816E3,5.0516406E2,0E0,4.376953E0,3.2502722E2,8.2040424E2,1.2776184E-1,0E0,2.0350183E2,0E0,1.0203135E3,2.1435056E3,3.387691E2,0E0,3.7324219E0,1.2519328E2,1.744414E2,0E0,3.401771E2,0E0,0E0,0E0,1.0164343E2,0E0,3.599414E2,6.7892206E2,8.6916266E2,2.0109844E3,0E0,1.8343579E2,0E0,0E0,0E0,0E0,0E0,0E0,0E0,0E0,0E0,0E0,0E0,0E0,0E0,0E0,0E0,0E0,0E0,0E0,0E0,0E0],"parents":[2147483647,0,0,1,1,2,2,3,3,4,4,5,5,6,6,7,7,9,9,10,10,11,11,13,13,14,14,16,16,17,17,18,18,19,19,21,21,23,23,24,24,25,25,27,27,28,28,29,29,31,31,35,35,37,37,38,38,39,39,40,40,42,42],"right_children":[2,4,6,8,10,12,14,16,-1,18,20,22,-1,24,26,-1,28,30,32,34,-1,36,-1,38,40,42,-1,44,46,48,-1,50,-1,-1,-1,52,-1,54,56,58,60,-1,62,-1,-1,-1,-1,-1,-1,-1,-1,-1,-1,-1,-1,-1,-1,-1,-1,-1,-1,-1,-1],"split_conditions":[1.7208378E-1,2.6791504E-1,1.3955691E-1,6.0212847E-2,2.8549677E-2,4.032287E-1,3.6501536E-1,-4.2400134E-1,-1.11537986E-1,9.3579415E-4,-1.2126422E-1,-6.4149864E-2,-1.2042328E-1,5.431512E-1,-4.4960105E-1,-1.3111381E-1,1.1448551E-1,-2.1698809E-1,3.8814038E-1,-2.6991425E-2,-1.199499E-1,3.5670528E-1,-1.2672631E-1,-4.5273566E-1,5.4371995E-1,8.752312E-2,-1.3367227E-1,1.0618004E-1,4.6693367E-1,5.742193E-1,-1.3846879E-1,5.4880464E-1,-1.3395666E-1,-1.3062677E-1,-1.8765117E-1,4.1330165E-1,-1.2873383E-1,-2.3130511E-1,-8.3354145E-2,1.5385071E-2,2.4866995E-1,-1.2631081E-1,2.0677842E-1,1.1551727E-1,1.3651441E-1,1.2020452E-1,-2.1438625E-1,1.0888497E-1,-1.4731193E-1,8.4974125E-2,-1.3647465E-1,1.2427431E-1,-1.1818969E-1,-2.4462013E-2,-1.13850966E-1,-1.2273389E-1,7.228625E-2,-1.1859132E-1,1.8595569E-1,7.756172E-3,-9.59709E-2,1.0382991E-1,-1.2755345E-1],"split_indices":[14,12,20,10,10,12,23,11,0,22,9,13,0,2,7,0,14,15,12,16,0,23,0,7,2,19,0,9,8,8,0,5,0,0,0,18,0,16,9,10,14,0,25,0,0,0,0,0,0,0,0,0,0,0,0,0,0,0,0,0,0,0,0],"split_type":[0,0,0,0,0,0,0,0,0,0,0,0,0,0,0,0,0,0,0,0,0,0,0,0,0,0,0,0,0,0,0,0,0,0,0,0,0,0,0,0,0,0,0,0,0,0,0,0,0,0,0,0,0,0,0,0,0,0,0,0,0,0,0],"sum_hessian":[4.7171004E4,2.0170326E4,2.7000678E4,1.7203406E4,2.9669211E3,1.5640355E3,2.5436643E4,1.7195209E4,8.197468E0,2.7659885E3,2.009326E2,1.2731117E3,2.9092377E2,2.442405E4,1.0125914E3,4.049931E0,1.7191158E4,1.6608624E3,1.105126E3,3.081893E1,1.7011368E2,1.2106625E3,6.2449303E1,1.440962E4,1.0014432E4,8.791418E2,1.3344963E2,1.701995E4,1.7121004E2,1.6047361E3,5.612635E1,8.285475E2,2.7657852E2,1.7330784E1,1.3488146E1,1.1778053E3,3.285714E1,1.3616653E4,7.929666E2,5.995217E2,9.414909E3,7.5878426E1,8.0326337E2,1.6905164E4,1.1478532E2,1.600957E2,1.1114336E1,1.5785321E3,2.620396E1,7.5304834E2,7.549912E1,1.1609993E3,1.6805975E1,4.67097E2,1.3149557E4,2.6966342E2,5.233032E2,1.15416466E2,4.841053E2,2.5709329E3,6.8439766E3,7.682245E2,3.5038845E1],"tree_param":{"num_deleted":"0","num_feature":"30","num_nodes":"63","size_leaf_vector":"1"}},{"base_weights":[4.3219484E-2,1.0697324E0,-6.171012E-1,1.1290339E0,4.2845285E-1,-1.2847362E-1,-8.7459075E-1,1.1337457E0,-1.1502045E-1,9.7936845E-1,-6.6912144E-1,7.530894E-1,-3.4936523E-1,4.927159E-1,-9.4801545E-1,1.1343515E0,-1.4586477E-1,1.0864668E0,-1.5784938E0,1.1040698E0,-1.3019297E0,9.544115E-1,-4.9677962E-1,-9.615614E-1,1.6711757E-1,1.0925702E0,-1.2092563E-1,2.3349312E-1,-9.910695E-1,1.1346345E0,-9.7998984E-2,-1.6473363E-1,1.152346E0,-1.4181402E-1,-2.0840786E-1,-1.035133E-1,1.1336072E-1,-1.664522E-1,-1.2808493E-1,1.394412E0,5.5727774E-1,-1.213583E-1,1.1308266E0,1.1260301E0,-1.0569061E0,4.3811226E-1,-1.2144933E0,1.3113078E0,-1.2699205E-1,9.58176E-1,-1.216739E-1,-1.0261214E0,-2.6158535E-1,1.1361384E-1,8.062816E-2,1.1817124E-1,-1.3806525E-1,1.4890908E-1,-1.15697555E-1,-1.2596457E-1,9.037328E-2,-7.0083044E-2,1.1714981E-1,1.4630198E-1,-1.2040807E-1,2.2927871E-2,-1.1971821E-1,1.4265281E-1,4.993819E-3,-1.19591966E-1,-1.4453326E-1,1.4182363E-1,-1.1666886E-1,-1.1566051E-1,1.2395252E-1,-1.0739414E-1,-4.649603E-2,1.0998155E-1,-1.2221761E-1],"categories":[],"categories_nodes":[],"categories_segments":[],"categories_sizes":[],"default_left":[0,0,0,0,0,0,0,0,0,0,0,0,0,0,0,0,0,0,0,0,0,0,0,0,0,0,0,0,0,0,0,0,0,0,0,0,0,0,0,0,0,0,0,0,0,0,0,0,0,0,0,0,0,0,0,0,0,0,0,0,0,0,0,0,0,0,0,0,0,0,0,0,0,0,0,0,0,0,0],"id":14,"left_children":[1,3,5,7,9,11,13,15,-1,17,19,21,23,25,27,29,-1,31,33,35,37,39,41,43,45,47,-1,49,51,53,-1,-1,55,-1,-1,-1,-1,-1,-1,57,59,-1,61,63,65,67,69,71,-1,73,-1,75,77,-1,-1,-1,-1,-1,-1,-1,-1,-1,-1,-1,-1,-1,-1,-1,-1,-1,-1,-1,-1,-1,-1,-1,-1,-1,-1],"loss_changes":[2.9682797E4,6.5141797E2,3.35275E3,1.6980469E2,8.7902246E2,1.791359E3,1.752543E3,2.6248047E1,0E0,2.6677667E2,5.468369E2,4.6427893E2,2.3259248E3,9.1002734E2,8.427676E2,1.0482422E1,0E0,1.6926367E2,2.3000336E-1,9.285278E0,6.096802E-1,2.7668457E2,3.0046872E2,6.71176E2,1.4946284E3,3.420304E2,0E0,6.1402246E2,4.0835645E2,6.8125E0,0E0,0E0,6.917383E1,0E0,0E0,0E0,0E0,0E0,0E0,1.8352502E2,5.2754395E2,0E0,6.698906E0,1.17586044E2,5.811526E2,1.2802251E3,1.0783691E0,1.6151611E2,0E0,2.3312183E2,0E0,4.0866895E2,9.6125397E2,0E0,0E0,0E0,0E0,0E0,0E0,0E0,0E0,0E0,0E0,0E0,0E0,0E0,0E0,0E0,0E0,0E0,0E0,0E0,0E0,0E0,0E0,0E0,0E0,0E0,0E0],"parents":[2147483647,0,0,1,1,2,2,3,3,4,4,5,5,6,6,7,7,9,9,10,10,11,11,12,12,13,13,14,14,15,15,17,17,18,18,19,19,20,20,21,21,22,22,23,23,24,24,25,25,27,27,28,28,29,29,32,32,39,39,40,40,42,42,43,43,44,44,45,45,46,46,47,47,49,49,51,51,52,52],"right_children":[2,4,6,8,10,12,14,16,-1,18,20,22,24,26,28,30,-1,32,34,36,38,40,42,44,46,48,-1,50,52,54,-1,-1,56,-1,-1,-1,-1,-1,-1,58,60,-1,62,64,66,68,70,72,-1,74,-1,76,78,-1,-1,-1,-1,-1,-1,-1,-1,-1,-1,-1,-1,-1,-1,-1,-1,-1,-1,-1,-1,-1,-1,-1,-1,-1,-1],"split_conditions":[1.4471485E-1,4.7001857E-2,2.6355627E-1,4.1441843E-2,-1.3147613E-1,1.5144888E-1,9.17689E-2,9.832112E-1,-1.1502045E-1,4.7295144E-1,-9.442618E-2,4.2994672E-1,3.4136504E-1,-1.5816052E-1,1.3955691E-1,6.688191E-1,-1.4586477E-1,-4.2918406E-2,1.2519272E-3,-3.7714228E-1,3.059488E-1,-1.7659798E-1,1.8666707E-1,-2.1195248E-1,1.2141494E-2,3.6199015E-1,-1.2092563E-1,-1.4152683E-1,1.8627615E-1,3.8510346E-1,-9.7998984E-2,-1.6473363E-1,6.416809E-1,-1.4181402E-1,-2.0840786E-1,-1.035133E-1,1.1336072E-1,-1.664522E-1,-1.2808493E-1,4.2336026E-1,-4.4815487E-1,-1.213583E-1,4.9126115E-1,-4.8858848E-1,1.7208378E-1,3.59096E-1,-3.02499E-2,-1.2304425E-1,-1.2699205E-1,1.9975188E-1,-1.216739E-1,1.3852665E-1,-3.1041297E-1,1.1361384E-1,8.062816E-2,1.1817124E-1,-1.3806525E-1,1.4890908E-1,-1.15697555E-1,-1.2596457E-1,9.037328E-2,-7.0083044E-2,1.1714981E-1,1.4630198E-1,-1.2040807E-1,2.2927871E-2,-1.1971821E-1,1.4265281E-1,4.993819E-3,-1.19591966E-1,-1.4453326E-1,1.4182363E-1,-1.1666886E-1,-1.1566051E-1,1.2395252E-1,-1.0739414E-1,-4.649603E-2,1.0998155E-1,-1.2221761E-1],"split_indices":[14,14,14,10,9,20,21,1,0,18,10,12,18,9,20,3,0,22,16,11,12,16,22,19,10,14,0,16,20,12,0,0,3,0,0,0,0,0,0,18,11,0,2,6,14,18,16,13,0,19,0,13,13,0,0,0,0,0,0,0,0,0,0,0,0,0,0,0,0,0,0,0,0,0,0,0,0,0,0],"split_type":[0,0,0,0,0,0,0,0,0,0,0,0,0,0,0,0,0,0,0,0,0,0,0,0,0,0,0,0,0,0,0,0,0,0,0,0,0,0,0,0,0,0,0,0,0,0,0,0,0,0,0,0,0,0,0,0,0,0,0,0,0,0,0,0,0,0,0,0,0,0,0,0,0,0,0,0,0,0,0],"sum_hessian":[4.3789086E4,1.7141246E4,2.664784E4,1.5689608E4,1.451637E3,9.196849E3,1.7450992E4,1.5657743E4,3.18655E1,9.6658014E2,4.8505676E2,1.8422294E3,7.354619E3,8.8907214E2,1.656192E4,1.5654647E4,3.0958369E0,9.282877E2,3.8292404E1,1.2738017E2,3.576766E2,1.5868627E3,2.5536679E2,3.3650747E3,3.9895442E3,6.576453E2,2.314268E2,5.8214075E2,1.5979778E4,1.5653015E4,1.6323953E0,2.1278622E1,9.070091E2,3.1960588E1,6.331817E0,1.2711828E0,1.2610899E2,1.53686285E1,3.4230795E2,7.5161115E2,8.3525146E2,1.7746498E2,7.79018E1,1.465051E2,3.2185696E3,3.3359087E3,6.5363556E2,6.0232263E2,5.5322712E1,3.8839734E2,1.9374338E2,1.5246762E4,7.330168E2,1.5579204E4,7.381136E1,8.9714154E2,9.867565E0,7.2511926E2,2.6491861E1,1.3333957E2,7.019119E2,1.3396261E0,7.656218E1,1.283192E2,1.8185898E1,3.1644675E2,2.9021228E3,9.399131E2,2.3959956E3,6.1068024E2,4.2955315E1,5.7781683E2,2.4505825E1,4.5239613E1,3.4315775E2,1.4048676E4,1.1980864E3,3.0318365E2,4.2983313E2],"tree_param":{"num_deleted":"0","num_feature":"30","num_nodes":"79","size_leaf_vector":"1"}},{"base_weights":[5.6097493E-2,9.6737635E-1,-6.8204737E-1,2.4585168E-1,1.0911313E0,-8.302276E-1,3.3864188E-1,6.296313E-1,-1.22513115E-1,1.0965801E0,-1.23138845E-1,4.247543E-2,-9.311759E-1,6.675137E-1,-1.18486576E-1,1.0140965E0,-5.087884E-1,1.1261448E0,9.074266E-1,-1.1521917E-1,6.0512596E-1,-1.1108012E0,-6.711763E-1,1.1864005E0,1.5204404E-1,1.0843264E0,-1.17196694E-1,9.5607215E-1,-1.2893556E-1,1.1306155E0,-1.2560952E-1,-1.4440988E-1,9.5758533E-1,-1.1882599E-1,9.2799E-1,-1.1438572E0,3.6622605E-1,1.6931982E-1,-9.396035E-1,-1.2836674E-1,1.2387367E0,-7.856002E-1,1.0419635E0,1.1289548E-1,-1.2854858E-1,-1.24761716E-1,1.1795165E-1,1.1239405E-1,1.7313318E-1,2.3632977E-2,1.0826649E-1,1.15707874E-1,-1.17168106E-1,-1.1720747E-1,-1.13699734E-1,1.4925683E-1,-1.2744966E-1,1.340614E-1,-7.168506E-2,-3.2130968E-2,-1.14267685E-1,-1.1732578E-1,1.2818383E-1,-1.2374318E-1,1.1993702E-1,-1.281528E-1,1.2355746E-1],"categories":[],"categories_nodes":[],"categories_segments":[],"categories_sizes":[],"default_left":[0,0,0,0,0,0,0,0,0,0,0,0,0,0,0,0,0,0,0,0,0,0,0,0,0,0,0,0,0,0,0,0,0,0,0,0,0,0,0,0,0,0,0,0,0,0,0,0,0,0,0,0,0,0,0,0,0,0,0,0,0,0,0,0,0,0,0],"id":15,"left_children":[1,3,5,7,9,11,13,15,-1,17,-1,19,21,23,-1,25,27,29,31,-1,33,35,37,39,41,43,-1,45,-1,47,-1,-1,49,-1,51,53,55,57,59,-1,61,63,65,-1,-1,-1,-1,-1,-1,-1,-1,-1,-1,-1,-1,-1,-1,-1,-1,-1,-1,-1,-1,-1,-1,-1,-1],"loss_changes":[2.7836162E4,1.6533652E3,3.4582432E3,1.5321538E3,2.0139844E2,1.758919E3,1.453365E3,9.4241925E2,0E0,8.7171875E1,0E0,1.3927382E3,8.34999E2,6.37751E2,0E0,2.4830505E2,6.232113E2,1.4664258E2,2.5343774E2,0E0,8.166677E2,5.170742E2,1.6503401E3,1.5522449E2,1.0001407E3,1.6638477E2,0E0,9.486507E1,0E0,5.2628906E1,0E0,0E0,1.8855762E2,0E0,5.7577795E2,6.7089844E-1,4.313748E2,1.8395532E3,6.957202E2,0E0,1.2254419E2,5.250242E2,2.781867E2,0E0,0E0,0E0,0E0,0E0,0E0,0E0,0E0,0E0,0E0,0E0,0E0,0E0,0E0,0E0,0E0,0E0,0E0,0E0,0E0,0E0,0E0,0E0,0E0],"parents":[2147483647,0,0,1,1,2,2,3,3,4,4,5,5,6,6,7,7,9,9,11,11,12,12,13,13,15,15,16,16,17,17,18,18,20,20,21,21,22,22,23,23,24,24,25,25,27,27,29,29,32,32,34,34,35,35,36,36,37,37,38,38,40,40,41,41,42,42],"right_children":[2,4,6,8,10,12,14,16,-1,18,-1,20,22,24,-1,26,28,30,32,-1,34,36,38,40,42,44,-1,46,-1,48,-1,-1,50,-1,52,54,56,58,60,-1,62,64,66,-1,-1,-1,-1,-1,-1,-1,-1,-1,-1,-1,-1,-1,-1,-1,-1,-1,-1,-1,-1,-1,-1,-1,-1],"split_conditions":[1.9948252E-1,-3.9435816E-1,-2.7867228E-1,6.4938366E-1,7.129467E-1,1.4983164E-1,7.048872E-1,-9.1649845E-2,-1.22513115E-1,5.312869E-1,-1.23138845E-1,-5.1419526E-1,5.418704E-1,-9.997011E-1,-1.18486576E-1,1.2548397E-2,-4.8233393E-1,4.2837447E-1,4.0257752E-1,-1.1521917E-1,-1.6600035E-1,-4.320163E-1,5.46375E-1,3.2866037E-1,-4.5273566E-1,4.4660142E-1,-1.17196694E-1,6.335066E-1,-1.2893556E-1,1.962228E-1,-1.2560952E-1,-1.4440988E-1,-3.2788545E-1,-1.1882599E-1,4.2994672E-1,2.5862512E-1,-9.558603E-1,-9.9989957E-1,2.4866995E-1,-1.2836674E-1,1.5311685E-1,1.8666707E-1,8.696522E-1,1.1289548E-1,-1.2854858E-1,-1.24761716E-1,1.1795165E-1,1.1239405E-1,1.7313318E-1,2.3632977E-2,1.0826649E-1,1.15707874E-1,-1.17168106E-1,-1.1720747E-1,-1.13699734E-1,1.4925683E-1,-1.2744966E-1,1.340614E-1,-7.168506E-2,-3.2130968E-2,-1.14267685E-1,-1.1732578E-1,1.2818383E-1,-1.2374318E-1,1.1993702E-1,-1.281528E-1,1.2355746E-1],"split_indices":[14,4,4,3,3,20,3,16,0,17,0,4,2,29,0,9,7,12,18,0,27,7,2,23,7,12,0,3,0,14,0,0,4,0,12,14,29,29,14,0,20,22,1,0,0,0,0,0,0,0,0,0,0,0,0,0,0,0,0,0,0,0,0,0,0,0,0],"split_type":[0,0,0,0,0,0,0,0,0,0,0,0,0,0,0,0,0,0,0,0,0,0,0,0,0,0,0,0,0,0,0,0,0,0,0,0,0,0,0,0,0,0,0,0,0,0,0,0,0,0,0,0,0,0,0,0,0,0,0,0,0,0,0,0,0,0,0],"sum_hessian":[4.1380496E4,1.8518328E4,2.2862166E4,2.7116528E3,1.5806676E4,1.9964041E4,2.8981255E3,2.1510227E3,5.606301E2,1.5770205E4,3.6470665E1,2.0699346E3,1.7894105E4,2.384054E3,5.140717E2,1.6080603E3,5.4296234E2,1.3634232E4,2.1359736E3,6.624075E2,1.4075272E3,1.0580861E4,7.3132446E3,1.1874402E3,1.1966136E3,1.5584958E3,4.9564564E1,1.8866922E2,3.542931E2,1.3609217E4,2.5015137E1,4.402901E1,2.0919446E3,2.1432938E2,1.1931978E3,1.0349465E4,2.313966E2,1.7703413E3,5.5429033E3,2.4149467E1,1.1632906E3,5.827398E2,6.138739E2,1.5302026E3,2.8293173E1,1.6947107E1,1.717221E2,1.3462496E4,1.4672101E2,3.0959457E2,1.78235E3,1.0762233E3,1.1697452E2,1.9907532E3,8.358712E3,1.3725945E2,9.413715E1,7.622827E2,1.0080586E3,1.3710562E3,4.171847E3,1.996232E1,1.1433284E3,4.7499503E2,1.077448E2,4.678588E1,5.67088E2],"tree_param":{"num_deleted":"0","num_feature":"30","num_nodes":"67","size_leaf_vector":"1"}},{"base_weights":[7.660018E-3,9.861926E-1,-6.5479374E-1,-1.14546895E-1,1.0332108E0,-8.3756334E-1,4.5235085E-1,-1.18497215E-1,1.0603212E0,-1.0125866E0,-3.479644E-1,6.858975E-1,-6.4167154E-1,1.1131481E0,6.0700506E-1,-1.0473307E0,8.82148E-1,1.5552618E-1,-1.093229E0,7.946301E-1,-1.1959225E-1,-1.17272414E-1,9.656596E-1,1.796408E0,1.0982038E0,8.4046817E-1,-7.172511E-1,1.2229034E-1,-1.0918818E0,-1.13617264E-1,2.5115829E0,6.698457E-1,-1.1624699E-1,1.0055865E0,-1.1819552E0,2.9106915E-1,1.049756E0,-1.15773395E-1,1.3603364E-1,2.1298213E-1,1.4176759E-1,1.1057748E-1,-1.1304857E-1,9.407573E-2,-1.336337E-1,1.06551446E-1,-1.2729007E-1,-1.18751965E-1,9.786152E-2,9.473144E-2,-1.10636294E-1,-7.604039E-2,2.5609517E-1,-1.21647194E-1,8.8814154E-2,1.1679721E-1,-1.0052574E-1,-1.1497382E-1,-1.2233924E-1,-1.249676E-1,8.53929E-2,1.0847642E-1,-1.2838684E-1],"categories":[],"categories_nodes":[],"categories_segments":[],"categories_sizes":[],"default_left":[0,0,0,0,0,0,0,0,0,0,0,0,0,0,0,0,0,0,0,0,0,0,0,0,0,0,0,0,0,0,0,0,0,0,0,0,0,0,0,0,0,0,0,0,0,0,0,0,0,0,0,0,0,0,0,0,0,0,0,0,0,0,0],"id":16,"left_children":[1,3,5,-1,7,9,11,-1,13,15,17,19,21,23,25,27,29,31,33,35,-1,-1,37,39,41,43,45,47,49,-1,51,53,-1,55,57,59,61,-1,-1,-1,-1,-1,-1,-1,-1,-1,-1,-1,-1,-1,-1,-1,-1,-1,-1,-1,-1,-1,-1,-1,-1,-1,-1],"loss_changes":[2.4033908E4,1.5013086E3,4.4741357E3,0E0,8.819404E2,1.6257646E3,8.01006E2,0E0,3.458047E2,9.211494E2,1.8759019E3,5.293779E2,4.7207025E2,1.3033301E2,4.681537E2,7.154385E2,8.324536E2,2.0236884E3,3.765376E2,3.134314E2,0E0,0E0,1.16861664E2,3.1802551E1,2.1524707E2,2.8202704E2,2.2641476E2,5.671241E2,3.915459E2,0E0,2.4543823E1,8.8524255E2,0E0,2.80456E1,1.1757812E0,7.1443414E2,1.3378015E2,0E0,0E0,0E0,0E0,0E0,0E0,0E0,0E0,0E0,0E0,0E0,0E0,0E0,0E0,0E0,0E0,0E0,0E0,0E0,0E0,0E0,0E0,0E0,0E0,0E0,0E0],"parents":[2147483647,0,0,1,1,2,2,4,4,5,5,6,6,8,8,9,9,10,10,11,11,12,12,13,13,14,14,15,15,16,16,17,17,18,18,19,19,22,22,23,23,24,24,25,25,26,26,27,27,28,28,30,30,31,31,33,33,34,34,35,35,36,36],"right_children":[2,4,6,-1,8,10,12,-1,14,16,18,20,22,24,26,28,30,32,34,36,-1,-1,38,40,42,44,46,48,50,-1,52,54,-1,56,58,60,62,-1,-1,-1,-1,-1,-1,-1,-1,-1,-1,-1,-1,-1,-1,-1,-1,-1,-1,-1,-1,-1,-1,-1,-1,-1,-1],"split_conditions":[-4.0794346E-2,-6.1326563E-1,-2.6147658E-1,-1.14546895E-1,-5.07811E-1,4.9304917E-1,7.0142186E-1,-1.18497215E-1,-1.2166771E-1,2.4367544E-1,-1.3404244E-1,4.2837447E-1,2.3373139E-1,-6.070927E-1,-4.8542485E-1,1.3955691E-1,5.100945E-1,5.7219297E-1,-9.8999953E-1,-4.1168582E-1,-1.1959225E-1,-1.17272414E-1,-2.7802446E-1,4.5037064E-1,6.962695E-1,-2.4846128E-1,-9.9999064E-1,8.5281837E-1,1.4250584E-1,-1.13617264E-1,1.9625328E-1,-1.6917534E-1,-1.1624699E-1,4.688388E-1,3.1202066E-1,-3.7233153E-1,5.797208E-1,-1.15773395E-1,1.3603364E-1,2.1298213E-1,1.4176759E-1,1.1057748E-1,-1.1304857E-1,9.407573E-2,-1.336337E-1,1.06551446E-1,-1.2729007E-1,-1.18751965E-1,9.786152E-2,9.473144E-2,-1.10636294E-1,-7.604039E-2,2.5609517E-1,-1.21647194E-1,8.8814154E-2,1.1679721E-1,-1.0052574E-1,-1.1497382E-1,-1.2233924E-1,-1.249676E-1,8.53929E-2,1.0847642E-1,-1.2838684E-1],"split_indices":[10,4,4,0,11,17,3,0,16,26,13,12,25,4,6,20,12,8,0,11,0,0,11,17,3,15,29,1,12,0,25,27,0,2,18,28,8,0,0,0,0,0,0,0,0,0,0,0,0,0,0,0,0,0,0,0,0,0,0,0,0,0,0],"split_type":[0,0,0,0,0,0,0,0,0,0,0,0,0,0,0,0,0,0,0,0,0,0,0,0,0,0,0,0,0,0,0,0,0,0,0,0,0,0,0,0,0,0,0,0,0,0,0,0,0,0,0,0,0,0,0,0,0,0,0,0,0,0,0],"sum_hessian":[3.7074062E4,1.4966321E4,2.2107742E4,3.224841E2,1.4643837E4,1.8975477E4,3.1322659E3,1.762995E2,1.4467537E4,1.3977641E4,4.997835E3,2.5815435E3,5.507224E2,1.2956235E4,1.5113022E3,1.3726385E4,2.5125606E2,2.9832104E3,2.0146246E3,2.4410745E3,1.4046893E2,4.1415762E2,1.365648E2,2.747642E2,1.2681471E4,1.2851064E3,2.2619572E2,5.0359204E2,1.3222793E4,1.12370094E2,1.3888597E2,2.1461956E3,8.370147E2,8.129355E1,1.933331E3,8.215872E2,1.6194872E3,2.1101835E1,1.15462975E2,1.4366585E2,1.3109836E2,1.2639039E4,4.2432186E1,1.2290498E3,5.605663E1,5.353014E1,1.7266559E2,1.9892906E2,3.0466296E2,9.278409E1,1.3130009E4,1.850337E0,1.3703563E2,2.2213458E2,1.924061E3,7.560706E1,5.686483E0,1.1038464E3,8.294847E2,2.1950493E2,6.0208234E2,1.5960785E3,2.3408663E1],"tree_param":{"num_deleted":"0","num_feature":"30","num_nodes":"63","size_leaf_vector":"1"}},{"base_weights":[3.661086E-2,1.007642E0,-5.3971267E-1,-1.12604976E-1,1.0431426E0,-9.171109E-1,4.2341556E-2,-1.1503481E-1,1.0565788E0,1.1797456E-1,-9.863E-1,7.291921E-1,-2.1312171E-1,1.0917149E0,6.3090396E-1,-1.13597E-1,6.851092E-1,-1.0226866E0,8.50926E-1,-1.1973033E-1,1.0112628E0,1.3441128E-1,-1.1297973E-1,1.0956347E0,-1.1540202E-1,-1.294491E-1,9.8492825E-1,-1.15331225E-1,9.580422E-1,9.056523E-1,-1.0531818E0,-1.1241408E-1,2.160446E0,-7.328107E-1,1.1827921E0,-3.0955595E-1,5.867864E-1,1.0974304E-1,-1.2414048E-1,1.0688408E-1,-1.5996157E-1,1.09289065E-1,-1.2101314E-1,1.6466932E-1,-1.10423446E-1,-1.1233433E-1,-6.524386E-2,-7.735461E-2,2.2072998E-1,1.075685E-1,-1.3685998E-1,1.9028449E-1,9.3823515E-2,4.0267713E-2,-1.1400016E-1,7.948395E-2,-6.329683E-2],"categories":[],"categories_nodes":[],"categories_segments":[],"categories_sizes":[],"default_left":[0,0,0,0,0,0,0,0,0,0,0,0,0,0,0,0,0,0,0,0,0,0,0,0,0,0,0,0,0,0,0,0,0,0,0,0,0,0,0,0,0,0,0,0,0,0,0,0,0,0,0,0,0,0,0,0,0],"id":17,"left_children":[1,3,5,-1,7,9,11,-1,13,15,17,19,21,23,25,-1,27,29,31,-1,33,35,-1,37,-1,-1,39,-1,41,43,45,-1,47,49,51,53,55,-1,-1,-1,-1,-1,-1,-1,-1,-1,-1,-1,-1,-1,-1,-1,-1,-1,-1,-1,-1],"loss_changes":[1.950398E4,9.844297E2,4.8043506E3,0E0,3.7754004E2,9.50334E2,1.5098296E3,0E0,1.8913477E2,5.926131E2,8.3228125E2,1.2688433E3,1.9982854E3,1.0445703E2,6.6252014E2,0E0,2.889502E2,7.181299E2,6.285357E2,0E0,6.097644E2,9.137577E2,0E0,5.0472656E1,0E0,0E0,1.7954443E2,0E0,1.4752554E2,2.8540518E2,3.3684863E2,0E0,2.1765137E1,2.117402E2,3.246023E2,1.3587007E3,5.7235724E2,0E0,0E0,0E0,0E0,0E0,0E0,0E0,0E0,0E0,0E0,0E0,0E0,0E0,0E0,0E0,0E0,0E0,0E0,0E0,0E0],"parents":[2147483647,0,0,1,1,2,2,4,4,5,5,6,6,8,8,9,9,10,10,11,11,12,12,13,13,14,14,16,16,17,17,18,18,20,20,21,21,23,23,26,26,28,28,29,29,30,30,32,32,33,33,34,34,35,35,36,36],"right_children":[2,4,6,-1,8,10,12,-1,14,16,18,20,22,24,26,-1,28,30,32,-1,34,36,-1,38,-1,-1,40,-1,42,44,46,-1,48,50,52,54,56,-1,-1,-1,-1,-1,-1,-1,-1,-1,-1,-1,-1,-1,-1,-1,-1,-1,-1,-1,-1],"split_conditions":[-4.9123127E-2,-6.1326563E-1,-4.306213E-1,-1.12604976E-1,-5.259214E-1,1.451837E-1,-9.998614E-1,-1.1503481E-1,-9.4236396E-2,-5.1419526E-1,2.4367544E-1,-3.733285E-1,4.2994672E-1,1.2548397E-2,-3.8327205E-1,-1.13597E-1,-3.7581557E-1,-4.933408E-1,5.100945E-1,-1.1973033E-1,-7.0211207E-3,4.9304917E-1,-1.1297973E-1,-4.174023E-1,-1.1540202E-1,-1.294491E-1,-9.9989957E-1,-1.15331225E-1,-3.9870843E-1,5.8515805E-1,-2.8806955E-1,-1.1241408E-1,1.9625328E-1,3.684898E-1,-3.729084E-1,3.650838E-1,5.739277E-1,1.0974304E-1,-1.2414048E-1,1.0688408E-1,-1.5996157E-1,1.09289065E-1,-1.2101314E-1,1.6466932E-1,-1.10423446E-1,-1.1233433E-1,-6.524386E-2,-7.735461E-2,2.2072998E-1,1.075685E-1,-1.3685998E-1,1.9028449E-1,9.3823515E-2,4.0267713E-2,-1.1400016E-1,7.948395E-2,-6.329683E-2],"split_indices":[10,4,4,0,11,20,29,0,16,4,26,28,12,9,4,0,28,26,12,0,10,17,0,7,0,0,29,0,11,3,11,0,25,17,28,12,8,0,0,0,0,0,0,0,0,0,0,0,0,0,0,0,0,0,0,0,0],"split_type":[0,0,0,0,0,0,0,0,0,0,0,0,0,0,0,0,0,0,0,0,0,0,0,0,0,0,0,0,0,0,0,0,0,0,0,0,0,0,0,0,0,0,0,0,0,0,0,0,0,0,0,0,0,0,0,0,0],"sum_hessian":[3.484971E4,1.2979749E4,2.186996E4,2.1192094E2,1.2767828E4,1.3267116E4,8.602844E3,7.72176E1,1.269061E4,8.312159E2,1.24359E4,2.3317466E3,6.2710977E3,1.1721525E4,9.6908466E2,2.5855133E2,5.7266455E2,1.2194823E4,2.4107768E2,2.973885E2,2.0343582E3,4.5477817E3,1.723316E3,1.1701613E4,1.9912518E1,1.500992E2,8.189854E2,7.36109E1,4.9905365E2,1.8940234E2,1.2005421E4,9.617083E1,1.4490686E2,1.8187009E2,1.852488E3,2.2953796E3,2.2524019E3,1.1693159E4,8.4540415E0,7.9379956E2,2.5185871E1,4.7029956E2,2.875408E1,1.3851344E2,5.088891E1,1.0215161E4,1.7902594E3,2.0338993E0,1.4287296E2,4.7126717E1,1.3474336E2,4.6794107E2,1.384547E3,1.2359124E3,1.0594673E3,1.9244906E3,3.2791132E2],"tree_param":{"num_deleted":"0","num_feature":"30","num_nodes":"57","size_leaf_vector":"1"}},{"base_weights":[7.9966776E-2,9.828965E-1,-5.2851987E-1,1.0856085E0,5.1507235E-1,-8.602397E-1,1.1225131E-2,-1.2623313E-1,1.086586E0,6.4097226E-1,-1.2128295E0,-4.588185E-1,-1.0221441E0,2.3207399E-1,-8.829279E-1,1.0870588E0,-7.7819966E-2,9.066951E-1,-6.505896E-2,-1.6042048E-1,-1.1824013E-1,7.379657E-1,-6.756585E-1,-1.0767664E0,2.0194893E-1,5.53988E-1,-3.7293237E-1,5.522176E-1,-1.1161273E-1,-7.614533E-2,1.0873054E0,-1.4039994E0,9.6902907E-1,-1.2585974E0,5.804233E-1,-1.1500118E-1,1.4046304E0,-9.442445E-1,6.176209E-1,-1.09969854E-1,4.5676118E-1,1.0075544E0,-1.16478324E-1,6.7269486E-1,-1.1873432E0,9.3671674E-1,-7.9675674E-1,-1.1224426E-1,1.1037014E0,1.0903963E-1,9.56625E-2,-1.20010875E-1,-1.6264848E-1,1.0123495E-1,-1.3599242E-1,-1.8483613E-1,-1.2363739E-1,9.580087E-2,-1.2699209E-1,-1.1487379E-1,1.5987389E-1,-1.13644555E-1,3.4740012E-2,1.6847132E-1,-1.123678E-1,-1.1048702E-1,1.1923721E-1,1.321658E-1,-1.1700068E-1,8.539418E-2,-4.2034324E-2,-1.14103734E-1,-1.3787457E-1,1.1974889E-1,-1.16967E-1,6.771351E-2,-1.137742E-1,1.16949156E-1,-9.2418395E-2],"categories":[],"categories_nodes":[],"categories_segments":[],"categories_sizes":[],"default_left":[0,0,0,0,0,0,0,0,0,0,0,0,0,0,0,0,0,0,0,0,0,0,0,0,0,0,0,0,0,0,0,0,0,0,0,0,0,0,0,0,0,0,0,0,0,0,0,0,0,0,0,0,0,0,0,0,0,0,0,0,0,0,0,0,0,0,0,0,0,0,0,0,0,0,0,0,0,0,0],"id":18,"left_children":[1,3,5,7,9,11,13,-1,15,17,19,21,23,25,27,29,-1,31,33,-1,-1,35,37,39,41,43,45,47,-1,-1,49,51,53,55,57,-1,59,61,63,-1,65,67,-1,69,71,73,75,-1,77,-1,-1,-1,-1,-1,-1,-1,-1,-1,-1,-1,-1,-1,-1,-1,-1,-1,-1,-1,-1,-1,-1,-1,-1,-1,-1,-1,-1,-1,-1],"loss_changes":[1.8357754E4,6.458174E2,3.5739414E3,2.6682617E1,5.280124E2,8.030283E2,1.5008268E3,0E0,1.0569336E1,4.239889E2,6.7474365E-2,9.230737E2,5.8921094E2,1.1872231E3,5.0442676E2,5.852539E0,0E0,2.3783997E2,4.7747952E2,0E0,0E0,6.885835E2,1.0462158E3,2.9706152E2,4.1641302E2,8.231846E2,1.1759626E3,1.9618896E2,0E0,0E0,3.4082031E0,2.2918701E-2,1.6273096E2,5.6570435E-1,2.82294E2,0E0,2.0198004E2,6.192942E2,9.648912E2,0E0,1.4485675E2,1.642032E2,0E0,7.383623E2,6.803894E-1,2.8599777E2,8.04968E2,0E0,2.2333725E1,0E0,0E0,0E0,0E0,0E0,0E0,0E0,0E0,0E0,0E0,0E0,0E0,0E0,0E0,0E0,0E0,0E0,0E0,0E0,0E0,0E0,0E0,0E0,0E0,0E0,0E0,0E0,0E0,0E0,0E0],"parents":[2147483647,0,0,1,1,2,2,3,3,4,4,5,5,6,6,8,8,9,9,10,10,11,11,12,12,13,13,14,14,15,15,17,17,18,18,21,21,22,22,23,23,24,24,25,25,26,26,27,27,30,30,31,31,32,32,33,33,34,34,36,36,37,37,38,38,40,40,41,41,43,43,44,44,45,45,46,46,48,48],"right_children":[2,4,6,8,10,12,14,-1,16,18,20,22,24,26,28,30,-1,32,34,-1,-1,36,38,40,42,44,46,48,-1,-1,50,52,54,56,58,-1,60,62,64,-1,66,68,-1,70,72,74,76,-1,78,-1,-1,-1,-1,-1,-1,-1,-1,-1,-1,-1,-1,-1,-1,-1,-1,-1,-1,-1,-1,-1,-1,-1,-1,-1,-1,-1,-1,-1,-1],"split_conditions":[1.7208378E-1,2.6791504E-1,-4.306213E-1,-4.2400134E-1,6.688191E-1,2.5862512E-1,5.75585E-1,-1.2623313E-1,2.0735988E-1,-3.281601E-1,-1.806034E-1,-5.0073427E-1,-9.4524884E-1,3.0169547E-1,7.336596E-1,-9.344067E-1,-7.7819966E-2,-9.604077E-2,6.2313366E-1,-1.6042048E-1,-1.1824013E-1,2.060926E-1,4.7720587E-1,1.8666707E-1,-4.8281854E-1,9.606699E-1,-9.9992293E-1,7.363767E-1,-1.1161273E-1,-7.614533E-2,5.619084E-1,-9.961154E-1,-3.675293E-1,-1.6297574E-1,-1.0409047E-1,-1.1500118E-1,-4.6875533E-1,-2.8806955E-1,3.2307017E-1,-1.09969854E-1,1.6653383E-1,4.5922533E-1,-1.16478324E-1,7.175448E-1,5.1553977E-1,5.613045E-1,-3.8087526E-1,-1.1224426E-1,4.050199E-1,1.0903963E-1,9.56625E-2,-1.20010875E-1,-1.6264848E-1,1.0123495E-1,-1.3599242E-1,-1.8483613E-1,-1.2363739E-1,9.580087E-2,-1.2699209E-1,-1.1487379E-1,1.5987389E-1,-1.13644555E-1,3.4740012E-2,1.6847132E-1,-1.123678E-1,-1.1048702E-1,1.1923721E-1,1.321658E-1,-1.1700068E-1,8.539418E-2,-4.2034324E-2,-1.14103734E-1,-1.3787457E-1,1.1974889E-1,-1.16967E-1,6.771351E-2,-1.137742E-1,1.16949156E-1,-9.2418395E-2],"split_indices":[14,12,4,11,3,14,8,0,9,15,9,6,29,14,1,0,0,16,3,0,0,25,12,22,6,1,29,0,0,0,17,29,28,9,0,0,4,11,23,0,21,17,0,3,17,8,28,0,12,0,0,0,0,0,0,0,0,0,0,0,0,0,0,0,0,0,0,0,0,0,0,0,0,0,0,0,0,0,0],"split_type":[0,0,0,0,0,0,0,0,0,0,0,0,0,0,0,0,0,0,0,0,0,0,0,0,0,0,0,0,0,0,0,0,0,0,0,0,0,0,0,0,0,0,0,0,0,0,0,0,0,0,0,0,0,0,0,0,0,0,0,0,0,0,0,0,0,0,0,0,0,0,0,0,0,0,0,0,0,0,0],"sum_hessian":[3.3410984E4,1.3450803E4,1.9960182E4,1.1028209E4,2.4225933E3,1.2362045E4,7.5981367E3,4.052082E0,1.1024157E4,2.2586504E3,1.6394273E2,3.5540552E3,8.80799E3,6.0937646E3,1.5043722E3,1.1021779E4,2.3778048E0,1.6408236E3,6.178268E2,8.095465E0,1.5584727E2,5.4479846E2,3.0092566E3,8.431858E3,3.7613144E2,3.977491E3,2.1162737E3,2.1008823E2,1.2942839E3,1.0586647E0,1.1020721E4,4.2535233E1,1.5982885E3,2.165191E2,4.0130765E2,1.4198253E2,4.0281595E2,2.491994E3,5.172629E2,8.307906E3,1.239523E2,2.3680945E2,1.3932198E2,3.7242236E3,2.5326736E2,5.171209E2,1.5991527E3,5.1788784E1,1.5829944E2,1.0758908E4,2.6181287E2,2.5531595E1,1.7003637E1,1.5696569E3,2.863157E1,4.8786383E0,2.1164047E2,3.336953E2,6.761235E1,2.8111391E1,3.7470456E2,2.169313E3,3.226809E2,3.2074088E2,1.96522E2,3.9530617E1,8.4421684E1,2.0730035E2,2.9509102E1,3.1946992E3,5.2952435E2,2.0953596E2,4.3731396E1,4.6053754E2,5.6583374E1,3.0026907E2,1.2988835E3,1.5373515E2,4.564293E0],"tree_param":{"num_deleted":"0","num_feature":"30","num_nodes":"79","size_leaf_vector":"1"}},{"base_weights":[4.4894457E-2,9.663846E-1,-5.983829E-1,1.0683392E0,4.075286E-1,-7.5859326E-1,6.262474E-2,1.0731578E0,-1.0770416E-1,-7.4068016E-1,6.4895993E-1,-8.3084893E-1,2.3828425E-1,5.799334E-1,-6.48255E-1,1.0739201E0,-1.4902984E-1,9.75488E-1,-1.2930024E0,-1.1721499E-1,7.6486975E-1,-4.690673E-1,-1.0050629E0,-7.7931887E-1,9.6874964E-1,7.119303E-1,-1.1635071E-1,-9.9831104E-1,7.31786E-2,1.0810746E0,8.7781125E-1,-1.437143E-1,1.06222026E-1,-1.9125165E0,-1.257509E0,-1.2679752E0,8.38306E-1,-1.0125401E0,-2.0723928E-2,-1.037371E0,6.9927126E-1,9.2262983E-1,-1.1375387E-1,1.3021381E0,-1.1307734E-1,8.225162E-1,-1.20829165E-1,1.0427977E0,-1.1401864E-1,6.649427E-1,-1.1791024E-1,-1.3043202E-1,1.081463E-1,-1.7850487E-1,1.0443934E-1,-8.256634E-2,-2.0632067E-1,-1.224994E-1,-1.5761955E-1,-1.6493353E-1,-1.15835145E-1,-1.292581E-1,8.991524E-2,-1.1248509E-1,7.2202824E-2,1.11461595E-1,-5.768087E-2,-5.22965E-2,-1.090609E-1,1.3360775E-1,-1.1667267E-1,-1.02641575E-1,1.12778544E-1,1.426543E-1,-1.1264187E-1,-1.1432294E-1,8.963674E-2,1.1202228E-1,-8.376307E-2,1.0938449E-1,-1.2648979E-1],"categories":[],"categories_nodes":[],"categories_segments":[],"categories_sizes":[],"default_left":[0,0,0,0,0,0,0,0,0,0,0,0,0,0,0,0,0,0,0,0,0,0,0,0,0,0,0,0,0,0,0,0,0,0,0,0,0,0,0,0,0,0,0,0,0,0,0,0,0,0,0,0,0,0,0,0,0,0,0,0,0,0,0,0,0,0,0,0,0,0,0,0,0,0,0,0,0,0,0,0,0],"id":19,"left_children":[1,3,5,7,9,11,13,15,-1,17,19,21,23,25,27,29,-1,31,33,-1,35,37,39,41,43,45,-1,47,49,51,53,-1,-1,55,57,59,61,63,65,67,69,71,-1,73,-1,75,-1,77,-1,79,-1,-1,-1,-1,-1,-1,-1,-1,-1,-1,-1,-1,-1,-1,-1,-1,-1,-1,-1,-1,-1,-1,-1,-1,-1,-1,-1,-1,-1,-1,-1],"loss_changes":[1.7977338E4,7.0994727E2,1.8914126E3,1.1014844E2,5.341763E2,1.0356797E3,1.2820323E3,2.2158203E1,0E0,3.187503E2,3.3678845E2,8.443701E2,7.23515E2,4.651739E2,3.709109E2,1.3807617E1,0E0,1.8710716E1,3.1763E0,0E0,2.2448999E2,1.0620244E3,4.9887207E2,2.4910306E2,3.979779E2,3.994402E2,0E0,2.8751544E2,3.5698306E2,1.0807617E1,1.6844104E2,0E0,0E0,2.3469925E-1,5.8706665E-1,2.876358E-1,1.8852576E2,3.8464514E2,1.5091715E3,2.4258203E2,2.0225897E2,2.966632E1,0E0,1.494397E2,0E0,2.5867554E2,0E0,1.0370239E1,0E0,2.720923E2,0E0,0E0,0E0,0E0,0E0,0E0,0E0,0E0,0E0,0E0,0E0,0E0,0E0,0E0,0E0,0E0,0E0,0E0,0E0,0E0,0E0,0E0,0E0,0E0,0E0,0E0,0E0,0E0,0E0,0E0,0E0],"parents":[2147483647,0,0,1,1,2,2,3,3,4,4,5,5,6,6,7,7,9,9,10,10,11,11,12,12,13,13,14,14,15,15,17,17,18,18,20,20,21,21,22,22,23,23,24,24,25,25,27,27,28,28,29,29,30,30,33,33,34,34,35,35,36,36,37,37,38,38,39,39,40,40,41,41,43,43,45,45,47,47,49,49],"right_children":[2,4,6,8,10,12,14,16,-1,18,20,22,24,26,28,30,-1,32,34,-1,36,38,40,42,44,46,-1,48,50,52,54,-1,-1,56,58,60,62,64,66,68,70,72,-1,74,-1,76,-1,78,-1,80,-1,-1,-1,-1,-1,-1,-1,-1,-1,-1,-1,-1,-1,-1,-1,-1,-1,-1,-1,-1,-1,-1,-1,-1,-1,-1,-1,-1,-1,-1,-1],"split_conditions":[1.7208378E-1,4.7001857E-2,-3.6834437E-1,6.0212847E-2,-4.9129406E-1,1.448295E-1,1.20296694E-1,9.832112E-1,-1.0770416E-1,-1.9196053E-1,-5.638597E-1,2.6355627E-1,-2.3358535E-2,-1.2809142E-2,-4.5895737E-1,-4.612775E-1,-1.4902984E-1,5.2778415E-2,-7.029145E-1,-1.1721499E-1,-1.7271599E-1,3.435298E-1,-4.320163E-1,-9.9994004E-1,5.2918553E-1,-1.2157729E-1,-1.1635071E-1,1.7863287E-1,3.0169547E-1,-2.1195248E-1,-1.1930686E-1,-1.437143E-1,1.06222026E-1,-9.5636374E-1,-9.9219966E-1,-1.1796189E-1,-5.259214E-1,-1.2776998E-1,3.59096E-1,4.1229805E-1,-9.558603E-1,-1.5068735E-1,-1.1375387E-1,-3.8399613E-1,-1.1307734E-1,-5.822546E-1,-1.20829165E-1,-9.8999953E-1,-1.1401864E-1,6.5844685E-1,-1.1791024E-1,-1.3043202E-1,1.081463E-1,-1.7850487E-1,1.0443934E-1,-8.256634E-2,-2.0632067E-1,-1.224994E-1,-1.5761955E-1,-1.6493353E-1,-1.15835145E-1,-1.292581E-1,8.991524E-2,-1.1248509E-1,7.2202824E-2,1.11461595E-1,-5.768087E-2,-5.22965E-2,-1.090609E-1,1.3360775E-1,-1.1667267E-1,-1.02641575E-1,1.12778544E-1,1.426543E-1,-1.1264187E-1,-1.1432294E-1,8.963674E-2,1.1202228E-1,-8.376307E-2,1.0938449E-1,-1.2648979E-1],"split_indices":[14,14,4,10,6,21,21,1,0,9,4,14,9,9,7,7,0,22,0,0,27,18,7,29,2,24,0,14,14,19,26,0,0,0,29,9,11,27,18,17,29,27,0,15,0,11,0,0,0,3,0,0,0,0,0,0,0,0,0,0,0,0,0,0,0,0,0,0,0,0,0,0,0,0,0,0,0,0,0,0,0],"split_type":[0,0,0,0,0,0,0,0,0,0,0,0,0,0,0,0,0,0,0,0,0,0,0,0,0,0,0,0,0,0,0,0,0,0,0,0,0,0,0,0,0,0,0,0,0,0,0,0,0,0,0,0,0,0,0,0,0,0,0,0,0,0,0,0,0,0,0,0,0,0,0,0,0,0,0,0,0,0,0,0,0],"sum_hessian":[3.0325512E4,1.2466639E4,1.7858873E4,1.0542424E4,1.9242145E3,1.4374688E4,3.4841836E3,1.0519298E4,2.3126724E1,3.339472E2,1.5902673E3,1.3403354E4,9.713354E2,2.0167643E3,1.4674194E3,1.0516751E4,2.546328E0,8.1121475E1,2.5282574E2,9.4615135E1,1.4956522E3,4.357675E3,9.045679E3,4.0586398E2,5.6547144E2,1.8753705E3,1.413937E2,9.877546E2,4.7966483E2,1.0142228E4,3.7452396E2,2.2747529E0,7.8846725E1,1.0834402E1,2.4199133E2,5.1579323E1,1.4440729E3,1.9692867E3,2.388388E3,8.877778E3,1.6789981E2,7.029722E1,3.3556674E2,4.883111E2,7.7160324E1,1.7737893E3,1.0158119E2,6.3782936E1,9.239716E2,3.2605627E2,1.5360855E2,1.1043974E0,1.0141123E4,2.1477928E1,3.5304602E2,2.1082015E0,8.726201E0,2.2398268E2,1.8008652E1,8.380335E0,4.3198986E1,3.952802E1,1.4045448E3,1.8498624E3,1.19424385E2,7.848932E2,1.6034948E3,8.336401E2,8.0441387E3,1.2539161E2,4.250821E1,6.313527E0,6.3983692E1,4.6490836E2,2.3402742E1,6.3702335E1,1.710087E3,6.1648865E1,2.1340709E0,2.6712222E2,5.8934044E1],"tree_param":{"num_deleted":"0","num_feature":"30","num_nodes":"81","size_leaf_vector":"1"}},{"base_weights":[7.930627E-2,9.5446086E-1,-5.1578605E-1,1.0670813E0,3.4245184E-1,-8.4519416E-1,9.074754E-4,1.068266E0,-9.625329E-2,-8.1521785E-1,5.454919E-1,-1.0108912E0,-2.0532584E-1,3.1408972E-1,-6.066669E-1,-1.22522235E-1,1.0690696E0,-1.2869527E0,9.064784E-1,6.8079513E-1,-1.2208154E-1,-1.8324982E-1,-1.0896174E0,4.446144E-1,-7.549971E-1,8.070225E-1,4.927157E-3,-9.1574234E-1,3.433612E-1,1.0735855E0,8.77082E-1,-1.2190205E0,-2.1681695E0,1.0948285E-1,-1.1619963E-1,7.4936044E-1,-1.3349237E-1,8.2286537E-1,-7.4868315E-1,-1.1174327E-1,-1.0800959E-1,1.0797844E0,-1.1031792E-1,-1.0972052E-1,1.3918223E0,9.332542E-1,-1.1914446E-1,3.2458827E-1,-8.273906E-1,3.7708557E-1,-1.10339954E-1,1.0923281E0,-1.1493982E0,1.0691454E-1,1.2075775E-1,1.0523273E-1,-2.2376978E-1,-1.3573286E-1,-1.1593707E-1,-2.4604459E-1,-8.871295E-2,-1.16162956E-1,8.094849E-2,-1.121786E-1,1.1739266E-1,-1.0908276E-1,9.849086E-2,1.4399071E-1,-1.089823E-1,-1.07047595E-1,1.7158855E-1,1.0493585E-1,-1.152692E-1,-1.1599022E-1,4.835202E-2,-1.1128888E-1,1.09802626E-1,-1.11123405E-1,1.02142654E-1,-1.0993655E-1,1.7832245E-1,-1.3919261E-1,-1.078653E-1],"categories":[],"categories_nodes":[],"categories_segments":[],"categories_sizes":[],"default_left":[0,0,0,0,0,0,0,0,0,0,0,0,0,0,0,0,0,0,0,0,0,0,0,0,0,0,0,0,0,0,0,0,0,0,0,0,0,0,0,0,0,0,0,0,0,0,0,0,0,0,0,0,0,0,0,0,0,0,0,0,0,0,0,0,0,0,0,0,0,0,0,0,0,0,0,0,0,0,0,0,0,0,0],"id":20,"left_children":[1,3,5,7,9,11,13,15,-1,17,19,21,23,25,27,-1,29,31,33,35,-1,37,39,41,43,45,47,49,51,53,55,57,59,-1,-1,61,-1,63,65,-1,-1,67,-1,-1,69,71,-1,73,75,77,-1,79,81,-1,-1,-1,-1,-1,-1,-1,-1,-1,-1,-1,-1,-1,-1,-1,-1,-1,-1,-1,-1,-1,-1,-1,-1,-1,-1,-1,-1,-1,-1],"loss_changes":[1.5011327E4,8.0375E2,2.9202104E3,2.471875E1,4.2698798E2,1.1106606E3,1.2714083E3,1.9458008E1,0E0,2.2141364E2,3.6994373E2,5.420459E2,7.7070734E2,6.7191595E2,6.676462E2,0E0,7.59375E0,1.0123962E1,2.4222713E1,1.9936218E2,0E0,4.1252362E2,8.0566406E-1,9.7319006E2,8.601061E2,4.2982593E2,7.2145044E2,4.1650952E2,6.2579816E2,4.428711E0,1.2883255E2,7.873535E-2,3.0515594E0,0E0,0E0,1.6049365E2,0E0,1.7949008E2,2.763306E2,0E0,0E0,5.496872E2,0E0,0E0,1.3039963E2,3.8847205E2,0E0,4.6279108E2,4.1484216E2,2.1032672E2,0E0,5.659978E2,1.7091522E0,0E0,0E0,0E0,0E0,0E0,0E0,0E0,0E0,0E0,0E0,0E0,0E0,0E0,0E0,0E0,0E0,0E0,0E0,0E0,0E0,0E0,0E0,0E0,0E0,0E0,0E0,0E0,0E0,0E0,0E0],"parents":[2147483647,0,0,1,1,2,2,3,3,4,4,5,5,6,6,7,7,9,9,10,10,11,11,12,12,13,13,14,14,16,16,17,17,18,18,19,19,21,21,22,22,23,23,24,24,25,25,26,26,27,27,28,28,29,29,30,30,31,31,32,32,35,35,37,37,38,38,41,41,44,44,45,45,47,47,48,48,49,49,51,51,52,52],"right_children":[2,4,6,8,10,12,14,16,-1,18,20,22,24,26,28,-1,30,32,34,36,-1,38,40,42,44,46,48,50,52,54,56,58,60,-1,-1,62,-1,64,66,-1,-1,68,-1,-1,70,72,-1,74,76,78,-1,80,82,-1,-1,-1,-1,-1,-1,-1,-1,-1,-1,-1,-1,-1,-1,-1,-1,-1,-1,-1,-1,-1,-1,-1,-1,-1,-1,-1,-1,-1,-1],"split_conditions":[1.7208378E-1,2.6791504E-1,-4.306213E-1,6.0212847E-2,-1.6757976E-1,2.3339981E-1,5.716395E-1,-4.2400134E-1,-9.625329E-2,-7.237017E-2,-1.6054213E-1,-5.0219095E-1,-1.7162694E-1,3.5009524E-1,-2.9775977E-1,-1.22522235E-1,-6.852689E-2,-2.4421108E-1,-2.1195248E-1,1.939922E-1,-1.2208154E-1,2.3000228E-1,2.5862512E-1,6.693775E-1,2.4367544E-1,3.9798844E-1,3.0169547E-1,4.793345E-1,-3.7329894E-1,9.028108E-3,-7.442436E-2,-2.7821833E-2,3.692623E-2,1.0948285E-1,-1.1619963E-1,3.1105906E-1,-1.3349237E-1,-4.6681052E-1,1.8666707E-1,-1.1174327E-1,-1.0800959E-1,2.4707096E-2,-1.1031792E-1,-1.0972052E-1,5.077068E-1,7.1088964E-1,-1.1914446E-1,-2.852881E-1,7.434307E-1,7.363767E-1,-1.10339954E-1,-3.733285E-1,2.5937214E-1,1.0691454E-1,1.2075775E-1,1.0523273E-1,-2.2376978E-1,-1.3573286E-1,-1.1593707E-1,-2.4604459E-1,-8.871295E-2,-1.16162956E-1,8.094849E-2,-1.121786E-1,1.1739266E-1,-1.0908276E-1,9.849086E-2,1.4399071E-1,-1.089823E-1,-1.07047595E-1,1.7158855E-1,1.0493585E-1,-1.152692E-1,-1.1599022E-1,4.835202E-2,-1.1128888E-1,1.09802626E-1,-1.11123405E-1,1.02142654E-1,-1.0993655E-1,1.7832245E-1,-1.3919261E-1,-1.078653E-1],"split_indices":[14,12,4,10,27,19,8,11,0,4,27,6,13,12,11,0,16,4,19,19,0,14,14,3,26,14,14,2,28,10,10,10,10,0,0,18,0,4,22,0,0,10,0,0,12,3,0,26,3,0,0,28,14,0,0,0,0,0,0,0,0,0,0,0,0,0,0,0,0,0,0,0,0,0,0,0,0,0,0,0,0,0,0],"split_type":[0,0,0,0,0,0,0,0,0,0,0,0,0,0,0,0,0,0,0,0,0,0,0,0,0,0,0,0,0,0,0,0,0,0,0,0,0,0,0,0,0,0,0,0,0,0,0,0,0,0,0,0,0,0,0,0,0,0,0,0,0,0,0,0,0,0,0,0,0,0,0,0,0,0,0,0,0,0,0,0,0,0,0],"sum_hessian":[2.8821771E4,1.1665562E4,1.715621E4,9.851895E3,1.8136664E3,1.0476488E4,6.6797217E3,9.846621E3,5.2740006E0,2.7017865E2,1.5434877E3,8.321115E3,2.1553728E3,4.4080283E3,2.2716934E3,2.9148533E0,9.843706E3,2.1227031E2,5.790834E1,1.4342365E3,1.0925127E2,7.230535E2,7.598062E3,9.87696E2,1.1676768E3,1.6984258E3,2.7096025E3,1.714082E3,5.576112E2,9.612998E3,2.3070773E2,1.992905E2,1.2979807E1,5.3506847E1,4.401491E0,1.3876628E3,4.657358E1,2.5998633E2,4.6306723E2,1.9079585E3,5.6901035E3,7.005236E2,2.8717236E2,1.00755853E3,1.601183E2,1.598021E3,1.0040481E2,1.9581592E3,7.5144324E2,2.1713855E2,1.4969435E3,3.7149042E2,1.861208E2,9.31336E3,2.9963754E2,2.1904582E2,1.1661912E1,5.3496067E1,1.4579443E2,9.818906E0,3.1609008E0,4.1768673E1,1.3458942E3,3.942148E1,2.2056485E2,3.8704932E2,7.601791E1,6.010882E2,9.943541E1,1.8354422E1,1.4176389E2,1.5142352E3,8.3785774E1,1.887604E2,1.7693988E3,6.54776E2,9.6667274E1,6.538517E1,1.5175337E2,8.889676E1,2.8259366E2,3.7813564E1,1.4830724E2],"tree_param":{"num_deleted":"0","num_feature":"30","num_nodes":"83","size_leaf_vector":"1"}},{"base_weights":[3.7961643E-2,9.356919E-1,-5.447207E-1,1.0515461E0,2.7849153E-1,-7.6131344E-1,1.4090095E-2,-1.1157937E-1,1.0548939E0,-3.781089E-1,8.865261E-1,4.6660104E-1,-8.525597E-1,3.4183517E-1,-1.09064125E-1,-1.0538459E-1,1.056079E0,-9.257004E-1,5.9546626E-1,-1.745914E0,1.0566899E0,1.0502446E0,-1.10532045E-1,-3.394189E-1,-9.759273E-1,-1.0947479E-1,5.337193E-1,1.0570954E0,-1.20459214E-1,-1.2175176E0,1.0164897E0,1.0919938E0,-1.3319236E-1,-2.5952055E0,-1.5039544E0,1.0790849E0,-2.1189594E0,-1.0776045E-1,1.313806E0,-6.716518E-1,1.313358E0,-1.0179542E0,6.2264514E-1,8.5767776E-1,-1.5538871E-1,1.0575076E-1,-1.2317288E-1,-1.1571989E-1,-1.294666E-1,1.1095935E-1,-9.118748E-2,-1.09199695E-1,1.3131264E-1,-2.8123412E-1,-9.762605E-2,-1.6627285E-1,-1.12729244E-1,1.0962289E-1,-1.5791127E-1,-2.4302514E-1,