{"learner":{"attributes":{"scikit_learn":"{\"_estimator_type\": \"classifier\"}"},"feature_names":[],"feature_types":[],"gradient_booster":{"model":{"gbtree_model_param":{"num_parallel_tree":"1","num_trees":"300"},"iteration_indptr":[0,1,2,3,4,5,6,7,8,9,10,11,12,13,14,15,16,17,18,19,20,21,22,23,24,25,26,27,28,29,30,31,32,33,34,35,36,37,38,39,40,41,42,43,44,45,46,47,48,49,50,51,52,53,54,55,56,57,58,59,60,61,62,63,64,65,66,67,68,69,70,71,72,73,74,75,76,77,78,79,80,81,82,83,84,85,86,87,88,89,90,91,92,93,94,95,96,97,98,99,100,101,102,103,104,105,106,107,108,109,110,111,112,113,114,115,116,117,118,119,120,121,122,123,124,125,126,127,128,129,130,131,132,133,134,135,136,137,138,139,140,141,142,143,144,145,146,147,148,149,150,151,152,153,154,155,156,157,158,159,160,161,162,163,164,165,166,167,168,169,170,171,172,173,174,175,176,177,178,179,180,181,182,183,184,185,186,187,188,189,190,191,192,193,194,195,196,197,198,199,200,201,202,203,204,205,206,207,208,209,210,211,212,213,214,215,216,217,218,219,220,221,222,223,224,225,226,227,228,229,230,231,232,233,234,235,236,237,238,239,240,241,242,243,244,245,246,247,248,249,250,251,252,253,254,255,256,257,258,259,260,261,262,263,264,265,266,267,268,269,270,271,272,273,274,275,276,277,278,279,280,281,282,283,284,285,286,287,288,289,290,291,292,293,294,295,296,297,298,299,300],"tree_info":[0,0,0,0,0,0,0,0,0,0,0,0,0,0,0,0,0,0,0,0,0,0,0,0,0,0,0,0,0,0,0,0,0,0,0,0,0,0,0,0,0,0,0,0,0,0,0,0,0,0,0,0,0,0,0,0,0,0,0,0,0,0,0,0,0,0,0,0,0,0,0,0,0,0,0,0,0,0,0,0,0,0,0,0,0,0,0,0,0,0,0,0,0,0,0,0,0,0,0,0,0,0,0,0,0,0,0,0,0,0,0,0,0,0,0,0,0,0,0,0,0,0,0,0,0,0,0,0,0,0,0,0,0,0,0,0,0,0,0,0,0,0,0,0,0,0,0,0,0,0,0,0,0,0,0,0,0,0,0,0,0,0,0,0,0,0,0,0,0,0,0,0,0,0,0,0,0,0,0,0,0,0,0,0,0,0,0,0,0,0,0,0,0,0,0,0,0,0,0,0,0,0,0,0,0,0,0,0,0,0,0,0,0,0,0,0,0,0,0,0,0,0,0,0,0,0,0,0,0,0,0,0,0,0,0,0,0,0,0,0,0,0,0,0,0,0,0,0,0,0,0,0,0,0,0,0,0,0,0,0,0,0,0,0,0,0,0,0,0,0,0,0,0,0,0,0,0,0,0,0,0,0,0,0,0,0,0,0,0,0,0,0,0,0,0,0,0,0,0,0],"trees":[{"base_weights":[-3.613119E-3,1.8672534E0,-1.5169382E0,1.9897965E0,6.977464E-1,-1.7780371E0,-2.4946277E-1,-1.9223301E-1,1.9924852E0,-2.8656572E-1,1.7848015E0,-1.8167695E0,6.492826E-1,8.346589E-1,-1.4356546E0,1.9937629E0,-1.8431373E-1,1.4268401E0,-8.5758144E-1,1.8393234E0,-1.925926E-1,-1.4060569E0,-1.9445108E0,-1.988935E-1,1.6524246E0,1.4225323E0,-6.4193237E-1,1.3878053E0,-1.6919811E0,-1.75E-1,1.9945245E0,1.8900648E0,-1.967347E-1,3.7364322E-1,-1.9974628E-1,-1.880597E-1,1.8731219E0,-7.2076654E-1,-1.7358304E0,-1.9625565E0,-3.8782814E-1,1.9409046E0,-1.944056E-1,1.6781359E0,-1.9910614E-1,1.4953077E0,-1.3881752E0,-1.9617225E-1,1.9862138E-1,1.5692116E-1,-1.8338871E0,1.9950959E-1,-1.68E-1,1.947634E-1,-1.7333333E-1,1.5207802E-1,-1.9916318E-1,1.8965344E-1,-1.8297873E-1,-1.9979875E-1,-1.3492623E-2,-1.8986472E-1,-6.3754745E-2,-1.9807708E-1,-1.2418397E-1,-1.990555E-1,1.899039E-1,-1.6363637E-1,1.981629E-1,-1.974359E-1,1.7756076E-1,1.831067E-1,-1.9333333E-1,1.6531552E-1,-1.997466E-1,1.8794554E-1,-1.9833681E-1,-1.999354E-1,-5.2343518E-2],"categories":[],"categories_nodes":[],"categories_segments":[],"categories_sizes":[],"default_left":[0,0,0,0,0,0,0,0,0,0,0,0,0,0,0,0,0,0,0,0,0,0,0,0,0,0,0,0,0,0,0,0,0,0,0,0,0,0,0,0,0,0,0,0,0,0,0,0,0,0,0,0,0,0,0,0,0,0,0,0,0,0,0,0,0,0,0,0,0,0,0,0,0,0,0,0,0,0,0],"id":0,"left_children":[1,3,5,7,9,11,13,-1,15,17,19,21,23,25,27,29,-1,31,33,35,-1,37,39,-1,41,43,45,47,49,-1,51,53,-1,55,-1,-1,57,59,61,63,65,67,-1,69,-1,71,73,-1,-1,75,77,-1,-1,-1,-1,-1,-1,-1,-1,-1,-1,-1,-1,-1,-1,-1,-1,-1,-1,-1,-1,-1,-1,-1,-1,-1,-1,-1,-1],"loss_changes":[2.5707694E5,5.8177188E3,1.6611492E4,3.9040625E2,4.1227476E3,3.9143594E3,1.1028937E4,0E0,1.8367188E2,1.9801805E3,3.7395605E2,2.1467031E3,1.7353376E3,3.8907188E3,2.9662197E3,1.0815625E2,0E0,7.992357E2,2.1307864E3,2.3044385E2,0E0,2.1960508E3,8.770078E2,0E0,4.9629858E2,2.8001147E3,2.038312E3,6.8818304E2,9.8546094E2,0E0,8.04375E1,9.635095E1,0E0,1.9850005E3,0E0,0E0,1.5857715E2,2.3645713E3,1.172459E3,4.0303125E2,1.3207767E3,6.733777E1,0E0,1.0653662E3,0E0,3.8446527E2,1.7578156E3,0E0,0E0,9.93879E2,7.5513184E2,0E0,0E0,0E0,0E0,0E0,0E0,0E0,0E0,0E0,0E0,0E0,0E0,0E0,0E0,0E0,0E0,0E0,0E0,0E0,0E0,0E0,0E0,0E0,0E0,0E0,0E0,0E0,0E0],"parents":[2147483647,0,0,1,1,2,2,3,3,4,4,5,5,6,6,8,8,9,9,10,10,11,11,12,12,13,13,14,14,15,15,17,17,18,18,19,19,21,21,22,22,24,24,25,25,26,26,27,27,28,28,30,30,31,31,33,33,36,36,37,37,38,38,39,39,40,40,41,41,43,43,45,45,46,46,49,49,50,50],"right_children":[2,4,6,8,10,12,14,-1,16,18,20,22,24,26,28,30,-1,32,34,36,-1,38,40,-1,42,44,46,48,50,-1,52,54,-1,56,-1,-1,58,60,62,64,66,68,-1,70,-1,72,74,-1,-1,76,78,-1,-1,-1,-1,-1,-1,-1,-1,-1,-1,-1,-1,-1,-1,-1,-1,-1,-1,-1,-1,-1,-1,-1,-1,-1,-1,-1,-1],"split_conditions":[1.7161702E-1,-5.597227E-2,-3.7238738E-1,-5.3911203E-1,-2.5302956E-1,-4.3214753E-1,3.7441382E-1,-1.9223301E-1,4.154956E-1,-4.8233214E-1,6.0016014E-2,2.6077446E-1,2.3331429E-1,3.1079292E-1,-5.298284E-1,-4.8718572E-1,-1.8431373E-1,-1.5934412E-1,5.379608E-1,-4.7892392E-1,-1.925926E-1,3.2568866E-1,5.0943047E-1,-1.988935E-1,-4.5895478E-1,7.19125E-1,5.490014E-1,9.1113013E-1,3.893596E-1,-1.75E-1,6.6887164E-1,6.4939445E-1,-1.967347E-1,6.068916E-1,-1.9974628E-1,-1.880597E-1,8.038798E-1,-4.8718572E-1,-2.8800666E-1,3.5366496E-1,-4.8214532E-2,-8.445098E-2,-1.944056E-1,-6.1230433E-1,-1.9910614E-1,3.000759E-1,-2.5812444E-1,-1.9617225E-1,1.9862138E-1,-4.8214532E-2,5.015868E-1,1.9950959E-1,-1.68E-1,1.947634E-1,-1.7333333E-1,1.5207802E-1,-1.9916318E-1,1.8965344E-1,-1.8297873E-1,-1.9979875E-1,-1.3492623E-2,-1.8986472E-1,-6.3754745E-2,-1.9807708E-1,-1.2418397E-1,-1.990555E-1,1.899039E-1,-1.6363637E-1,1.981629E-1,-1.974359E-1,1.7756076E-1,1.831067E-1,-1.9333333E-1,1.6531552E-1,-1.997466E-1,1.8794554E-1,-1.9833681E-1,-1.999354E-1,-5.2343518E-2],"split_indices":[14,10,4,4,4,7,12,0,12,7,10,14,19,14,7,11,0,13,2,11,0,23,19,0,6,3,8,0,17,0,3,3,0,3,0,0,0,11,11,23,16,9,0,11,0,18,19,0,0,16,12,0,0,0,0,0,0,0,0,0,0,0,0,0,0,0,0,0,0,0,0,0,0,0,0,0,0,0,0],"split_type":[0,0,0,0,0,0,0,0,0,0,0,0,0,0,0,0,0,0,0,0,0,0,0,0,0,0,0,0,0,0,0,0,0,0,0,0,0,0,0,0,0,0,0,0,0,0,0,0,0,0,0,0,0,0,0,0,0,0,0,0,0,0,0,0,0,0,0,0,0,0,0,0,0,0,0,0,0,0,0],"sum_hessian":[9.079847E4,4.0602676E4,5.019579E4,3.6751125E4,3.8515522E3,4.1621406E4,8.574381E3,2.475E1,3.6726375E4,2.0216841E3,1.8298682E3,4.096794E4,6.5346704E2,4.4800913E3,4.0942893E3,3.6714625E4,1.175E1,5.0496704E2,1.516717E3,1.8038682E3,2.6E1,9.721974E3,3.1245967E4,1.7975E2,4.7371704E2,3.2043745E3,1.275717E3,3.4039468E2,3.7538948E3,7E0,3.6707625E4,4.4471704E2,6.025E1,7.2946704E2,7.8725E2,1.575E1,1.7881182E3,3.1595063E3,6.562467E3,3.0887645E4,3.5832233E2,4.3896704E2,3.475E1,2.9816245E3,2.2275E2,3.2989468E2,9.458223E2,5.125E1,2.8914468E2,2.6757233E2,3.4863223E3,3.6702375E4,5.25E0,4.3821704E2,6.5E0,4.9146704E2,2.38E2,1.7773682E3,1.075E1,9.9275E2,2.1667563E3,5.7145723E3,8.4789465E2,3.0124572E4,7.630723E2,2.1075E2,1.4757234E2,4.5E0,4.3446704E2,7.7E1,2.9046245E3,3.0089468E2,2.9E1,1.5757234E2,7.8825E2,1.4832234E2,1.1925E2,3.095E3,3.9132233E2],"tree_param":{"num_deleted":"0","num_feature":"30","num_nodes":"79","size_leaf_vector":"1"}},{"base_weights":[-4.7977433E-2,1.74114E0,-1.3659834E0,1.8115127E0,8.624343E-1,-5.210823E-1,-1.5288818E0,1.8125396E0,-1.6636711E-1,1.4815209E0,-1.0623645E0,7.0900357E-1,-9.464937E-1,-1.3847384E-2,-1.5859034E0,1.8127815E0,-1.3217154E-1,1.6038678E0,-1.8270253E-1,1.8041356E-1,-1.843848E-1,1.1800516E0,-1.8521072E-1,-1.8478064E-1,-3.2999656E-1,-1.8266112E-1,1.1782188E0,-1.6214741E0,1.6264637E-1,1.816298E0,1.6135542E0,1.6858795E0,-1.8170142E-1,1.4402107E0,-1.8413517E-1,1.840352E-1,-1.8575433E-1,-1.8141605E-1,1.6120586E0,-6.68632E-1,-1.6678752E0,1.4992199E0,-1.8363358E-1,1.8174267E-1,1.726641E-1,1.7776994E-1,-1.8962578E-1,1.752588E-1,-1.8435793E-1,1.7543492E-1,-2.9403109E-3,-1.8591182E-1,5.6076784E-2,1.7802002E-1,-1.7836519E-1,-1.4069042E-1,8.0800734E-2,-1.7056702E-1,-5.283727E-2,1.8219246E-1,-1.8058562E-1],"categories":[],"categories_nodes":[],"categories_segments":[],"categories_sizes":[],"default_left":[0,0,0,0,0,0,0,0,0,0,0,0,0,0,0,0,0,0,0,0,0,0,0,0,0,0,0,0,0,0,0,0,0,0,0,0,0,0,0,0,0,0,0,0,0,0,0,0,0,0,0,0,0,0,0,0,0,0,0,0,0],"id":1,"left_children":[1,3,5,7,9,11,13,15,-1,17,19,21,23,25,27,29,-1,31,-1,-1,-1,33,-1,-1,35,-1,37,39,41,43,45,47,-1,49,-1,51,-1,-1,53,55,57,59,-1,-1,-1,-1,-1,-1,-1,-1,-1,-1,-1,-1,-1,-1,-1,-1,-1,-1,-1],"loss_changes":[2.063316E5,2.2936172E3,6.9336562E3,1.25640625E2,3.2833496E3,4.2631084E3,3.6490234E3,2.8445312E1,0E0,8.466094E2,1.5060354E3,2.5280283E3,3.3626294E3,3.3151016E3,2.5321406E3,2.1125E1,0E0,5.6709766E2,0E0,0E0,0E0,1.3932029E3,0E0,0E0,2.8235364E3,0E0,1.2044308E3,1.7627812E3,2.173592E3,2.734375E-1,3.517976E2,4.6561963E2,0E0,7.522649E2,0E0,2.072452E3,0E0,0E0,4.6499316E2,2.0225894E3,1.6374922E3,5.23219E2,0E0,0E0,0E0,0E0,0E0,0E0,0E0,0E0,0E0,0E0,0E0,0E0,0E0,0E0,0E0,0E0,0E0,0E0,0E0],"parents":[2147483647,0,0,1,1,2,2,3,3,4,4,5,5,6,6,7,7,9,9,10,10,11,11,12,12,13,13,14,14,15,15,17,17,21,21,24,24,26,26,27,27,28,28,29,29,30,30,31,31,33,33,35,35,38,38,39,39,40,40,41,41],"right_children":[2,4,6,8,10,12,14,16,-1,18,20,22,24,26,28,30,-1,32,-1,-1,-1,34,-1,-1,36,-1,38,40,42,44,46,48,-1,50,-1,52,-1,-1,54,56,58,60,-1,-1,-1,-1,-1,-1,-1,-1,-1,-1,-1,-1,-1,-1,-1,-1,-1,-1,-1],"split_conditions":[1.4444602E-1,-5.597227E-2,2.3775056E-1,6.6887164E-1,1.5807694E-1,1.26314005E-2,-9.9994004E-1,9.69524E-1,-1.6636711E-1,-1.7447671E-1,1.9749051E-2,1.01474606E-1,1.5628351E-1,-1.6429226E-1,-4.3865463E-1,8.730578E-2,-1.3217154E-1,9.820734E-1,-1.8270253E-1,1.8041356E-1,-1.843848E-1,7.1756876E-1,-1.8521072E-1,-1.8478064E-1,7.009603E-1,-1.8266112E-1,2.6155546E-2,-1.1166095E-1,-3.2431853E-1,4.807892E-2,5.3653324E-1,-4.562848E-1,-1.8170142E-1,1.56884E-1,-1.8413517E-1,-3.747846E-1,-1.8575433E-1,-1.8141605E-1,-1.5359378E-1,-3.503917E-2,3.5366496E-1,-1.8174846E-1,-1.8363358E-1,1.8174267E-1,1.726641E-1,1.7776994E-1,-1.8962578E-1,1.752588E-1,-1.8435793E-1,1.7543492E-1,-2.9403109E-3,-1.8591182E-1,5.6076784E-2,1.7802002E-1,-1.7836519E-1,-1.4069042E-1,8.0800734E-2,-1.7056702E-1,-5.283727E-2,1.8219246E-1,-1.8058562E-1],"split_indices":[14,10,14,3,20,19,29,0,0,15,18,0,25,27,7,14,0,1,0,0,0,3,0,0,3,0,10,19,26,14,5,7,0,20,0,28,0,0,27,9,23,13,0,0,0,0,0,0,0,0,0,0,0,0,0,0,0,0,0,0,0],"split_type":[0,0,0,0,0,0,0,0,0,0,0,0,0,0,0,0,0,0,0,0,0,0,0,0,0,0,0,0,0,0,0,0,0,0,0,0,0,0,0,0,0,0,0,0,0,0,0,0,0,0,0,0,0,0,0,0,0,0,0,0,0],"sum_hessian":[8.749829E4,3.711563E4,5.038266E4,3.436258E4,2.7530522E3,8.14442E3,4.2238242E4,3.4352906E4,9.671492E0,2.0832366E3,6.698157E2,2.092692E3,6.051728E3,1.5321097E3,4.070613E4,3.4350676E4,2.2293804E0,2.0094443E3,7.379209E1,1.4320985E2,5.2660583E2,1.7680463E3,3.246457E2,2.4572522E3,3.5944758E3,6.076023E2,9.245074E2,3.9894625E4,8.1150464E2,3.3746895E4,6.037831E2,1.9628934E3,4.6550938E1,1.628359E3,1.396872E2,2.6901113E3,9.0436456E2,1.166615E2,8.078459E2,1.853269E3,3.8041355E4,4.8648056E2,3.2502405E2,3.3308305E4,4.385908E2,5.772787E2,2.6504377E1,1.9269761E3,3.5917343E1,1.3414275E3,2.8693155E2,4.1818927E2,2.2719219E3,7.701853E2,3.7660606E1,1.2355708E3,6.1769836E2,3.6819625E4,1.2217307E3,4.4361514E2,4.286543E1],"tree_param":{"num_deleted":"0","num_feature":"30","num_nodes":"61","size_leaf_vector":"1"}},{"base_weights":[2.781339E-2,1.6439148E0,-1.106334E0,-1.715515E-1,1.6723107E0,-1.3913469E0,5.7241255E-1,-1.7171124E-1,1.6780019E0,-1.5344527E0,-9.0411925E-1,-7.9370177E-1,1.3215226E0,1.6805941E0,-1.7540239E-1,-1.5631825E0,4.167064E-1,-4.5784476E-1,-1.7213865E-1,1.2744303E-1,-1.719589E-1,1.460455E0,1.4427537E-1,1.2681744E0,1.6824456E0,-1.5763688E0,1.0573825E0,1.718534E0,-1.700858E-1,2.219354E-1,-1.3686438E0,-1.7106688E-1,8.2386935E-1,-1.7117819E-1,1.4902844E0,1.724988E-1,-1.7302845E-1,1.779152E-1,-1.7813337E-1,-1.0215806E-1,1.6825663E-1,7.069455E-2,-1.5901719E-1,1.66936E-1,-1.6639666E-1,-1.723874E-1,1.9769149E-1,-7.4688114E-2,9.949442E-2,-1.536726E-1,1.2408556E-1,-1.7283738E-1,1.6950391E-1,1.5117286E-1,-1.6662489E-1],"categories":[],"categories_nodes":[],"categories_segments":[],"categories_sizes":[],"default_left":[0,0,0,0,0,0,0,0,0,0,0,0,0,0,0,0,0,0,0,0,0,0,0,0,0,0,0,0,0,0,0,0,0,0,0,0,0,0,0,0,0,0,0,0,0,0,0,0,0,0,0,0,0,0,0],"id":2,"left_children":[1,3,5,-1,7,9,11,-1,13,15,17,19,21,23,-1,25,27,29,-1,31,-1,33,35,37,39,41,43,45,-1,47,49,-1,51,-1,53,-1,-1,-1,-1,-1,-1,-1,-1,-1,-1,-1,-1,-1,-1,-1,-1,-1,-1,-1,-1],"loss_changes":[1.6361266E5,3.5144219E3,2.5098E4,0E0,7.07E2,3.1251484E3,7.792617E3,0E0,3.2716406E2,1.9435234E3,3.713127E3,2.3004316E3,8.0410547E2,2.5664062E1,0E0,1.1819688E3,1.3915377E3,4.078999E3,0E0,1.7332651E3,0E0,4.187578E2,1.5444158E3,2.6309723E2,1.35546875E1,1.0722578E3,2.8857678E2,2.8131128E2,0E0,2.8264202E3,1.2368423E3,0E0,2.185967E3,0E0,2.975078E2,0E0,0E0,0E0,0E0,0E0,0E0,0E0,0E0,0E0,0E0,0E0,0E0,0E0,0E0,0E0,0E0,0E0,0E0,0E0,0E0],"parents":[2147483647,0,0,1,1,2,2,4,4,5,5,6,6,8,8,9,9,10,10,11,11,12,12,13,13,15,15,16,16,17,17,19,19,21,21,22,22,23,23,24,24,25,25,26,26,27,27,29,29,30,30,32,32,34,34],"right_children":[2,4,6,-1,8,10,12,-1,14,16,18,20,22,24,-1,26,28,30,-1,32,-1,34,36,38,40,42,44,46,-1,48,50,-1,52,-1,54,-1,-1,-1,-1,-1,-1,-1,-1,-1,-1,-1,-1,-1,-1,-1,-1,-1,-1,-1,-1],"split_conditions":[-6.6346824E-2,-5.3911203E-1,-3.023029E-1,-1.715515E-1,-4.8299032E-1,4.9316418E-1,-3.7430033E-1,-1.7171124E-1,-4.4501296E-1,1.6921599E-1,5.743185E-1,-9.992636E-1,5.782682E-1,-4.1304067E-1,-1.7540239E-1,-1.06181264E-1,1.3942654E-1,-1.2555009E-1,-1.7213865E-1,5.545168E-1,-1.719589E-1,4.144613E-1,3.6830097E-1,-2.3829004E-1,3.6511403E-1,-2.5812444E-1,-4.979432E-1,8.4570986E-1,-1.700858E-1,-4.35308E-1,9.69524E-1,-1.7106688E-1,9.2241794E-1,-1.7117819E-1,1.807238E-1,1.724988E-1,-1.7302845E-1,1.779152E-1,-1.7813337E-1,-1.0215806E-1,1.6825663E-1,7.069455E-2,-1.5901719E-1,1.66936E-1,-1.6639666E-1,-1.723874E-1,1.9769149E-1,-7.4688114E-2,9.949442E-2,-1.536726E-1,1.2408556E-1,-1.7283738E-1,1.6950391E-1,1.5117286E-1,-1.6662489E-1],"split_indices":[10,4,4,0,11,17,11,0,7,22,8,29,8,11,0,11,20,13,0,2,0,2,17,16,2,19,7,1,0,4,0,0,1,0,20,0,0,0,0,0,0,0,0,0,0,0,0,0,0,0,0,0,0,0,0],"split_type":[0,0,0,0,0,0,0,0,0,0,0,0,0,0,0,0,0,0,0,0,0,0,0,0,0,0,0,0,0,0,0,0,0,0,0,0,0,0,0,0,0,0,0,0,0,0,0,0,0,0,0,0,0,0,0],"sum_hessian":[8.9262516E4,3.6809883E4,5.2452633E4,3.0803375E2,3.6501848E4,4.4839992E4,7.6126387E3,6.0682415E1,3.6441164E4,3.4658223E4,1.01817705E4,2.6960068E3,4.916632E3,3.641417E4,2.6993969E1,3.41555E4,5.0272284E2,6.586646E3,3.5951243E3,1.3518967E3,1.3441101E3,4.39743E3,5.1920184E2,1.6580974E2,3.6248363E4,3.398489E4,1.7060944E2,3.114434E2,1.9127945E2,3.7720847E3,2.8145615E3,3.7106653E2,9.808302E2,4.0439785E1,4.35699E3,2.8172147E2,2.3748035E2,1.423706E2,2.3439133E1,1.2400395E0,3.624712E4,2.0390996E2,3.378098E4,1.3960223E2,3.10072E1,2.134829E1,2.9009512E2,1.6740374E3,2.0980474E3,2.6446277E3,1.6993387E2,2.4934544E2,7.314848E2,4.328108E3,2.8882252E1],"tree_param":{"num_deleted":"0","num_feature":"30","num_nodes":"55","size_leaf_vector":"1"}},{"base_weights":[2.0942865E-2,1.4830359E0,-1.1562762E0,1.5777194E0,7.576054E-1,1.5337954E0,-1.2163275E0,1.5783589E0,-1.4005873E-1,-4.2089203E-1,1.1854961E0,1.7028596E0,-1.618928E-1,-4.0582857E-1,-1.3290404E0,-1.348099E-1,1.5786912E0,-1.6518153E-1,7.368287E-1,-1.666142E-1,1.3205171E0,-1.4849846E-1,1.7192085E0,1.9105572E-1,-1.214583E0,-1.261959E-1,-1.4089969E0,1.5774463E0,1.7216805E0,-1.6477121E-1,1.4248928E0,1.4144796E0,-1.6473268E-1,1.6115884E-1,1.7937979E-1,-8.5698044E-1,8.5597104E-1,1.0367066E0,-1.6142695E-1,-1.2163798E0,1.0394695E0,-1.4579594E0,-6.9188714E-2,1.5776236E-1,-1.0421784E-1,1.7357203E-1,-8.750339E-2,1.6837154E-1,-1.648786E-1,-1.5993895E-1,1.4715302E-1,1.0161407E-1,-1.627066E-1,-1.6378506E-1,1.20960526E-1,-1.6195399E-1,1.6996412E-1,1.9084783E-1,-1.6438894E-1,1.4046527E-1,-1.6386464E-1,-1.1790141E-1,-1.5811744E-1,-1.6748755E-1,7.445169E-2],"categories":[],"categories_nodes":[],"categories_segments":[],"categories_sizes":[],"default_left":[0,0,0,0,0,0,0,0,0,0,0,0,0,0,0,0,0,0,0,0,0,0,0,0,0,0,0,0,0,0,0,0,0,0,0,0,0,0,0,0,0,0,0,0,0,0,0,0,0,0,0,0,0,0,0,0,0,0,0,0,0,0,0,0,0],"id":3,"left_children":[1,3,5,7,9,11,13,15,-1,17,19,21,-1,23,25,-1,27,-1,29,-1,31,-1,33,35,37,39,41,43,45,-1,47,49,-1,-1,-1,51,53,55,-1,57,59,61,63,-1,-1,-1,-1,-1,-1,-1,-1,-1,-1,-1,-1,-1,-1,-1,-1,-1,-1,-1,-1,-1,-1],"loss_changes":[1.4761398E5,2.6262422E3,7.6766562E3,6.665625E1,2.2284849E3,5.559458E2,4.2448906E3,3.5015625E1,0E0,1.6794043E3,1.2503301E3,5.391577E1,0E0,2.7398203E3,3.923625E3,0E0,3.3125E0,0E0,9.991601E2,0E0,8.656011E2,0E0,4.9833984E0,2.2767688E3,2.1702273E3,3.234214E3,2.509461E3,1.721875E1,1.1763916E1,0E0,3.782953E2,5.183867E2,0E0,0E0,0E0,1.8311587E3,1.7647521E3,6.436661E2,0E0,1.7599181E3,1.2052461E3,1.2666172E3,1.7648112E3,0E0,0E0,0E0,0E0,0E0,0E0,0E0,0E0,0E0,0E0,0E0,0E0,0E0,0E0,0E0,0E0,0E0,0E0,0E0,0E0,0E0,0E0],"parents":[2147483647,0,0,1,1,2,2,3,3,4,4,5,5,6,6,7,7,9,9,10,10,11,11,13,13,14,14,16,16,18,18,20,20,22,22,23,23,24,24,25,25,26,26,27,27,28,28,30,30,31,31,35,35,36,36,37,37,39,39,40,40,41,41,42,42],"right_children":[2,4,6,8,10,12,14,16,-1,18,20,22,-1,24,26,-1,28,-1,30,-1,32,-1,34,36,38,40,42,44,46,-1,48,50,-1,-1,-1,52,54,56,-1,58,60,62,64,-1,-1,-1,-1,-1,-1,-1,-1,-1,-1,-1,-1,-1,-1,-1,-1,-1,-1,-1,-1,-1,-1],"split_conditions":[1.7161702E-1,2.4874686E-1,3.6830097E-1,1.21401645E-1,9.3003416E-1,3.433959E-1,5.604518E-1,-4.1720065E-1,-1.4005873E-1,1.2647201E-1,-3.7441745E-1,3.330125E-1,-1.618928E-1,-1.2420462E-1,-1.03849895E-1,-1.348099E-1,4.76657E-2,-1.6518153E-1,1.7896628E-1,-1.666142E-1,-2.0456453E-1,-1.4849846E-1,5.845768E-1,1.6077814E-1,1.9616437E-1,5.527737E-1,3.5366496E-1,1.1022835E-2,7.786077E-1,-1.6477121E-1,-1.937666E-1,3.0990526E-1,-1.6473268E-1,1.6115884E-1,1.7937979E-1,-5.072037E-1,3.7558995E-2,-9.5616233E-1,-1.6142695E-1,-6.966539E-1,-9.9940836E-1,-9.9941695E-1,-3.0284813E-1,1.5776236E-1,-1.0421784E-1,1.7357203E-1,-8.750339E-2,1.6837154E-1,-1.648786E-1,-1.5993895E-1,1.4715302E-1,1.0161407E-1,-1.627066E-1,-1.6378506E-1,1.20960526E-1,-1.6195399E-1,1.6996412E-1,1.9084783E-1,-1.6438894E-1,1.4046527E-1,-1.6386464E-1,-1.1790141E-1,-1.5811744E-1,-1.6748755E-1,7.445169E-2],"split_indices":[14,12,17,9,1,12,8,11,0,21,28,23,0,13,19,0,9,0,25,0,15,0,2,19,12,2,23,9,1,0,26,18,0,0,0,6,22,29,0,15,29,29,15,0,0,0,0,0,0,0,0,0,0,0,0,0,0,0,0,0,0,0,0,0,0],"split_type":[0,0,0,0,0,0,0,0,0,0,0,0,0,0,0,0,0,0,0,0,0,0,0,0,0,0,0,0,0,0,0,0,0,0,0,0,0,0,0,0,0,0,0,0,0,0,0,0,0,0,0,0,0,0,0,0,0,0,0,0,0,0,0,0,0],"sum_hessian":[8.5760055E4,3.825166E4,4.75084E4,3.3834402E4,4.417257E3,1.0368529E3,4.6471547E4,3.382761E4,6.792662E0,1.1766211E3,3.2406357E3,9.845181E2,5.233474E1,5.6741646E3,4.0797383E4,3.3807642E0,3.382423E4,5.700743E2,6.065468E2,1.4599007E2,3.0946458E3,4.5649977E0,9.799531E2,3.2651519E3,2.409013E3,2.543048E3,3.8254332E4,3.354421E4,2.800167E2,1.355148E2,4.7103204E2,3.0001826E3,9.4463005E1,4.1040848E2,5.695447E2,1.2673198E3,1.9978319E3,3.6296555E2,2.0460475E3,1.3140471E3,1.2290009E3,3.690555E4,1.3487805E3,3.354234E4,1.8715235E0,2.7884064E2,1.1760437E0,4.3486588E2,3.6166153E1,5.523431E1,2.9449482E3,3.6913446E2,8.981853E2,2.476658E2,1.7501661E3,7.220632E1,2.9075922E2,1.577221E2,1.1563251E3,1.0819443E3,1.4705655E2,1.1310456E4,2.5595098E4,4.5327463E2,8.955059E2],"tree_param":{"num_deleted":"0","num_feature":"30","num_nodes":"65","size_leaf_vector":"1"}},{"base_weights":[2.4326298E-2,1.39984E0,-1.0848188E0,1.4887452E0,5.948409E-1,-2.9356453E-1,-1.2289788E0,-1.4428692E-1,1.4902447E0,7.6453835E-1,-1.554212E-1,5.394573E-1,-8.455053E-1,-1.3247653E0,-1.7931007E-1,1.490993E0,-1.4107706E-1,9.333731E-1,-1.5986267E-1,-1.5230756E-1,9.104914E-1,8.2606725E-2,-1.3991778E0,-1.3603E0,1.0271189E0,-1.5295365E-1,3.1459418E-1,1.4915166E0,-1.5349095E-1,-1.58011E-1,1.0709577E0,1.1491915E0,-1.5663455E-1,9.761126E-1,-1.6030936E0,-1.5614303E0,1.4320984E0,-7.8256553E-1,-1.4196086E0,1.6126277E0,-1.5557688E-1,6.8090254E-1,-1.5537284E-1,1.4916797E-1,-1.079819E-1,1.18098736E-1,-1.629615E-1,1.3109842E-1,-1.5530871E-1,-1.5539993E-1,1.5197648E-1,-1.6767839E-1,-1.5287928E-1,-1.5300813E-1,-1.6069481E-1,-1.4730226E-1,1.5923457E-1,-1.5248807E-1,7.7769123E-3,-2.6230542E-2,-1.4494567E-1,-1.4324415E-1,1.6828838E-1,-1.5488453E-1,9.56926E-2],"categories":[],"categories_nodes":[],"categories_segments":[],"categories_sizes":[],"default_left":[0,0,0,0,0,0,0,0,0,0,0,0,0,0,0,0,0,0,0,0,0,0,0,0,0,0,0,0,0,0,0,0,0,0,0,0,0,0,0,0,0,0,0,0,0,0,0,0,0,0,0,0,0,0,0,0,0,0,0,0,0,0,0,0,0],"id":4,"left_children":[1,3,5,7,9,11,13,-1,15,17,-1,19,21,23,25,27,-1,29,-1,-1,31,33,35,37,39,-1,41,43,-1,-1,45,47,-1,49,51,53,55,57,59,61,-1,63,-1,-1,-1,-1,-1,-1,-1,-1,-1,-1,-1,-1,-1,-1,-1,-1,-1,-1,-1,-1,-1,-1,-1],"loss_changes":[1.2568025E5,2.6309453E3,5.2016562E3,1.4773438E2,1.3356053E3,3.2325386E3,3.8783867E3,0E0,7.394531E1,1.3548231E3,0E0,2.1457444E3,2.1730427E3,2.9557344E3,2.152531E3,5.471875E1,0E0,1.0966841E3,0E0,0E0,1.4062444E3,2.382771E3,1.2189546E3,1.1921445E3,7.990804E2,0E0,1.61865E3,1.54921875E1,0E0,0E0,8.941448E2,9.49583E2,0E0,1.4244795E3,4.3737793E-1,1.1162109E0,6.9419525E1,2.0721167E3,1.0905312E3,9.4377075E1,0E0,1.2181462E3,0E0,0E0,0E0,0E0,0E0,0E0,0E0,0E0,0E0,0E0,0E0,0E0,0E0,0E0,0E0,0E0,0E0,0E0,0E0,0E0,0E0,0E0,0E0],"parents":[2147483647,0,0,1,1,2,2,3,3,4,4,5,5,6,6,8,8,9,9,11,11,12,12,13,13,14,14,15,15,17,17,20,20,21,21,22,22,23,23,24,24,26,26,27,27,30,30,31,31,33,33,34,34,35,35,36,36,37,37,38,38,39,39,41,41],"right_children":[2,4,6,8,10,12,14,-1,16,18,-1,20,22,24,26,28,-1,30,-1,-1,32,34,36,38,40,-1,42,44,-1,-1,46,48,-1,50,52,54,56,58,60,62,-1,64,-1,-1,-1,-1,-1,-1,-1,-1,-1,-1,-1,-1,-1,-1,-1,-1,-1,-1,-1,-1,-1,-1,-1],"split_conditions":[1.7161702E-1,-5.597227E-2,2.3775056E-1,-4.8991573E-1,-4.562848E-1,1.56884E-1,-4.5368022E-1,-1.4428692E-1,6.6887164E-1,9.843341E-1,-1.554212E-1,-5.1026404E-1,-2.3585583E-1,1.8689862E-1,-4.8411727E-1,1.641291E-1,-1.4107706E-1,-4.8857003E-1,-1.5986267E-1,-1.5230756E-1,-3.0541006E-2,-1.6700265E-1,2.4774382E-1,1.103004E-1,-1.8575746E-1,-1.5295365E-1,-4.532128E-1,9.69524E-1,-1.5349095E-1,-1.58011E-1,2.1352035E-1,-3.763748E-2,-1.5663455E-1,8.999326E-1,7.014252E-1,1.5628351E-1,-9.733628E-1,1.8323113E-1,2.428641E-2,-3.224382E-1,-1.5557688E-1,2.9284728E-1,-1.5537284E-1,1.4916797E-1,-1.079819E-1,1.18098736E-1,-1.629615E-1,1.3109842E-1,-1.5530871E-1,-1.5539993E-1,1.5197648E-1,-1.6767839E-1,-1.5287928E-1,-1.5300813E-1,-1.6069481E-1,-1.4730226E-1,1.5923457E-1,-1.5248807E-1,7.7769123E-3,-2.6230542E-2,-1.4494567E-1,-1.4324415E-1,1.6828838E-1,-1.5488453E-1,9.56926E-2],"split_indices":[14,10,14,11,7,20,7,0,3,1,0,11,0,22,6,14,0,11,0,0,9,27,13,21,27,0,6,0,0,0,25,13,0,1,3,25,29,25,25,11,0,14,0,0,0,0,0,0,0,0,0,0,0,0,0,0,0,0,0,0,0,0,0,0,0],"split_type":[0,0,0,0,0,0,0,0,0,0,0,0,0,0,0,0,0,0,0,0,0,0,0,0,0,0,0,0,0,0,0,0,0,0,0,0,0,0,0,0,0,0,0,0,0,0,0,0,0,0,0,0,0,0,0,0,0,0,0,0,0,0,0,0,0],"sum_hessian":[8.2376484E4,3.6772527E4,4.5603953E4,3.3114473E4,3.658057E3,7.028647E3,3.857531E4,1.6439232E1,3.309803E4,3.3909397E3,2.6711737E2,2.801093E3,4.2275537E3,3.5349277E4,3.2260298E3,3.3089984E4,8.048296E0,3.165395E3,2.2554453E2,4.265956E2,2.3744976E3,1.5799541E3,2.6475999E3,3.482355E4,5.257273E2,8.634497E2,2.3625798E3,3.3084766E4,5.2180915E0,1.6373296E2,3.001662E3,2.1662642E3,2.0823328E2,1.0328909E3,5.470632E2,2.5045212E3,1.430786E2,3.2433943E3,3.1580156E4,4.2888095E2,9.684637E1,1.9758291E3,3.8675082E2,3.3083086E4,1.678029E0,2.8846936E3,1.169686E2,2.0443768E3,1.2188744E2,1.8235722E2,8.505337E2,2.63832E2,2.8323114E2,1.503584E3,1.0009373E3,7.051411E0,1.3602719E2,1.7407047E3,1.5026895E3,7.9425085E2,3.0785904E4,9.234763E0,4.1964618E2,2.1713962E2,1.7586896E3],"tree_param":{"num_deleted":"0","num_feature":"30","num_nodes":"65","size_leaf_vector":"1"}},{"base_weights":[2.1821253E-2,1.3389014E0,-1.0335801E0,-1.4885558E-1,1.3614272E0,-1.2226979E0,-9.867813E-2,1.4216866E0,8.891588E-1,-1.2679926E0,6.347818E-1,6.929044E-1,-7.145389E-1,-1.4385237E-1,1.422788E0,1.5128876E-1,1.3996747E0,-8.685483E-1,-1.390907E0,1.3422791E0,-1.4864706E-1,1.126824E0,-6.4816006E-2,1.101907E0,-1.0554324E0,-1.3059253E-1,1.4235586E0,-1.5600999E-1,7.507993E-1,-1.6887116E-1,1.4504908E0,-1.3573647E0,-3.7526628E-1,-1.4090593E0,5.288918E-2,-1.4908849E-1,1.6628479E0,1.281378E0,-1.4787968E-1,-1.5040761E-1,1.1142459E0,1.4202397E0,-1.4731269E-1,1.8509488E-1,-1.471898E-1,1.4240496E-1,-1.4578466E-1,1.3778055E-1,-1.553139E-1,1.4768074E-1,-1.4577727E-1,-1.4785221E-1,-1.5808044E-2,5.719576E-2,-1.0536329E-1,-1.4249627E-1,-8.1184916E-2,-1.4728421E-1,1.9564198E-1,-1.441786E-1,1.7568268E-1,-1.5012729E-1,1.404746E-1,1.4101073E-1,-1.4964357E-1,1.5695696E-1,-1.4679317E-1,1.09191634E-1,-1.4940411E-1],"categories":[],"categories_nodes":[],"categories_segments":[],"categories_sizes":[],"default_left":[0,0,0,0,0,0,0,0,0,0,0,0,0,0,0,0,0,0,0,0,0,0,0,0,0,0,0,0,0,0,0,0,0,0,0,0,0,0,0,0,0,0,0,0,0,0,0,0,0,0,0,0,0,0,0,0,0,0,0,0,0,0,0,0,0,0,0,0,0],"id":5,"left_children":[1,3,5,-1,7,9,11,13,15,17,19,21,23,-1,25,27,29,31,33,35,-1,37,39,41,43,-1,45,-1,47,-1,49,51,53,55,57,-1,59,61,-1,-1,63,65,-1,67,-1,-1,-1,-1,-1,-1,-1,-1,-1,-1,-1,-1,-1,-1,-1,-1,-1,-1,-1,-1,-1,-1,-1,-1,-1],"loss_changes":[1.0876818E5,2.2190078E3,7.680211E3,0E0,9.8152734E2,3.0406094E3,3.5640493E3,9.8515625E1,1.4728335E3,1.7304922E3,1.2937717E3,1.0518986E3,2.5471912E3,0E0,6.622656E1,1.6430353E3,3.65167E2,2.0013237E3,7.068867E2,5.89177E2,0E0,8.210989E2,1.9800925E3,5.350753E2,1.7891284E3,0E0,4.5378906E1,0E0,1.7151082E3,0E0,1.7621924E2,6.0560693E2,2.656674E3,2.518164E2,9.782242E2,0E0,1.7199121E2,6.615217E2,0E0,0E0,4.9754822E2,2.5209668E2,0E0,1.3281067E3,0E0,0E0,0E0,0E0,0E0,0E0,0E0,0E0,0E0,0E0,0E0,0E0,0E0,0E0,0E0,0E0,0E0,0E0,0E0,0E0,0E0,0E0,0E0,0E0,0E0],"parents":[2147483647,0,0,1,1,2,2,4,4,5,5,6,6,7,7,8,8,9,9,10,10,11,11,12,12,14,14,15,15,16,16,17,17,18,18,19,19,21,21,22,22,23,23,24,24,26,26,28,28,30,30,31,31,32,32,33,33,34,34,36,36,37,37,40,40,41,41,43,43],"right_children":[2,4,6,-1,8,10,12,14,16,18,20,22,24,-1,26,28,30,32,34,36,-1,38,40,42,44,-1,46,-1,48,-1,50,52,54,56,58,-1,60,62,-1,-1,64,66,-1,68,-1,-1,-1,-1,-1,-1,-1,-1,-1,-1,-1,-1,-1,-1,-1,-1,-1,-1,-1,-1,-1,-1,-1,-1,-1],"split_conditions":[1.7161702E-1,-5.6357694E-1,-3.7238738E-1,-1.4885558E-1,-5.597227E-2,-4.3865463E-1,5.6793946E-1,-5.3911203E-1,-3.023029E-1,2.593016E-1,-2.5813493E-1,1.4793044E-1,2.1428463E-1,-1.4385237E-1,-4.8718572E-1,5.004746E-1,-3.9423406E-1,3.4121215E-1,5.0943047E-1,-2.923685E-1,-1.4864706E-1,7.19125E-1,-7.327421E-2,-1.6524468E-1,-9.996894E-1,-1.3059253E-1,1.641291E-1,-1.5600999E-1,-1.8774618E-1,-1.6887116E-1,6.2987424E-2,-4.497735E-3,-1.0398629E-1,3.5366496E-1,-4.8214532E-2,-1.4908849E-1,3.063599E-1,3.1010878E-1,-1.4787968E-1,-1.5040761E-1,-1.2420462E-1,-1.5583295E-4,-1.4731269E-1,-1.836137E-1,-1.471898E-1,1.4240496E-1,-1.4578466E-1,1.3778055E-1,-1.553139E-1,1.4768074E-1,-1.4577727E-1,-1.4785221E-1,-1.5808044E-2,5.719576E-2,-1.0536329E-1,-1.4249627E-1,-8.1184916E-2,-1.4728421E-1,1.9564198E-1,-1.441786E-1,1.7568268E-1,-1.5012729E-1,1.404746E-1,1.4101073E-1,-1.4964357E-1,1.5695696E-1,-1.4679317E-1,1.09191634E-1,-1.4940411E-1],"split_indices":[14,4,4,0,10,7,8,4,4,14,26,25,14,0,11,0,11,18,19,15,0,3,26,27,29,0,14,0,26,0,10,16,0,23,16,0,14,23,0,0,13,10,0,26,0,0,0,0,0,0,0,0,0,0,0,0,0,0,0,0,0,0,0,0,0,0,0,0,0],"split_type":[0,0,0,0,0,0,0,0,0,0,0,0,0,0,0,0,0,0,0,0,0,0,0,0,0,0,0,0,0,0,0,0,0,0,0,0,0,0,0,0,0,0,0,0,0,0,0,0,0,0,0,0,0,0,0,0,0,0,0,0,0,0,0,0,0,0,0,0,0],"sum_hessian":[7.824579E4,3.4807613E4,4.343817E4,2.745984E2,3.4533016E4,3.6129387E4,7.3087866E3,3.0623564E4,3.9094517E3,3.526965E4,8.5973663E2,3.198081E3,4.1107056E3,1.1284965E1,3.061228E4,1.5992643E3,2.3101875E3,8.301076E3,2.6968572E4,6.4498364E2,2.1475294E2,2.0332332E3,1.1648478E3,6.4920337E2,3.4615022E3,8.163607E0,3.0604115E4,4.144773E2,1.184787E3,3.6874622E1,2.273313E3,4.1685303E3,4.1325454E3,2.6633744E4,3.3482986E2,6.518985E1,5.797938E2,1.9198635E3,1.1336965E2,5.2442084E2,6.4042694E2,5.781761E2,7.102724E1,8.7014716E2,2.591355E3,3.0599406E4,4.708555E0,9.316458E2,2.5314116E2,2.253414E3,1.9898788E1,3.7858347E3,3.8269565E2,1.7245962E3,2.4079495E3,2.5941543E4,6.922011E2,1.8598451E2,1.4884535E2,1.6613611E1,5.631802E2,8.102892E1,1.8388346E3,5.7565E2,6.477698E1,5.501859E2,2.7990211E1,5.6523846E2,3.049087E2],"tree_param":{"num_deleted":"0","num_feature":"30","num_nodes":"69","size_leaf_vector":"1"}},{"base_weights":[3.6808062E-2,1.2846111E0,-9.6044844E-1,-1.4235874E-1,1.3059335E0,-1.2409139E0,-3.6231375E-1,1.3687893E0,7.9591024E-1,-1.304061E0,-5.8340734E-1,5.777315E-1,-8.2756716E-1,-1.448441E-1,1.370492E0,9.678189E-1,-1.51675E-1,-1.3222988E0,6.442739E-1,2.9656482E-1,-1.3968861E-1,1.1442157E0,-5.9943444E-1,-9.817343E-1,8.6599655E-2,1.3708756E0,-1.9748157E-1,-5.6157273E-1,1.1302973E0,-1.3591133E0,-3.0162105E-1,1.8553991E0,-1.4022897E-1,-1.4193736E-1,9.6647704E-1,1.349293E0,-1.4032483E-1,1.0161352E0,-1.0420538E0,-1.4062986E-1,-5.683913E-1,-1.4058042E-1,9.227787E-1,1.3713141E-1,-1.17725305E-1,1.3348983E-1,-1.6145715E-1,-1.4255019E-1,1.1939404E-1,-1.3745761E-1,5.6917388E-2,-1.5088783E-1,1.5433761E-1,-1.2818934E-1,1.9857195E-1,1.5282987E-1,-1.4090611E-1,1.4381567E-1,-1.5101199E-1,1.3363162E-1,-1.440367E-1,1.3324183E-1,-1.4176226E-1,1.5951574E-3,-1.4085178E-1,1.77392E-1,-1.7673612E-2],"categories":[],"categories_nodes":[],"categories_segments":[],"categories_sizes":[],"default_left":[0,0,0,0,0,0,0,0,0,0,0,0,0,0,0,0,0,0,0,0,0,0,0,0,0,0,0,0,0,0,0,0,0,0,0,0,0,0,0,0,0,0,0,0,0,0,0,0,0,0,0,0,0,0,0,0,0,0,0,0,0,0,0,0,0,0,0],"id":6,"left_children":[1,3,5,-1,7,9,11,13,15,17,19,21,23,-1,25,27,-1,29,31,33,-1,35,37,39,41,43,-1,45,47,49,51,53,-1,-1,55,57,-1,59,61,-1,63,-1,65,-1,-1,-1,-1,-1,-1,-1,-1,-1,-1,-1,-1,-1,-1,-1,-1,-1,-1,-1,-1,-1,-1,-1,-1],"loss_changes":[9.2868625E4,1.916168E3,6.958004E3,0E0,1.0533711E3,1.1716758E3,5.7921943E3,1.4244922E2,1.4372075E3,9.162969E2,1.7729535E3,2.9246616E3,1.2485791E3,0E0,4.026953E1,8.360842E2,0E0,9.586875E2,5.9647314E2,1.3696514E3,0E0,1.548581E3,1.0201967E3,1.3294897E3,1.5977335E3,3.4304688E1,0E0,6.482648E2,4.9610645E2,7.3533203E2,1.9844038E3,6.426196E1,0E0,0E0,1.1454951E3,6.985298E2,0E0,2.4338812E2,9.999685E2,0E0,1.8864578E3,0E0,7.681751E2,0E0,0E0,0E0,0E0,0E0,0E0,0E0,0E0,0E0,0E0,0E0,0E0,0E0,0E0,0E0,0E0,0E0,0E0,0E0,0E0,0E0,0E0,0E0,0E0],"parents":[2147483647,0,0,1,1,2,2,4,4,5,5,6,6,7,7,8,8,9,9,10,10,11,11,12,12,14,14,15,15,17,17,18,18,19,19,21,21,22,22,23,23,24,24,25,25,27,27,28,28,29,29,30,30,31,31,34,34,35,35,37,37,38,38,40,40,42,42],"right_children":[2,4,6,-1,8,10,12,14,16,18,20,22,24,-1,26,28,-1,30,32,34,-1,36,38,40,42,44,-1,46,48,50,52,54,-1,-1,56,58,-1,60,62,-1,64,-1,66,-1,-1,-1,-1,-1,-1,-1,-1,-1,-1,-1,-1,-1,-1,-1,-1,-1,-1,-1,-1,-1,-1,-1,-1],"split_conditions":[1.7161702E-1,-5.6357694E-1,-4.3032476E-1,-1.4235874E-1,3.0077234E-1,2.839801E-1,3.6614177E-1,-4.1428292E-1,-5.6832884E-2,1.8689862E-1,2.7441335E-1,3.1507328E-1,-6.016049E-2,-1.448441E-1,9.6394545E-1,1.3355918E-1,-1.51675E-1,3.5366496E-1,1.3942654E-1,-5.487805E-1,-1.3968861E-1,7.19125E-1,5.490014E-1,5.31327E-1,3.1902725E-1,6.2987424E-2,-1.9748157E-1,-5.0266796E-1,3.1090197E-1,-4.3214753E-1,-4.6653107E-1,8.7661177E-1,-1.4022897E-1,-1.4193736E-1,7.009603E-1,9.5891094E-1,-1.4032483E-1,3.000759E-1,-2.5812444E-1,-1.4062986E-1,3.0163512E-1,-1.4058042E-1,-5.526192E-1,1.3713141E-1,-1.17725305E-1,1.3348983E-1,-1.6145715E-1,-1.4255019E-1,1.1939404E-1,-1.3745761E-1,5.6917388E-2,-1.5088783E-1,1.5433761E-1,-1.2818934E-1,1.9857195E-1,1.5282987E-1,-1.4090611E-1,1.4381567E-1,-1.5101199E-1,1.3363162E-1,-1.440367E-1,1.3324183E-1,-1.4176226E-1,1.5951574E-3,-1.4085178E-1,1.77392E-1,-1.7673612E-2],"split_indices":[14,4,4,0,12,19,12,11,26,22,14,14,24,0,1,25,0,23,20,4,0,3,8,5,18,10,0,7,18,7,4,1,0,0,3,1,0,18,19,0,14,0,11,0,0,0,0,0,0,0,0,0,0,0,0,0,0,0,0,0,0,0,0,0,0,0,0],"split_type":[0,0,0,0,0,0,0,0,0,0,0,0,0,0,0,0,0,0,0,0,0,0,0,0,0,0,0,0,0,0,0,0,0,0,0,0,0,0,0,0,0,0,0,0,0,0,0,0,0,0,0,0,0,0,0,0,0,0,0,0,0,0,0,0,0,0,0],"sum_hessian":[7.462846E4,3.314987E4,4.1478594E4,2.5844507E2,3.2891426E4,2.8237125E4,1.3241468E4,2.9281105E4,3.6103208E3,2.5761955E4,2.4751711E3,4.383784E3,8.857684E3,1.7173445E1,2.9263932E4,3.361062E3,2.4925877E2,2.552336E4,2.3859518E2,1.189297E3,1.2858743E3,2.959581E3,1.4242029E3,7.5794023E3,1.2782811E3,2.9261166E4,2.7652655E0,3.2254306E2,3.0385188E3,2.4634494E4,8.88866E2,1.4995029E2,8.8644905E1,3.336232E2,8.5567377E2,2.7395137E3,2.2006741E2,3.060002E2,1.1182026E3,3.7377646E3,3.8416377E3,4.5877786E2,8.1950323E2,2.9256594E4,4.572084E0,1.1505646E2,2.0748659E2,7.330522E1,2.9652136E3,2.4438809E4,1.9568584E2,5.3740326E2,3.5146277E2,5.6279583E0,1.4432233E2,6.9229956E2,1.6337424E2,2.6574246E3,8.208925E1,2.711186E2,3.488163E1,1.5236324E2,9.658395E2,2.2663076E3,1.57533E3,4.6157883E2,3.579244E2],"tree_param":{"num_deleted":"0","num_feature":"30","num_nodes":"67","size_leaf_vector":"1"}},{"base_weights":[4.9083136E-2,1.2360938E0,-9.1675365E-1,1.3185873E0,6.016238E-1,-9.6382564E-1,1.0933974E0,1.3195305E0,-1.22365735E-1,7.715081E-1,-1.4365286E-1,-5.256328E-1,-1.1206661E0,1.3316709E0,-1.3760462E-1,1.3199165E0,-1.22454286E-1,-1.375051E-1,9.1169757E-1,1.4765728E0,-6.6301626E-1,-6.442746E-2,-1.1960506E0,1.428575E0,-1.3567978E-1,1.3221029E0,1.0807289E0,-5.119952E-1,1.059152E0,1.5621442E0,-1.5649793E-1,-1.5342516E-1,-1.0869877E0,1.0380287E0,-9.9377483E-1,-3.3201894E-1,-1.2646435E0,1.4980942E0,-1.3138859E-1,1.3207586E-1,1.3958089E-1,-1.7129932E-1,1.4099453E-1,1.3083415E-1,-1.5262939E-1,1.1278234E-1,-1.5823537E-1,1.3447906E-1,2.3017874E-1,2.7763892E-2,-1.3778979E-1,-1.3879953E-1,-3.0952191E-2,-1.4430113E-1,1.5630673E-1,1.3571034E-1,-1.3780457E-1,-1.3805856E-1,4.4468414E-2,-1.2838183E-1,6.794801E-2,1.512725E-1,-1.128869E-1],"categories":[],"categories_nodes":[],"categories_segments":[],"categories_sizes":[],"default_left":[0,0,0,0,0,0,0,0,0,0,0,0,0,0,0,0,0,0,0,0,0,0,0,0,0,0,0,0,0,0,0,0,0,0,0,0,0,0,0,0,0,0,0,0,0,0,0,0,0,0,0,0,0,0,0,0,0,0,0,0,0,0,0],"id":7,"left_children":[1,3,5,7,9,11,13,15,-1,17,-1,19,21,23,-1,25,-1,-1,27,29,31,33,35,37,-1,39,41,43,45,47,-1,49,51,53,55,57,59,61,-1,-1,-1,-1,-1,-1,-1,-1,-1,-1,-1,-1,-1,-1,-1,-1,-1,-1,-1,-1,-1,-1,-1,-1,-1],"loss_changes":[8.191247E4,1.6769023E3,3.7286094E3,6.9625E1,1.2787555E3,2.6449258E3,5.3249097E2,2.9457031E1,0E0,1.0264156E3,0E0,2.7924119E3,2.2569805E3,2.1635156E2,0E0,1.33984375E1,0E0,0E0,6.719934E2,1.7212E2,2.0517153E3,1.9368309E3,1.5676484E3,1.5351172E2,0E0,9.375E-1,2.4365305E2,5.5748285E2,5.275791E2,9.892236E1,0E0,2.2775518E3,1.2127285E3,1.1286438E3,9.2845337E2,1.5865372E3,9.146211E2,3.152063E1,0E0,0E0,0E0,0E0,0E0,0E0,0E0,0E0,0E0,0E0,0E0,0E0,0E0,0E0,0E0,0E0,0E0,0E0,0E0,0E0,0E0,0E0,0E0,0E0,0E0],"parents":[2147483647,0,0,1,1,2,2,3,3,4,4,5,5,6,6,7,7,9,9,11,11,12,12,13,13,15,15,18,18,19,19,20,20,21,21,22,22,23,23,25,25,26,26,27,27,28,28,29,29,31,31,32,32,33,33,34,34,35,35,36,36,37,37],"right_children":[2,4,6,8,10,12,14,16,-1,18,-1,20,22,24,-1,26,-1,-1,28,30,32,34,36,38,-1,40,42,44,46,48,-1,50,52,54,56,58,60,62,-1,-1,-1,-1,-1,-1,-1,-1,-1,-1,-1,-1,-1,-1,-1,-1,-1,-1,-1,-1,-1,-1,-1,-1,-1],"split_conditions":[1.7161702E-1,3.0077234E-1,1.8689862E-1,1.21401645E-1,-5.6832884E-2,2.614693E-1,-9.982173E-1,9.8318845E-1,-1.22365735E-1,3.1090197E-1,-1.4365286E-1,2.153711E-1,-1.03849895E-1,3.641895E-1,-1.3760462E-1,1.14789814E-1,-1.22454286E-1,-1.375051E-1,1.3355918E-1,5.420558E-1,-1.3403168E-1,-4.7768587E-1,5.554764E-1,5.563779E-1,-1.3567978E-1,6.099527E-3,1.82256E-1,2.6307592E-1,-1.6269821E-1,2.6077446E-1,-1.5649793E-1,5.743185E-1,-3.1565588E-2,9.182963E-1,1.8443176E-1,-2.831867E-1,3.1216118E-1,-4.7020704E-1,-1.3138859E-1,1.3207586E-1,1.3958089E-1,-1.7129932E-1,1.4099453E-1,1.3083415E-1,-1.5262939E-1,1.1278234E-1,-1.5823537E-1,1.3447906E-1,2.3017874E-1,2.7763892E-2,-1.3778979E-1,-1.3879953E-1,-3.0952191E-2,-1.4430113E-1,1.5630673E-1,1.3571034E-1,-1.3780457E-1,-1.3805856E-1,4.4468414E-2,-1.2838183E-1,6.794801E-2,1.512725E-1,-1.128869E-1],"split_indices":[14,12,22,9,26,14,29,1,0,18,0,12,19,14,0,14,0,0,25,5,13,15,8,8,0,9,20,23,27,14,0,8,9,1,12,15,26,7,0,0,0,0,0,0,0,0,0,0,0,0,0,0,0,0,0,0,0,0,0,0,0,0,0],"split_type":[0,0,0,0,0,0,0,0,0,0,0,0,0,0,0,0,0,0,0,0,0,0,0,0,0,0,0,0,0,0,0,0,0,0,0,0,0,0,0,0,0,0,0,0,0,0,0,0,0,0,0,0,0,0,0,0,0,0,0,0,0,0,0],"sum_hessian":[7.1446266E4,3.2052975E4,3.9393293E4,2.836402E4,3.6889546E3,3.8492434E4,9.0086237E2,2.835398E4,1.003866E1,3.4057034E3,2.8325113E2,1.0147084E4,2.834535E4,8.2200854E2,7.8853836E1,2.8350162E4,3.8196945E0,2.0824718E2,3.1974563E3,6.509205E2,9.496163E3,1.8883871E3,2.645696E4,7.9386285E2,2.814564E1,2.8088873E4,2.6128937E2,2.998538E2,2.8976025E3,6.335816E2,1.7338867E1,4.3132407E3,5.1829224E3,8.636951E2,1.0246919E3,1.9462924E3,2.451067E4,7.7467914E2,1.9183767E1,2.760432E4,4.8455252E2,2.7101715E1,2.3418765E2,1.0719095E2,1.9266283E2,2.8247405E3,7.286191E1,4.9186035E2,1.4172125E2,3.190743E3,1.1224977E3,3.7357754E3,1.4471471E3,1.5054675E2,7.131484E2,1.4360693E2,8.8108496E2,8.278707E2,1.1184216E3,2.427162E4,2.3904956E2,7.7081024E2,3.868839E0],"tree_param":{"num_deleted":"0","num_feature":"30","num_nodes":"63","size_leaf_vector":"1"}},{"base_weights":[2.3867484E-2,1.1744668E0,-7.8691554E-1,-1.3130155E-1,1.2209324E0,-1.0145892E0,5.760036E-1,1.2857538E0,6.06024E-1,-1.1585855E0,-5.216864E-1,-3.3814153E-1,1.141028E0,1.2922187E0,-1.2973152E-1,-8.7601584E-1,1.0868107E0,-1.1894171E0,5.888182E-1,-1.4143641E-1,-1.3214768E-1,4.3697435E-1,-1.3419609E-1,1.29576E0,1.6525303E-1,1.2832049E0,2.9348207E0,-1.4104456E0,1.1478161E0,1.1958787E0,-1.4524807E-1,-1.2358863E0,-4.0348867E-1,1.4997394E0,-1.3115321E-1,-1.3442218E-1,1.8306343E-1,8.321215E-1,-1.3521695E-1,1.3595428E0,-1.3829736E-1,1.3472452E0,-1.4257537E-1,1.2871495E-1,-1.3194218E-1,-9.616436E-2,3.0247912E-1,-1.3627425E-1,-1.6031304E-1,1.3789213E-1,-1.3070767E-1,1.2452596E-1,-1.5315467E-1,1.3281779E-1,-1.24948695E-1,-1.3522068E-1,4.9915683E-2,-1.3455682E-1,1.6943692E-1,-1.3629496E-1,4.469682E-2,-1.3660143E-1,1.2280244E-1,1.3836968E-1,-1.7513128E-1,-1.4512886E-1,1.518291E-1],"categories":[],"categories_nodes":[],"categories_segments":[],"categories_sizes":[],"default_left":[0,0,0,0,0,0,0,0,0,0,0,0,0,0,0,0,0,0,0,0,0,0,0,0,0,0,0,0,0,0,0,0,0,0,0,0,0,0,0,0,0,0,0,0,0,0,0,0,0,0,0,0,0,0,0,0,0,0,0,0,0,0,0,0,0,0,0],"id":8,"left_children":[1,3,5,-1,7,9,11,13,15,17,19,21,23,25,-1,27,29,31,33,35,-1,37,-1,39,41,43,45,47,49,51,-1,53,55,57,-1,-1,59,61,-1,63,-1,65,-1,-1,-1,-1,-1,-1,-1,-1,-1,-1,-1,-1,-1,-1,-1,-1,-1,-1,-1,-1,-1,-1,-1,-1,-1],"loss_changes":[6.149702E4,3.1512188E3,1.2000285E4,0E0,1.0654922E3,2.3512812E3,2.8597769E3,4.0578125E2,1.8200447E3,1.3822539E3,2.278764E3,1.6465531E3,5.1637695E2,3.5364062E2,0E0,6.785782E2,5.357241E2,9.198203E2,7.727877E2,1.9829929E3,0E0,8.4557294E2,0E0,5.0643262E2,8.8474176E2,2.4817578E2,4.882007E1,2.3706665E0,7.629486E1,2.5096313E2,0E0,8.313633E2,1.2066445E3,1.6922784E2,0E0,0E0,1.6332417E3,8.536418E2,0E0,2.191919E2,0E0,1.313787E2,0E0,0E0,0E0,0E0,0E0,0E0,0E0,0E0,0E0,0E0,0E0,0E0,0E0,0E0,0E0,0E0,0E0,0E0,0E0,0E0,0E0,0E0,0E0,0E0,0E0],"parents":[2147483647,0,0,1,1,2,2,4,4,5,5,6,6,7,7,8,8,9,9,10,10,11,11,12,12,13,13,15,15,16,16,17,17,18,18,19,19,21,21,23,23,24,24,25,25,26,26,27,27,28,28,29,29,31,31,32,32,33,33,36,36,37,37,39,39,41,41],"right_children":[2,4,6,-1,8,10,12,14,16,18,20,22,24,26,-1,28,30,32,34,36,-1,38,-1,40,42,44,46,48,50,52,-1,54,56,58,-1,-1,60,62,-1,64,-1,66,-1,-1,-1,-1,-1,-1,-1,-1,-1,-1,-1,-1,-1,-1,-1,-1,-1,-1,-1,-1,-1,-1,-1,-1,-1],"split_conditions":[-4.2440698E-2,-6.1329657E-1,-2.789848E-1,-1.3130155E-1,-1.3299999E-1,4.9444807E-1,-3.7430033E-1,2.6873335E-2,-4.2878065E-1,1.6921599E-1,5.743185E-1,-9.992636E-1,1.5972073E-1,7.421126E-1,-1.2973152E-1,2.9928386E-1,-4.8484433E-1,3.4521976E-1,1.3942654E-1,2.6377723E-1,-1.3214768E-1,6.995721E-1,-1.3419609E-1,7.165315E-1,5.597678E-1,4.084932E-1,8.9950734E-1,4.778018E-1,5.742855E-1,-1.87958E-1,-1.4524807E-1,-3.919748E-2,-4.6653107E-1,8.5288185E-1,-1.3115321E-1,-1.3442218E-1,3.433959E-1,1.56133E-1,-1.3521695E-1,9.8028183E-1,-1.3829736E-1,9.1226923E-1,-1.4257537E-1,1.2871495E-1,-1.3194218E-1,-9.616436E-2,3.0247912E-1,-1.3627425E-1,-1.6031304E-1,1.3789213E-1,-1.3070767E-1,1.2452596E-1,-1.5315467E-1,1.3281779E-1,-1.24948695E-1,-1.3522068E-1,4.9915683E-2,-1.3455682E-1,1.6943692E-1,-1.3629496E-1,4.469682E-2,-1.3660143E-1,1.2280244E-1,1.3836968E-1,-1.7513128E-1,-1.4512886E-1,1.518291E-1],"split_indices":[10,4,4,0,16,17,11,9,4,22,8,29,20,3,0,25,6,23,20,18,0,3,0,3,8,12,1,18,3,15,0,18,4,1,0,0,12,20,0,1,0,1,0,0,0,0,0,0,0,0,0,0,0,0,0,0,0,0,0,0,0,0,0,0,0,0,0],"split_type":[0,0,0,0,0,0,0,0,0,0,0,0,0,0,0,0,0,0,0,0,0,0,0,0,0,0,0,0,0,0,0,0,0,0,0,0,0,0,0,0,0,0,0,0,0,0,0,0,0,0,0,0,0,0,0,0,0,0,0,0,0,0,0,0,0,0,0],"sum_hessian":[6.5919234E4,2.7249062E4,3.8670176E4,4.991712E2,2.6749893E4,3.3135234E4,5.534938E3,2.4197941E4,2.5519512E3,2.5642652E4,7.492583E3,2.114431E3,3.4205068E3,2.4138027E4,5.991274E1,6.2488916E2,1.9270621E3,2.5198367E4,4.4428586E2,5.0790103E3,2.4135728E3,1.1934519E3,9.209791E2,2.9520605E3,4.6844635E2,2.4008064E4,1.2996298E2,4.9458737E2,1.3030174E2,1.8482068E3,7.8855385E1,2.379111E4,1.4072572E3,3.004688E2,1.4381706E2,1.0784615E3,4.0005488E3,9.779897E2,2.1546217E2,2.8838853E3,6.8175186E1,2.6885876E2,1.995876E2,2.3972238E4,3.5826294E1,2.7144866E0,1.2724849E2,4.029107E2,9.167667E1,1.1949108E2,1.0810667E1,1.8158733E3,3.2333492E1,1.250202E2,2.366609E4,6.858754E2,7.213818E2,1.8858698E1,2.816101E2,5.8271423E2,3.4178347E3,1.4888708E2,8.291026E2,2.862217E3,2.1668213E1,1.505495E1,2.538038E2],"tree_param":{"num_deleted":"0","num_feature":"30","num_nodes":"67","size_leaf_vector":"1"}},{"base_weights":[6.4399734E-2,1.1604533E0,-8.15647E-1,1.2460778E0,5.821881E-1,-1.1123216E0,-1.4256987E-1,1.2473204E0,-1.2145839E-1,-6.7509514E-1,8.409158E-1,-1.1413898E0,4.071466E-1,6.8392164E-1,-6.225086E-1,-1.0365514E-1,1.2476981E0,-1.3623033E0,1.2269206E0,9.390322E-1,-1.5047122E0,-1.2244179E0,-6.942785E-1,1.470068E0,-1.2785396E-1,1.0871786E0,-2.5968993E-1,1.7500302E0,-8.053195E-1,1.2496802E0,1.1672843E0,-1.5610261E-1,-1.3349694E-1,1.6548661E0,-1.346441E-1,1.0105442E0,-1.5821663E-1,-1.3338129E-1,-1.6661976E-1,-5.9586185E-1,-1.2488656E0,-1.0117145E0,5.7034564E-1,-1.252717E-1,1.5803745E0,1.1587083E0,-1.3758145E-1,1.3946996E0,-8.870527E-1,1.1050361E0,3.9903774E0,5.088904E-1,-1.0159563E0,1.248395E-1,1.4790599E-1,1.2703419E-1,-2.0128942E-1,-9.529819E-2,1.6983832E-1,-2.8750456E-3,1.157765E-1,1.4932881E-1,-1.2823449E-1,-1.2718199E-1,-4.386967E-2,2.348166E-2,-1.2996358E-1,1.3228838E-1,-1.3107038E-1,-9.02409E-2,1.5958521E-1,1.20290175E-1,-1.4093108E-1,1.7713992E-1,-1.3962668E-1,-1.2996113E-1,1.1688071E-1,1.7218761E-1,-1.2598762E-1,4.2109132E-1,-1.0557409E-1,1.607527E-1,-4.879255E-2,2.15622E-2,-1.19823016E-1],"categories":[],"categories_nodes":[],"categories_segments":[],"categories_sizes":[],"default_left":[0,0,0,0,0,0,0,0,0,0,0,0,0,0,0,0,0,0,0,0,0,0,0,0,0,0,0,0,0,0,0,0,0,0,0,0,0,0,0,0,0,0,0,0,0,0,0,0,0,0,0,0,0,0,0,0,0,0,0,0,0,0,0,0,0,0,0,0,0,0,0,0,0,0,0,0,0,0,0,0,0,0,0,0,0],"id":9,"left_children":[1,3,5,7,9,11,13,15,-1,17,19,21,23,25,27,-1,29,31,33,35,37,39,41,43,-1,45,47,49,51,53,55,-1,-1,57,-1,59,-1,-1,-1,61,63,65,67,-1,69,71,-1,73,75,77,79,81,83,-1,-1,-1,-1,-1,-1,-1,-1,-1,-1,-1,-1,-1,-1,-1,-1,-1,-1,-1,-1,-1,-1,-1,-1,-1,-1,-1,-1,-1,-1,-1,-1],"loss_changes":[6.155135E4,1.4063594E3,7.0673887E3,7.7203125E1,1.1934468E3,1.0854766E3,4.295923E3,2.2636719E1,0E0,8.204154E2,7.0144116E2,8.9398047E2,8.294271E2,1.5142474E3,2.9730073E3,0E0,2.4804688E0,4.1809082E-1,1.8589299E2,5.280962E2,1.1585693E0,3.1163477E2,1.5169939E3,8.719281E1,0E0,4.927151E2,1.2384607E3,7.0431335E2,1.7616138E3,5.2695312E0,2.0254285E2,0E0,0E0,1.7897583E1,0E0,4.3460718E2,0E0,0E0,0E0,1.096142E3,3.6331055E2,1.0841521E3,1.0755477E3,0E0,1.1935242E1,3.091985E2,0E0,3.4746326E2,7.350985E2,5.5972156E2,1.2603088E2,9.6392676E2,1.2311958E3,0E0,0E0,0E0,0E0,0E0,0E0,0E0,0E0,0E0,0E0,0E0,0E0,0E0,0E0,0E0,0E0,0E0,0E0,0E0,0E0,0E0,0E0,0E0,0E0,0E0,0E0,0E0,0E0,0E0,0E0,0E0,0E0],"parents":[2147483647,0,0,1,1,2,2,3,3,4,4,5,5,6,6,7,7,9,9,10,10,11,11,12,12,13,13,14,14,16,16,17,17,18,18,19,19,20,20,21,21,22,22,23,23,25,25,26,26,27,27,28,28,29,29,30,30,33,33,35,35,39,39,40,40,41,41,42,42,44,44,45,45,47,47,48,48,49,49,50,50,51,51,52,52],"right_children":[2,4,6,8,10,12,14,16,-1,18,20,22,24,26,28,-1,30,32,34,36,38,40,42,44,-1,46,48,50,52,54,56,-1,-1,58,-1,60,-1,-1,-1,62,64,66,68,-1,70,72,-1,74,76,78,80,82,84,-1,-1,-1,-1,-1,-1,-1,-1,-1,-1,-1,-1,-1,-1,-1,-1,-1,-1,-1,-1,-1,-1,-1,-1,-1,-1,-1,-1,-1,-1,-1,-1],"split_conditions":[1.7161702E-1,2.856312E-1,-4.1692254E-1,6.2987424E-2,-4.629333E-1,1.6921599E-1,3.6614177E-1,-5.5233175E-1,-1.2145839E-1,9.299505E-1,9.843341E-1,4.9974412E-1,1.3942654E-1,3.1507328E-1,-4.1526464E-1,-1.0365514E-1,5.8930373E-1,-5.597227E-2,-4.8233214E-1,2.3540905E-1,-1.6806367E-1,-4.2440698E-2,2.839801E-1,8.4570986E-1,-1.2785396E-1,-1.2619941E-2,-1.6744746E-1,1.3848257E-1,5.577711E-1,1.641291E-1,-6.6346824E-2,-1.5610261E-1,-1.3349694E-1,8.799877E-2,-1.346441E-1,1.3874383E-1,-1.5821663E-1,-1.3338129E-1,-1.6661976E-1,-9.9991435E-1,3.5366496E-1,-9.9991435E-1,-1.4396319E-1,-1.252717E-1,1.9517307E-1,9.5891094E-1,-1.3758145E-1,1.5297775E-1,-7.098588E-2,2.593016E-1,-9.9989957E-1,-3.2676855E-1,-1.03849895E-1,1.248395E-1,1.4790599E-1,1.2703419E-1,-2.0128942E-1,-9.529819E-2,1.6983832E-1,-2.8750456E-3,1.157765E-1,1.4932881E-1,-1.2823449E-1,-1.2718199E-1,-4.386967E-2,2.348166E-2,-1.2996358E-1,1.3228838E-1,-1.3107038E-1,-9.02409E-2,1.5958521E-1,1.20290175E-1,-1.4093108E-1,1.7713992E-1,-1.3962668E-1,-1.2996113E-1,1.1688071E-1,1.7218761E-1,-1.2598762E-1,4.2109132E-1,-1.0557409E-1,1.607527E-1,-4.879255E-2,2.15622E-2,-1.19823016E-1],"split_indices":[14,12,4,10,4,22,12,4,0,0,1,17,20,14,4,0,17,10,7,25,27,10,19,1,0,9,19,13,8,14,10,0,0,22,0,25,0,0,0,29,23,29,13,0,19,1,0,20,4,14,29,13,19,0,0,0,0,0,0,0,0,0,0,0,0,0,0,0,0,0,0,0,0,0,0,0,0,0,0,0,0,0,0,0,0],"split_type":[0,0,0,0,0,0,0,0,0,0,0,0,0,0,0,0,0,0,0,0,0,0,0,0,0,0,0,0,0,0,0,0,0,0,0,0,0,0,0,0,0,0,0,0,0,0,0,0,0,0,0,0,0,0,0,0,0,0,0,0,0,0,0,0,0,0,0,0,0,0,0,0,0,0,0,0,0,0,0,0,0,0,0,0,0],"sum_hessian":[6.3809684E4,2.8417191E4,3.5392492E4,2.4751111E4,3.6660806E3,2.4564469E4,1.0828022E4,2.473911E4,1.2000354E1,6.253913E2,3.0406892E3,2.4103604E4,4.6086508E2,3.9776963E3,6.8503257E3,3.6367416E0,2.4735473E4,4.596141E2,1.6577719E2,2.9191812E3,1.21508125E2,2.0327135E4,3.7764685E3,2.8272116E2,1.7814392E2,2.7866543E3,1.1910422E3,4.8946222E2,6.3608633E3,2.4126281E4,6.0919305E2,4.8790226E1,4.1082388E2,1.4244565E2,2.3331535E1,2.839247E3,7.9934105E1,6.3532047E1,5.7976078E1,7.6197107E2,1.9565164E4,3.0188901E3,7.575782E2,1.0604518E1,2.7211664E2,2.7085234E3,7.81308E1,3.2713815E2,8.6390405E2,3.8120648E2,1.0825575E2,8.784709E2,5.4823926E3,2.3998266E4,1.2801399E2,5.906528E2,1.85403E1,1.9949553E0,1.404507E2,3.5238867E2,2.4868584E3,1.8816368E2,5.738074E2,1.9025549E4,5.396152E2,5.6649255E2,2.4523977E3,5.4131494E2,2.1626328E2,1.330833E0,2.707858E2,2.6632231E3,4.5300278E1,2.8855667E2,3.8581482E1,7.1982196E2,1.4408208E2,3.0256134E2,7.8645134E1,1.0388124E2,4.374517E0,4.1760098E2,4.608699E2,7.067668E2,4.7756255E3],"tree_param":{"num_deleted":"0","num_feature":"30","num_nodes":"85","size_leaf_vector":"1"}},{"base_weights":[2.27349E-2,1.0984868E0,-8.0871403E-1,-9.433239E-1,1.1479715E0,-9.84143E-1,1.4169313E-1,1.167922E-1,-1.300014E-1,-1.4014603E-1,1.1628906E0,-1.0297922E0,6.343977E-1,4.7243202E-1,-9.079518E-1,1.174932E0,-1.442843E-1,-1.1068524E0,-4.3426496E-1,-1.3031344E-1,1.1802113E0,1.0171387E0,-2.643463E-1,-1.3163301E0,8.6745673E-1,1.2090129E0,7.141758E-1,-1.1418041E0,-1.2493656E-1,5.812502E-1,-8.566513E-1,-1.2811813E-1,1.4322284E0,-2.3017502E-1,1.1764706E0,3.000539E-1,-1.2746455E-1,-1.392744E-1,-1.2916578E-1,1.2408265E0,-1.4409064E-1,1.2104251E-1,-1.22351445E-1,-1.4794548E-1,1.0266149E-1,-1.1797036E-1,-5.919831E-2,-1.3292615E-1,9.562344E-2,1.17547825E-1,-1.3309021E-1,-1.2552164E-1,1.1539675E-1,1.4991674E-1,-1.217794E-1,-1.361536E-1,9.468406E-2,-1.3010886E-1,1.2538208E-1,-1.2901619E-1,6.974613E-2,-1.0458746E-1,1.2671106E-1],"categories":[],"categories_nodes":[],"categories_segments":[],"categories_sizes":[],"default_left":[0,0,0,0,0,0,0,0,0,0,0,0,0,0,0,0,0,0,0,0,0,0,0,0,0,0,0,0,0,0,0,0,0,0,0,0,0,0,0,0,0,0,0,0,0,0,0,0,0,0,0,0,0,0,0,0,0,0,0,0,0,0,0],"id":10,"left_children":[1,3,5,7,9,11,13,-1,-1,-1,15,17,19,21,23,25,-1,27,29,-1,31,33,35,37,39,41,43,45,47,49,51,-1,53,55,57,59,-1,-1,-1,61,-1,-1,-1,-1,-1,-1,-1,-1,-1,-1,-1,-1,-1,-1,-1,-1,-1,-1,-1,-1,-1,-1,-1],"loss_changes":[5.1752344E4,2.5497188E3,5.4415234E3,4.5140753E2,9.383633E2,2.03625E3,1.766169E3,0E0,0E0,0E0,7.6996484E2,1.2292031E3,8.0139734E2,1.55271E3,8.8496924E2,3.818672E2,0E0,8.1408203E2,1.3180635E3,0E0,3.6821277E2,4.4230664E2,9.384011E2,7.019043E-2,1.9878015E2,7.944531E1,1.1537002E3,4.766836E2,1.0645365E3,1.0274973E3,1.7402225E3,0E0,9.695056E1,3.378936E2,3.7963037E2,6.684004E2,0E0,0E0,0E0,1.3182404E1,0E0,0E0,0E0,0E0,0E0,0E0,0E0,0E0,0E0,0E0,0E0,0E0,0E0,0E0,0E0,0E0,0E0,0E0,0E0,0E0,0E0,0E0,0E0],"parents":[2147483647,0,0,1,1,2,2,3,3,4,4,5,5,6,6,10,10,11,11,12,12,13,13,14,14,15,15,17,17,18,18,20,20,21,21,22,22,23,23,24,24,25,25,26,26,27,27,28,28,29,29,30,30,32,32,33,33,34,34,35,35,39,39],"right_children":[2,4,6,8,10,12,14,-1,-1,-1,16,18,20,22,24,26,-1,28,30,-1,32,34,36,38,40,42,44,46,48,50,52,-1,54,56,58,60,-1,-1,-1,62,-1,-1,-1,-1,-1,-1,-1,-1,-1,-1,-1,-1,-1,-1,-1,-1,-1,-1,-1,-1,-1,-1,-1],"split_conditions":[1.8338056E-1,-5.100218E-1,-3.524314E-1,1.4251263E-1,-4.8857003E-1,-4.3865463E-1,3.2577562E-1,1.167922E-1,-1.300014E-1,-1.4014603E-1,9.843341E-1,2.7760905E-1,-7.9133004E-2,3.7441382E-1,5.8930373E-1,3.7148547E-1,-1.442843E-1,3.5366496E-1,2.4847028E-1,-1.3031344E-1,3.063599E-1,3.2922944E-1,-1.2047089E-1,5.6857854E-1,5.271046E-1,6.0723342E-2,9.5143795E-1,7.421126E-1,-4.6653107E-1,3.203813E-1,1.7808512E-1,-1.2811813E-1,-1.4396319E-1,8.0950505E-1,-5.816786E-1,-2.3275317E-1,-1.2746455E-1,-1.392744E-1,-1.2916578E-1,5.2217853E-1,-1.4409064E-1,1.2104251E-1,-1.22351445E-1,-1.4794548E-1,1.0266149E-1,-1.1797036E-1,-5.919831E-2,-1.3292615E-1,9.562344E-2,1.17547825E-1,-1.3309021E-1,-1.2552164E-1,1.1539675E-1,1.4991674E-1,-1.217794E-1,-1.361536E-1,9.468406E-2,-1.3010886E-1,1.2538208E-1,-1.2901619E-1,6.974613E-2,-1.0458746E-1,1.2671106E-1],"split_indices":[14,4,4,12,11,7,18,0,0,0,1,19,9,12,17,12,0,23,14,0,14,23,9,8,2,9,1,3,4,19,20,0,13,0,11,24,0,0,0,2,0,0,0,0,0,0,0,0,0,0,0,0,0,0,0,0,0,0,0,0,0,0,0],"split_type":[0,0,0,0,0,0,0,0,0,0,0,0,0,0,0,0,0,0,0,0,0,0,0,0,0,0,0,0,0,0,0,0,0,0,0,0,0,0,0,0,0,0,0,0,0,0,0,0,0,0,0,0,0,0,0,0,0,0,0,0,0,0,0],"sum_hessian":[5.7858527E4,2.5223428E4,3.2635102E4,5.964147E2,2.4627014E4,2.7549834E4,5.0852666E3,8.587092E1,5.105438E2,1.4273618E2,2.4484277E4,2.6794488E4,7.553458E2,3.8672588E3,1.2180077E3,2.43722E4,1.12078354E2,2.3723809E4,3.07068E3,1.657122E2,5.896336E2,2.2232268E3,1.6440319E3,9.904448E2,2.275629E2,2.2692105E4,1.6800941E3,2.2908219E4,8.155892E2,9.0190765E2,2.1687722E3,5.438495E1,5.3524866E2,2.5177638E2,1.9714504E3,1.0552328E3,5.8879913E2,2.2820546E2,7.622394E2,1.9627806E2,3.1284836E1,2.267944E4,1.2664942E1,2.0899658E2,1.4710975E3,2.1429896E4,1.4783221E3,3.85712E2,4.2987717E2,6.8837177E2,2.1353587E2,1.8102933E3,3.5847882E2,5.224851E2,1.2763547E1,1.2829807E2,1.2347833E2,5.9206833E1,1.9122437E3,2.1053517E2,8.446976E2,1.7896334E0,1.9448843E2],"tree_param":{"num_deleted":"0","num_feature":"30","num_nodes":"63","size_leaf_vector":"1"}},{"base_weights":[2.2395633E-2,1.0956484E0,-7.647004E-1,1.1865196E0,5.741331E-1,6.304211E-1,-8.2958037E-1,1.1882774E0,-1.1642366E-1,7.418925E-1,-8.388095E-1,1.132172E0,-6.6431516E-1,2.6699606E-1,-8.845003E-1,1.1894808E0,-2.1204762E-1,-1.2928556E-1,8.451888E-1,-1.4992927E0,2.4977425E-1,1.2690148E0,-1.1978196E-1,-1.2677447E-1,1.2036693E0,-1.284274E0,8.5880536E-1,-4.7666225E-1,-1.0378431E0,-9.709722E-2,1.1898837E0,-3.039064E-1,1.0005014E0,-1.4434993E0,-2.118785E-1,1.17855944E-1,-1.3278803E-1,1.3418554E0,-1.19419396E-1,1.23882964E-1,-7.2900884E-2,-1.4069025E-1,-1.2439829E-1,-1.424339E0,1.1303467E0,1.4393616E-1,-1.1362026E0,-1.1303494E0,-8.7020546E-2,1.1953034E-1,1.06234334E-1,-1.5671453E-1,1.1602008E-1,1.0488758E-1,-1.2754238E-1,-1.3243409E-1,-1.5370344E-1,1.382337E-1,-1.180185E-1,-1.5667224E-1,-1.2658885E-1,-1.2797864E-1,1.3180788E-1,-1.2690784E-1,4.5694005E-2,-1.2013505E-1,1.0322415E-1,-8.068227E-2,-1.2166683E-1,3.9016332E-2,-1.2602843E-1],"categories":[],"categories_nodes":[],"categories_segments":[],"categories_sizes":[],"default_left":[0,0,0,0,0,0,0,0,0,0,0,0,0,0,0,0,0,0,0,0,0,0,0,0,0,0,0,0,0,0,0,0,0,0,0,0,0,0,0,0,0,0,0,0,0,0,0,0,0,0,0,0,0,0,0,0,0,0,0,0,0,0,0,0,0,0,0,0,0,0,0],"id":11,"left_children":[1,3,5,7,9,11,13,15,-1,17,19,21,23,25,27,29,-1,-1,31,33,35,37,-1,-1,39,41,43,45,47,-1,49,51,53,55,-1,-1,-1,57,-1,-1,-1,-1,-1,59,61,63,65,67,69,-1,-1,-1,-1,-1,-1,-1,-1,-1,-1,-1,-1,-1,-1,-1,-1,-1,-1,-1,-1,-1,-1],"loss_changes":[4.5647367E4,1.0827773E3,2.8222598E3,8.1828125E1,8.0522144E2,9.010754E2,1.7942578E3,7.999219E1,0E0,6.3893555E2,2.5972913E2,3.201034E2,4.3854395E2,1.3061633E3,1.7736504E3,1.8080078E1,0E0,0E0,5.1584863E2,4.7062073E0,2.0241759E2,1.7102039E2,0E0,0E0,7.370682E0,1.9140625E-1,6.399218E2,3.1737825E3,1.8132305E3,0E0,1.2171875E1,6.393802E2,2.8153223E2,2.9632568E-1,0E0,0E0,0E0,9.531433E1,0E0,0E0,0E0,0E0,0E0,4.95636E-1,4.1827026E2,1.7677563E3,5.3226953E2,5.237031E2,1.0244788E3,0E0,0E0,0E0,0E0,0E0,0E0,0E0,0E0,0E0,0E0,0E0,0E0,0E0,0E0,0E0,0E0,0E0,0E0,0E0,0E0,0E0,0E0],"parents":[2147483647,0,0,1,1,2,2,3,3,4,4,5,5,6,6,7,7,9,9,10,10,11,11,12,12,13,13,14,14,15,15,18,18,19,19,20,20,21,21,24,24,25,25,26,26,27,27,28,28,30,30,31,31,32,32,33,33,37,37,43,43,44,44,45,45,46,46,47,47,48,48],"right_children":[2,4,6,8,10,12,14,16,-1,18,20,22,24,26,28,30,-1,-1,32,34,36,38,-1,-1,40,42,44,46,48,-1,50,52,54,56,-1,-1,-1,58,-1,-1,-1,-1,-1,60,62,64,66,68,70,-1,-1,-1,-1,-1,-1,-1,-1,-1,-1,-1,-1,-1,-1,-1,-1,-1,-1,-1,-1,-1,-1],"split_conditions":[1.7161702E-1,4.807892E-2,5.632989E-1,6.6887164E-1,5.4844326E-1,-1.2535812E-1,-9.9994004E-1,9.6394545E-1,-1.1642366E-1,-4.8857003E-1,9.8174125E-1,-5.83123E-2,2.4428564E-1,-3.7251222E-1,2.614693E-1,3.6511403E-1,-2.1204762E-1,-1.2928556E-1,-4.9758992E-1,9.664625E-1,9.820734E-1,3.6618266E-1,-1.1978196E-1,-1.2677447E-1,-3.2676855E-1,2.5036547E-1,4.919058E-3,-1.0398629E-1,-4.5368022E-1,-9.709722E-2,-4.627913E-1,1.9245844E-1,7.014252E-1,4.2777616E-1,-2.118785E-1,1.17855944E-1,-1.3278803E-1,-1.4028202E-1,-1.19419396E-1,1.23882964E-1,-7.2900884E-2,-1.4069025E-1,-1.2439829E-1,2.3775056E-1,3.2743892E-1,5.201179E-1,1.8689862E-1,-9.997011E-1,-3.7228668E-1,1.1953034E-1,1.06234334E-1,-1.5671453E-1,1.1602008E-1,1.0488758E-1,-1.2754238E-1,-1.3243409E-1,-1.5370344E-1,1.382337E-1,-1.180185E-1,-1.5667224E-1,-1.2658885E-1,-1.2797864E-1,1.3180788E-1,-1.2690784E-1,4.5694005E-2,-1.2013505E-1,1.0322415E-1,-8.068227E-2,-1.2166683E-1,3.9016332E-2,-1.2602843E-1],"split_indices":[14,14,3,3,5,16,29,1,0,11,1,24,26,28,14,2,0,0,6,1,1,14,0,0,13,14,22,0,7,0,7,19,3,18,0,0,0,27,0,0,0,0,0,14,23,2,22,29,28,0,0,0,0,0,0,0,0,0,0,0,0,0,0,0,0,0,0,0,0,0,0],"split_type":[0,0,0,0,0,0,0,0,0,0,0,0,0,0,0,0,0,0,0,0,0,0,0,0,0,0,0,0,0,0,0,0,0,0,0,0,0,0,0,0,0,0,0,0,0,0,0,0,0,0,0,0,0,0,0,0,0,0,0,0,0,0,0,0,0,0,0,0,0,0,0],"sum_hessian":[5.403435E4,2.286126E4,3.1173092E4,1.946782E4,3.3934395E3,1.3848906E3,2.9788201E4,1.945377E4,1.4051595E1,3.0337192E3,3.597202E2,9.9818726E2,3.867033E2,1.4205477E3,2.8367654E4,1.9447336E4,6.432861E0,1.4601303E2,2.8877063E3,2.2364775E2,1.3607248E2,9.432449E2,5.494238E1,2.9252728E2,9.4176025E1,3.9195978E2,1.028588E3,7.752589E3,2.0615066E4,3.1763992E0,1.944416E4,3.4371805E2,2.543988E3,2.0822455E2,1.54232E1,8.580875E1,5.026373E1,9.165951E2,2.66498E1,9.284593E1,1.3300916E0,8.8545944E1,3.0341385E2,1.0887891E2,9.197091E2,3.9946143E3,3.7579744E3,1.8787068E4,1.8279973E3,1.8643541E4,8.006186E2,1.8447862E2,1.5923943E2,2.4915693E3,5.2418743E1,9.823604E1,1.0998851E2,9.0255994E2,1.40351925E1,5.266577E1,5.6213135E1,6.604148E1,8.536676E2,7.238472E2,3.270767E3,3.6487974E3,1.0917718E2,3.9589814E3,1.4828087E4,1.2999541E3,5.280432E2],"tree_param":{"num_deleted":"0","num_feature":"30","num_nodes":"71","size_leaf_vector":"1"}},{"base_weights":[4.675159E-2,1.0714645E0,-6.9913566E-1,1.1658605E0,3.865519E-1,-9.113452E-1,1.6198589E-1,1.1710365E0,-1.285227E-1,-8.8298935E-1,6.6352475E-1,-9.559825E-1,5.92704E-1,4.2495087E-1,-1.23425536E-1,1.1714759E0,-1.5081371E-1,1.1709936E0,-1.4430467E0,8.421958E-1,-1.2709723E-1,-2.5698343E-1,-1.0628014E0,1.0982939E0,-1.24318175E-1,7.9368216E-1,-3.210291E-1,1.171747E0,-9.442719E-2,1.2599313E-1,-1.4187516E-1,-1.3380574E-1,-1.594525E0,-1.6490813E0,9.399456E-1,-9.8580843E-1,5.3045326E-1,-1.0787373E0,4.7466826E-1,-1.2419132E-1,1.3104483E0,1.0018927E0,-1.2515633E0,-1.2454633E-1,3.8077253E-1,-8.113085E-2,1.1719369E-1,-2.1761298E-1,-1.532863E-1,-1.2505731E-1,-1.8256214E-1,-1.5882768E-1,1.0041159E-1,-1.2510319E-1,6.316774E-2,9.499471E-2,-1.3608514E-1,-1.0962367E-1,1.1747218E-2,1.4747041E-1,-1.2093069E-1,1.3837367E-1,-1.2589392E-1,1.08126E-1,-1.2493751E-1,-1.2145217E-1,-1.4100543E-1,-1.2547718E-1,1.0107803E-1],"categories":[],"categories_nodes":[],"categories_segments":[],"categories_sizes":[],"default_left":[0,0,0,0,0,0,0,0,0,0,0,0,0,0,0,0,0,0,0,0,0,0,0,0,0,0,0,0,0,0,0,0,0,0,0,0,0,0,0,0,0,0,0,0,0,0,0,0,0,0,0,0,0,0,0,0,0,0,0,0,0,0,0,0,0,0,0,0,0],"id":12,"left_children":[1,3,5,7,9,11,13,15,-1,17,19,21,23,25,-1,27,-1,29,31,33,-1,35,37,39,-1,41,43,45,-1,-1,-1,-1,47,49,51,53,55,57,59,-1,61,63,65,-1,67,-1,-1,-1,-1,-1,-1,-1,-1,-1,-1,-1,-1,-1,-1,-1,-1,-1,-1,-1,-1,-1,-1,-1,-1],"loss_changes":[3.917511E4,1.3955176E3,5.4207373E3,2.4225E2,9.20746E2,1.5983223E3,2.1541467E3,2.405664E1,0E0,5.413115E2,7.437645E2,1.7254883E3,6.386304E2,1.3581738E3,0E0,1.1966797E1,0E0,2.5063202E1,3.7354736E0,4.8072302E2,0E0,1.7596326E3,4.9172852E2,2.691537E2,0E0,1.4082324E3,1.0603717E3,8.082031E0,0E0,0E0,0E0,0E0,1.8951111E0,2.9690247E0,3.0887537E2,6.838257E2,1.1707428E3,4.1551367E2,3.4931592E2,0E0,9.486676E1,5.3725195E2,8.230591E-2,0E0,9.589744E2,0E0,0E0,0E0,0E0,0E0,0E0,0E0,0E0,0E0,0E0,0E0,0E0,0E0,0E0,0E0,0E0,0E0,0E0,0E0,0E0,0E0,0E0,0E0,0E0],"parents":[2147483647,0,0,1,1,2,2,3,3,4,4,5,5,6,6,7,7,9,9,10,10,11,11,12,12,13,13,15,15,17,17,18,18,19,19,21,21,22,22,23,23,25,25,26,26,27,27,32,32,33,33,34,34,35,35,36,36,37,37,38,38,40,40,41,41,42,42,44,44],"right_children":[2,4,6,8,10,12,14,16,-1,18,20,22,24,26,-1,28,-1,30,32,34,-1,36,38,40,-1,42,44,46,-1,-1,-1,-1,48,50,52,54,56,58,60,-1,62,64,66,-1,68,-1,-1,-1,-1,-1,-1,-1,-1,-1,-1,-1,-1,-1,-1,-1,-1,-1,-1,-1,-1,-1,-1,-1,-1],"split_conditions":[1.7161702E-1,4.807892E-2,-3.7238738E-1,6.0016014E-2,-9.9945587E-1,-4.3865463E-1,7.19125E-1,9.8318845E-1,-1.285227E-1,-5.9536636E-1,6.6887164E-1,2.2986476E-1,-2.5813493E-1,3.0163512E-1,-1.23425536E-1,6.6887164E-1,-1.5081371E-1,-3.9733317E-1,-4.2395315E-1,-3.8952124E-1,-1.2709723E-1,-2.8455526E-1,1.8689862E-1,-2.923685E-1,-1.24318175E-1,9.57192E-1,-2.4426004E-1,-9.5636374E-1,-9.442719E-2,1.2599313E-1,-1.4187516E-1,-1.3380574E-1,-5.597227E-2,-4.629333E-1,-2.840437E-2,3.1106237E-1,-3.72117E-1,5.0943047E-1,-9.999416E-1,-1.2419132E-1,-4.5895478E-1,-1.2619941E-2,4.9517787E-1,-1.2454633E-1,4.6890765E-1,-8.113085E-2,1.1719369E-1,-2.1761298E-1,-1.532863E-1,-1.2505731E-1,-1.8256214E-1,-1.5882768E-1,1.0041159E-1,-1.2510319E-1,6.316774E-2,9.499471E-2,-1.3608514E-1,-1.0962367E-1,1.1747218E-2,1.4747041E-1,-1.2093069E-1,1.3837367E-1,-1.2589392E-1,1.08126E-1,-1.2493751E-1,-1.2145217E-1,-1.4100543E-1,-1.2547718E-1,1.0107803E-1],"split_indices":[14,14,4,10,29,7,3,1,0,15,3,14,26,14,0,3,0,13,4,24,0,15,22,15,0,1,4,0,0,0,0,0,10,4,22,19,28,19,29,0,6,9,17,0,17,0,0,0,0,0,0,0,0,0,0,0,0,0,0,0,0,0,0,0,0,0,0,0,0],"split_type":[0,0,0,0,0,0,0,0,0,0,0,0,0,0,0,0,0,0,0,0,0,0,0,0,0,0,0,0,0,0,0,0,0,0,0,0,0,0,0,0,0,0,0,0,0,0,0,0,0,0,0,0,0,0,0,0,0,0,0,0,0,0,0,0,0,0,0,0,0],"sum_hessian":[5.125285E4,2.1590715E4,2.9662139E4,1.8974861E4,2.615853E3,2.3797555E4,5.8645825E3,1.8935396E4,3.9463696E1,4.680942E2,2.1477588E3,2.3112E4,6.85556E2,4.935699E3,9.2888306E2,1.8932855E4,2.542264E0,1.00055336E2,3.6803885E2,1.96668E3,1.8107889E2,3.0641658E3,2.0047834E4,5.378404E2,1.4771568E2,3.3029944E3,1.6327047E3,1.8930875E4,1.979472E0,9.722974E1,2.825598E0,2.231837E2,1.4485516E2,7.365361E1,1.8930264E3,1.5911753E3,1.4729905E3,1.9842465E4,2.0536888E2,4.4302273E1,4.935381E2,2.9982737E3,3.047208E2,7.0425903E2,9.2844574E2,1.4042764E0,1.892947E4,1.0598414E1,1.3425674E2,2.5093412E1,4.8560196E1,4.6270733E1,1.8467556E3,1.3672158E3,2.2395949E2,1.2059967E3,2.669939E2,1.9556453E4,2.8601093E2,1.2892844E2,7.6440445E1,4.8029962E2,1.3238478E1,2.8966726E3,1.0160098E2,2.5401643E2,5.070435E1,2.5790768E2,6.705381E2],"tree_param":{"num_deleted":"0","num_feature":"30","num_nodes":"69","size_leaf_vector":"1"}},{"base_weights":[2.7436787E-2,1.0495303E0,-6.724737E-1,1.1504624E0,5.5670804E-1,-1.8415097E-2,-7.844485E-1,1.1512177E0,-1.0253348E-1,-7.6005125E-1,7.4433106E-1,4.5581847E-1,-9.0250224E-1,-2.1451023E-1,-9.5968235E-1,-1.0757219E-1,1.151527E0,1.0670848E0,-1.3600901E0,8.607284E-1,-1.3621353E-1,5.78262E-1,-1.2457186E-1,7.1770924E-1,-1.21394195E-1,1.3665359E-1,-9.460137E-1,-1.0571607E0,-1.9843206E-1,1.1539348E0,1.0469942E0,1.23427704E-1,-1.1428346E-1,-1.2698098E-1,-1.5182871E0,-1.245844E-1,9.2522854E-1,1.4393903E0,3.4173378E-1,1.2012838E0,-1.2374567E-1,-5.878812E-1,6.688872E-1,1.3372952E0,-1.19567834E-1,-3.668015E-2,-1.0975753E0,-8.375759E-1,9.206284E-1,1.15116395E-1,1.20803714E-1,1.1484583E-1,-1.7941491E-1,-1.384015E-1,-1.733046E-1,-2.1506468E-2,1.0163041E-1,1.5653098E-1,-1.2103226E-1,-1.2315525E-1,6.1644103E-2,1.2361784E-1,-9.603263E-2,1.3853E-1,-8.4556855E-2,-2.4931416E-2,1.11409E-1,-1.2158455E-1,1.9119765E-1,-7.3624186E-2,1.7677203E-1,-7.630871E-2,-1.1837757E-1,-1.2045097E-1,1.2867163E-1,1.4720479E-1,-1.24875605E-1],"categories":[],"categories_nodes":[],"categories_segments":[],"categories_sizes":[],"default_left":[0,0,0,0,0,0,0,0,0,0,0,0,0,0,0,0,0,0,0,0,0,0,0,0,0,0,0,0,0,0,0,0,0,0,0,0,0,0,0,0,0,0,0,0,0,0,0,0,0,0,0,0,0,0,0,0,0,0,0,0,0,0,0,0,0,0,0,0,0,0,0,0,0,0,0,0,0],"id":13,"left_children":[1,3,5,7,9,11,13,15,-1,17,19,21,23,25,27,-1,29,31,33,35,-1,37,-1,39,-1,41,43,45,47,49,51,-1,-1,-1,53,-1,55,57,59,61,-1,63,65,67,-1,69,71,73,75,-1,-1,-1,-1,-1,-1,-1,-1,-1,-1,-1,-1,-1,-1,-1,-1,-1,-1,-1,-1,-1,-1,-1,-1,-1,-1,-1,-1],"loss_changes":[3.3573844E4,9.4820703E2,2.0401328E3,2.7197266E1,8.021526E2,1.7080419E3,2.375207E3,1.2142578E1,0E0,4.456395E2,6.9760815E2,5.531606E2,7.185741E2,1.4372086E3,1.349668E3,0E0,2.7753906E0,3.862491E1,2.434204E0,3.6696765E2,0E0,5.034729E2,0E0,2.188967E2,0E0,1.4583274E3,1.0360773E3,6.6502734E2,1.4785902E3,9.2578125E-1,1.0788513E2,0E0,0E0,0E0,6.540985E-1,0E0,2.715752E2,1.7968298E2,8.4026135E2,1.5130859E1,0E0,8.1555273E2,8.914661E2,2.6545584E2,0E0,7.7804614E2,4.4633984E2,1.027032E3,9.009057E2,0E0,0E0,0E0,0E0,0E0,0E0,0E0,0E0,0E0,0E0,0E0,0E0,0E0,0E0,0E0,0E0,0E0,0E0,0E0,0E0,0E0,0E0,0E0,0E0,0E0,0E0,0E0,0E0],"parents":[2147483647,0,0,1,1,2,2,3,3,4,4,5,5,6,6,7,7,9,9,10,10,11,11,12,12,13,13,14,14,16,16,17,17,18,18,19,19,21,21,23,23,25,25,26,26,27,27,28,28,29,29,30,30,34,34,36,36,37,37,38,38,39,39,41,41,42,42,43,43,45,45,46,46,47,47,48,48],"right_children":[2,4,6,8,10,12,14,16,-1,18,20,22,24,26,28,-1,30,32,34,36,-1,38,-1,40,-1,42,44,46,48,50,52,-1,-1,-1,54,-1,56,58,60,62,-1,64,66,68,-1,70,72,74,76,-1,-1,-1,-1,-1,-1,-1,-1,-1,-1,-1,-1,-1,-1,-1,-1,-1,-1,-1,-1,-1,-1,-1,-1,-1,-1,-1,-1],"split_conditions":[1.7161702E-1,2.4874686E-1,5.604518E-1,6.2987424E-2,-1.67992E-1,-1.2420462E-1,2.5687534E-2,-4.239749E-1,-1.0253348E-1,5.004668E-1,-2.0456453E-1,3.641895E-1,1.9616437E-1,5.755985E-1,3.070937E-1,-1.0757219E-1,5.8930373E-1,-1.848463E-1,4.4316947E-1,2.9917276E-1,-1.3621353E-1,-3.8877332E-1,-1.2457186E-1,2.474772E-1,-1.21394195E-1,5.432194E-1,-6.966539E-1,-4.2440698E-2,3.3972463E-1,-4.2440698E-2,-6.6346824E-2,1.23427704E-1,-1.1428346E-1,-1.2698098E-1,-3.7441745E-1,-1.245844E-1,1.3355918E-1,1.3297997E-1,1.4340645E-2,2.7587756E-3,-1.2374567E-1,-2.3829004E-1,-4.1304067E-1,3.796617E-1,-1.19567834E-1,1.0496022E-1,-3.5360065E-1,5.0990933E-1,-5.387417E-1,1.15116395E-1,1.20803714E-1,1.1484583E-1,-1.7941491E-1,-1.384015E-1,-1.733046E-1,-2.1506468E-2,1.0163041E-1,1.5653098E-1,-1.2103226E-1,-1.2315525E-1,6.1644103E-2,1.2361784E-1,-9.603263E-2,1.3853E-1,-8.4556855E-2,-2.4931416E-2,1.11409E-1,-1.2158455E-1,1.9119765E-1,-7.3624186E-2,1.7677203E-1,-7.630871E-2,-1.1837757E-1,-1.2045097E-1,1.2867163E-1,1.4720479E-1,-1.24875605E-1],"split_indices":[14,12,8,10,27,13,19,11,0,5,15,14,12,8,19,0,17,16,18,18,0,13,0,14,0,2,15,10,23,10,10,0,0,0,28,0,25,25,22,10,0,16,11,14,0,22,24,12,11,0,0,0,0,0,0,0,0,0,0,0,0,0,0,0,0,0,0,0,0,0,0,0,0,0,0,0,0],"split_type":[0,0,0,0,0,0,0,0,0,0,0,0,0,0,0,0,0,0,0,0,0,0,0,0,0,0,0,0,0,0,0,0,0,0,0,0,0,0,0,0,0,0,0,0,0,0,0,0,0,0,0,0,0,0,0,0,0,0,0,0,0,0,0,0,0,0,0,0,0,0,0,0,0,0,0,0,0],"sum_hessian":[4.692989E4,1.9074506E4,2.7855387E4,1.5830928E4,3.2435776E3,4.071926E3,2.378346E4,1.5825905E4,5.022648E0,4.041508E2,2.8394268E3,2.6506006E3,1.4213254E3,5.593414E3,1.8190047E4,1.7151704E0,1.5824189E4,9.9720505E1,3.0443027E2,2.6913044E3,1.4812242E2,2.4732822E3,1.7731856E2,2.2894965E2,1.1923757E3,3.779736E3,1.813678E3,1.6124861E4,2.0651843E3,1.5458093E4,3.6609753E2,9.311718E1,6.6033278E0,1.995673E2,1.04862976E2,7.9411575E1,2.6118928E3,5.3185864E2,1.9414235E3,1.8386066E2,4.508899E1,1.6006505E3,2.1790857E3,1.7833731E2,1.6353407E3,6.143459E2,1.5510516E4,1.3146069E3,7.505774E2,1.4726165E4,7.319274E2,3.5404935E2,1.2048181E1,6.9102844E1,3.5760136E1,1.9308247E2,2.4188103E3,5.0812103E2,2.3737637E1,2.88078E2,1.6533455E3,1.813611E2,2.4995642E0,1.843855E2,1.416265E3,7.116972E2,1.4673884E3,3.2561295E1,1.4577602E2,4.4313538E2,1.7121054E2,3.1801702E3,1.2330346E4,1.1213472E3,1.9325983E2,5.987158E2,1.5186159E2],"tree_param":{"num_deleted":"0","num_feature":"30","num_nodes":"77","size_leaf_vector":"1"}},{"base_weights":[5.4738358E-2,1.037388E0,-6.713045E-1,1.1308895E0,5.0114655E-1,5.6347173E-1,-7.351683E-1,-1.2435752E-1,1.1333671E0,-1.3217716E0,7.0256716E-1,9.242428E-1,-1.1692067E-1,-1.4505215E-1,-8.556637E-1,1.1345912E0,-1.0637442E-1,-1.2459643E-1,-1.4637213E0,8.5786325E-1,-5.235414E-1,1.0826648E0,-1.2431711E-1,4.0265238E-1,-7.471731E-1,-8.8592815E-1,4.521894E-1,1.1349069E0,-1.1507787E-1,-1.5204179E0,-1.1115058E-1,-1.2500699E-1,9.146067E-1,1.1653739E0,-1.3147675E-1,1.1781119E0,-1.1582877E-1,8.215465E-1,-1.2480109E-1,-9.623358E-1,1.7646242E0,3.92896E-1,-9.125803E-1,1.1898118E0,-1.1800387E-1,1.1351333E-1,-1.04711294E-1,-1.4102148E-1,-1.8463908E-1,9.516165E-2,-1.323131E-1,-9.991666E-2,1.22288525E-1,-1.1323356E-1,1.2339615E-1,1.0964566E-1,-1.2296344E-1,-1.2148338E-1,1.4783028E-1,-1.09576E-1,1.9755316E-1,1.2808184E-1,-1.220413E-1,-5.6149215E-2,-1.0085861E-1,1.2833984E-1,-1.1972467E-1],"categories":[],"categories_nodes":[],"categories_segments":[],"categories_sizes":[],"default_left":[0,0,0,0,0,0,0,0,0,0,0,0,0,0,0,0,0,0,0,0,0,0,0,0,0,0,0,0,0,0,0,0,0,0,0,0,0,0,0,0,0,0,0,0,0,0,0,0,0,0,0,0,0,0,0,0,0,0,0,0,0,0,0,0,0,0,0],"id":14,"left_children":[1,3,5,7,9,11,13,-1,15,17,19,21,-1,23,25,27,-1,-1,29,31,33,35,-1,37,39,41,43,45,-1,47,-1,-1,49,51,-1,53,-1,55,-1,57,59,61,63,65,-1,-1,-1,-1,-1,-1,-1,-1,-1,-1,-1,-1,-1,-1,-1,-1,-1,-1,-1,-1,-1,-1,-1],"loss_changes":[3.2019246E4,9.55584E2,2.0357129E3,9.693164E1,1.0412087E3,7.948507E2,1.7448984E3,0E0,4.4835938E1,1.213501E0,4.8636816E2,3.6241382E2,0E0,1.3730361E3,8.0705176E2,1.3E1,0E0,0E0,1.5794373E-1,2.7211707E2,3.8573596E2,2.1107788E2,0E0,1.508676E3,1.0734628E3,6.792627E2,5.571426E2,9.199219E0,0E0,1.6189575E-1,0E0,0E0,1.840094E2,1.2706001E1,0E0,1.2280908E2,0E0,9.8233716E2,0E0,1.1278748E3,9.677319E1,5.8509814E2,6.571338E2,7.266965E1,0E0,0E0,0E0,0E0,0E0,0E0,0E0,0E0,0E0,0E0,0E0,0E0,0E0,0E0,0E0,0E0,0E0,0E0,0E0,0E0,0E0,0E0,0E0],"parents":[2147483647,0,0,1,1,2,2,3,3,4,4,5,5,6,6,8,8,9,9,10,10,11,11,13,13,14,14,15,15,18,18,19,19,20,20,21,21,23,23,24,24,25,25,26,26,27,27,29,29,32,32,33,33,35,35,37,37,39,39,40,40,41,41,42,42,43,43],"right_children":[2,4,6,8,10,12,14,-1,16,18,20,22,-1,24,26,28,-1,-1,30,32,34,36,-1,38,40,42,44,46,-1,48,-1,-1,50,52,-1,54,-1,56,-1,58,60,62,64,66,-1,-1,-1,-1,-1,-1,-1,-1,-1,-1,-1,-1,-1,-1,-1,-1,-1,-1,-1,-1,-1,-1,-1],"split_conditions":[1.7161702E-1,3.0077234E-1,2.0629928E-1,-4.1428292E-1,-1.67992E-1,-1.2619941E-2,2.3775056E-1,-1.2435752E-1,6.2987424E-2,4.4871753E-1,-1.6269821E-1,5.420558E-1,-1.1692067E-1,-1.4396319E-1,1.6921599E-1,3.04925E-1,-1.0637442E-1,-1.2459643E-1,9.843341E-1,3.1090197E-1,2.6307592E-1,3.9488807E-1,-1.2431711E-1,3.2973143E-1,2.4428564E-1,4.144613E-1,1.3942654E-1,6.881544E-1,-1.1507787E-1,9.361711E-1,-1.1115058E-1,-1.2500699E-1,-5.6832884E-2,8.1443334E-1,-1.3147675E-1,-4.1304067E-1,-1.1582877E-1,-4.7001094E-1,-1.2480109E-1,-1.2773816E-1,5.0990933E-1,-5.9314543E-1,2.5687534E-2,3.3653823E-1,-1.1800387E-1,1.1351333E-1,-1.04711294E-1,-1.4102148E-1,-1.8463908E-1,9.516165E-2,-1.323131E-1,-9.991666E-2,1.22288525E-1,-1.1323356E-1,1.2339615E-1,1.0964566E-1,-1.2296344E-1,-1.2148338E-1,1.4783028E-1,-1.09576E-1,1.9755316E-1,1.2808184E-1,-1.220413E-1,-5.6149215E-2,-1.0085861E-1,1.2833984E-1,-1.1972467E-1],"split_indices":[14,12,12,11,27,9,14,0,10,18,27,5,0,13,22,13,0,0,1,18,23,14,0,23,26,2,20,3,0,1,0,0,26,1,0,11,0,6,0,27,12,11,19,23,0,0,0,0,0,0,0,0,0,0,0,0,0,0,0,0,0,0,0,0,0,0,0],"split_type":[0,0,0,0,0,0,0,0,0,0,0,0,0,0,0,0,0,0,0,0,0,0,0,0,0,0,0,0,0,0,0,0,0,0,0,0,0,0,0,0,0,0,0,0,0,0,0,0,0,0,0,0,0,0,0,0,0,0,0,0,0,0,0,0,0,0,0],"sum_hessian":[4.487774E4,1.906888E4,2.580886E4,1.6236668E4,2.8322131E3,1.2688284E3,2.4540031E4,1.6401419E1,1.6220267E4,2.812502E2,2.550963E3,1.0505532E3,2.1827522E2,4.1615234E3,2.0378508E4,1.6211717E4,8.54897E0,1.897128E2,9.1537415E1,2.264453E3,2.865101E2,9.7946216E2,7.109103E1,2.179409E3,1.9821146E3,1.9917918E4,4.6058914E2,1.6209981E4,1.7353399E0,7.5988686E1,1.5548728E1,5.8807625E1,2.2056453E3,9.1252914E1,1.952572E2,9.399039E2,3.955827E1,1.7386807E3,4.4072824E2,1.8262899E3,1.558247E2,4.0635617E2,1.9511562E4,3.174162E2,1.4317293E2,1.6208779E4,1.2021157E0,6.077003E1,1.5218655E1,2.1703252E3,3.532009E1,1.938035E0,8.931488E1,2.1728764E1,9.181751E2,1.5336045E3,2.0507626E2,1.6555193E3,1.7077068E2,1.0412462E1,1.4541225E2,2.6223505E2,1.4412112E2,4.191246E3,1.5320315E4,3.0588605E2,1.1530168E1],"tree_param":{"num_deleted":"0","num_feature":"30","num_nodes":"67","size_leaf_vector":"1"}},{"base_weights":[5.3891327E-2,9.932581E-1,-6.3849556E-1,1.1178527E0,4.2797852E-1,-8.782394E-1,2.8997421E-2,1.119987E0,-1.7073134E-1,2.4953693E-2,9.980144E-1,-4.289148E-1,-1.0393758E0,7.568635E-1,-5.495471E-1,1.1206739E0,-9.659818E-2,4.3270987E-1,-1.0237331E0,-1.5064592E0,1.1054153E0,-1.1858838E-1,-1.0467641E-1,-1.1096812E0,-2.1808542E-1,1.0790777E0,-1.2424139E-2,-8.702869E-1,4.3334883E-1,1.1212573E-1,9.6279895E-1,8.5423577E-1,-1.2778497E-1,1.0859988E0,-1.3672367E0,-1.283616E-1,-1.8797158E-1,1.1434987E0,-1.900032E-1,5.710359E-1,-1.1920207E-1,-1.1409336E0,-1.5111317E-2,1.4850347E0,-8.5013694E-1,1.21001E0,-1.18504874E-1,1.0596215E0,-7.117137E-1,-1.1833887E0,2.2448781E-1,-1.1959274E-1,1.203814E0,-1.3821836E-1,1.1053226E-1,-1.2055764E-1,1.0239305E-1,-9.2341885E-2,1.1539193E-1,-1.239958E-1,-1.5058492E-1,-1.477535E-1,1.1680225E-1,-1.1668288E-1,9.6250966E-2,-1.1389667E-1,-1.2430628E-1,1.4431186E-1,-1.1554181E-1,1.8781713E-1,-1.1496999E-1,-1.17019E-1,1.0497631E-1,-1.2500457E-1,1.261565E-1,-1.26106E-1,1.5829949E-1,1.16985194E-1,-1.1848318E-1,-1.2887396E-1,-1.1686897E-1,9.5823996E-2,-1.196739E-1,1.4201774E-1,-1.19437136E-1],"categories":[],"categories_nodes":[],"categories_segments":[],"categories_sizes":[],"default_left":[0,0,0,0,0,0,0,0,0,0,0,0,0,0,0,0,0,0,0,0,0,0,0,0,0,0,0,0,0,0,0,0,0,0,0,0,0,0,0,0,0,0,0,0,0,0,0,0,0,0,0,0,0,0,0,0,0,0,0,0,0,0,0,0,0,0,0,0,0,0,0,0,0,0,0,0,0,0,0,0,0,0,0,0,0],"id":15,"left_children":[1,3,5,7,9,11,13,15,-1,17,19,21,23,25,27,29,-1,31,33,35,37,-1,39,41,43,45,47,49,51,-1,53,55,-1,57,59,-1,-1,61,-1,63,-1,65,67,69,71,73,-1,75,77,79,81,-1,83,-1,-1,-1,-1,-1,-1,-1,-1,-1,-1,-1,-1,-1,-1,-1,-1,-1,-1,-1,-1,-1,-1,-1,-1,-1,-1,-1,-1,-1,-1,-1,-1],"loss_changes":[2.7354846E4,1.2564375E3,3.8746143E3,9.008203E1,7.408167E2,1.2893262E3,2.6951274E3,2.2017578E1,0E0,8.086744E2,3.6091736E2,1.1543757E3,7.568047E2,7.025668E2,1.1245339E3,2.6757812E-1,0E0,9.829038E2,3.8519098E2,2.1904755E0,1.4882141E2,0E0,2.4211191E3,4.1311035E2,1.1155035E3,5.936223E2,6.287387E2,9.2194885E2,1.1035911E3,0E0,2.1866459E1,3.832965E2,0E0,1.1259811E1,6.173828E0,0E0,0E0,8.30918E1,0E0,1.3838264E3,0E0,9.433594E-1,5.6081714E2,2.92735E2,4.606656E2,2.4114307E2,0E0,4.0414764E2,4.53234E2,1.7319336E0,6.256221E2,0E0,3.112619E2,0E0,0E0,0E0,0E0,0E0,0E0,0E0,0E0,0E0,0E0,0E0,0E0,0E0,0E0,0E0,0E0,0E0,0E0,0E0,0E0,0E0,0E0,0E0,0E0,0E0,0E0,0E0,0E0,0E0,0E0,0E0,0E0],"parents":[2147483647,0,0,1,1,2,2,3,3,4,4,5,5,6,6,7,7,9,9,10,10,11,11,12,12,13,13,14,14,15,15,17,17,18,18,19,19,20,20,22,22,23,23,24,24,25,25,26,26,27,27,28,28,30,30,31,31,33,33,34,34,37,37,39,39,41,41,42,42,43,43,44,44,45,45,47,47,48,48,49,49,50,50,52,52],"right_children":[2,4,6,8,10,12,14,16,-1,18,20,22,24,26,28,30,-1,32,34,36,38,-1,40,42,44,46,48,50,52,-1,54,56,-1,58,60,-1,-1,62,-1,64,-1,66,68,70,72,74,-1,76,78,80,82,-1,84,-1,-1,-1,-1,-1,-1,-1,-1,-1,-1,-1,-1,-1,-1,-1,-1,-1,-1,-1,-1,-1,-1,-1,-1,-1,-1,-1,-1,-1,-1,-1,-1],"split_conditions":[1.8338056E-1,2.4874686E-1,-3.9422485E-1,1.4444602E-1,-3.2760656E-1,2.5856563E-1,3.6614177E-1,6.0723342E-2,-1.7073134E-1,-1.662297E-1,4.403577E-1,-3.747846E-1,-9.733628E-1,3.1079292E-1,9.1596924E-2,1.14789814E-1,-9.659818E-2,-1.8774618E-1,-2.0149408E-1,9.5376676E-1,-9.986026E-1,-1.1858838E-1,-3.72117E-1,5.4402125E-1,-3.3576933E-1,7.19125E-1,1.5297775E-1,-4.589672E-1,-3.7430033E-1,1.1212573E-1,5.932531E-1,5.1463926E-1,-1.2778497E-1,5.527737E-1,-4.535589E-1,-1.283616E-1,-1.8797158E-1,-6.143781E-2,-1.900032E-1,-4.8718572E-1,-1.1920207E-1,3.5366496E-1,-6.082075E-1,4.2966148E-1,1.6921599E-1,-6.1230433E-1,-1.18504874E-1,1.526567E-1,8.540252E-2,2.3775056E-1,1.0719668E-1,-1.1959274E-1,-9.964307E-1,-1.3821836E-1,1.1053226E-1,-1.2055764E-1,1.0239305E-1,-9.2341885E-2,1.1539193E-1,-1.239958E-1,-1.5058492E-1,-1.477535E-1,1.1680225E-1,-1.1668288E-1,9.6250966E-2,-1.1389667E-1,-1.2430628E-1,1.4431186E-1,-1.1554181E-1,1.8781713E-1,-1.1496999E-1,-1.17019E-1,1.0497631E-1,-1.2500457E-1,1.261565E-1,-1.26106E-1,1.5829949E-1,1.16985194E-1,-1.1848318E-1,-1.2887396E-1,-1.1686897E-1,9.5823996E-2,-1.196739E-1,1.4201774E-1,-1.19437136E-1],"split_indices":[14,12,4,14,4,14,12,9,0,27,18,28,29,14,22,14,0,26,9,1,29,0,28,17,13,3,20,7,11,0,2,17,0,2,4,0,0,22,0,11,0,23,24,17,22,11,0,20,21,14,25,0,29,0,0,0,0,0,0,0,0,0,0,0,0,0,0,0,0,0,0,0,0,0,0,0,0,0,0,0,0,0,0,0,0],"split_type":[0,0,0,0,0,0,0,0,0,0,0,0,0,0,0,0,0,0,0,0,0,0,0,0,0,0,0,0,0,0,0,0,0,0,0,0,0,0,0,0,0,0,0,0,0,0,0,0,0,0,0,0,0,0,0,0,0,0,0,0,0,0,0,0,0,0,0,0,0,0,0,0,0,0,0,0,0,0,0,0,0,0,0,0,0],"sum_hessian":[4.205618E4,1.7845123E4,2.4211055E4,1.4621408E4,3.2237156E3,1.7812879E4,6.398177E3,1.4610974E4,1.043452E1,1.8891201E3,1.3345955E3,4.7028276E3,1.3110051E4,2.8332988E3,3.564878E3,1.4606627E4,4.347118E0,1.3606515E3,5.284686E2,5.4343227E1,1.2802522E3,1.4095127E3,3.2933147E3,1.2075953E4,1.0340978E3,1.9966177E3,8.3668115E2,2.68788E3,8.769978E2,1.4546771E4,5.9855072E1,1.0920443E3,2.686072E2,7.369385E1,4.5477475E2,3.6807327E1,1.75359E1,1.2648444E3,1.5407862E1,2.0314058E3,1.261909E3,1.1740689E4,3.3526404E2,2.795298E2,7.5456793E2,1.8879073E3,1.0871036E2,3.3010245E2,5.065787E2,2.0900515E3,5.9782855E2,2.813932E2,5.956046E2,2.931089E0,5.6923985E1,8.265433E1,1.00938995E3,1.9976664E0,7.169618E1,2.422648E2,2.1250995E2,1.1175693E1,1.2536687E3,3.7310492E2,1.6583008E3,1.1530775E4,2.0991394E2,1.4700621E2,1.8825783E2,2.4348573E2,3.6044067E1,6.461098E2,1.08458176E2,3.827516E1,1.8496322E3,6.0487286E1,2.6961514E2,1.01489136E2,4.0508957E2,2.452951E2,1.8447563E3,3.9448782E2,2.0334073E2,5.466903E2,4.891434E1],"tree_param":{"num_deleted":"0","num_feature":"30","num_nodes":"85","size_leaf_vector":"1"}},{"base_weights":[6.501107E-2,9.9277747E-1,-5.1974875E-1,-1.1409171E-1,1.0384461E0,-7.0093966E-1,4.9484596E-1,1.1150353E0,5.2312154E-1,-8.774093E-1,-2.2193094E-1,-4.5674893E-1,1.0067359E0,1.1026051E0,2.191131E0,8.0739295E-1,-1.2089177E-1,-9.256211E-1,1.5622218E-1,2.4696107E-1,-9.95163E-1,-1.2178718E0,2.2232829E-1,1.1180764E0,1.884846E-1,1.112067E0,-1.1414402E-1,-7.1363114E-2,2.225863E-1,-1.1723156E-1,9.0837026E-1,-9.501715E-1,1.0278921E0,-1.2264635E-1,1.1118714E0,6.210197E-1,-1.15003444E-1,-1.0734434E0,5.074713E-1,-1.2860502E-1,-1.1766394E-1,-1.1940848E-1,9.552565E-1,1.165802E0,-1.1681799E-1,-1.2680252E0,1.594052E0,1.1143519E-1,-1.1006645E-1,9.715623E-2,-1.3660257E-1,-9.76174E-2,8.921724E-2,1.1932434E-1,-1.0516093E-1,-1.2087103E-1,1.6953234E-1,-1.2278696E-1,7.971474E-2,-1.18349366E-1,-6.1512064E-2,1.0488979E-1,-1.1985437E-1,1.1631352E-1,-1.1564984E-1,1.1974182E-1,-1.345413E-1,-1.2018343E-1,-1.5648352E-1,1.6733597E-1,-1.0236975E-1],"categories":[],"categories_nodes":[],"categories_segments":[],"categories_sizes":[],"default_left":[0,0,0,0,0,0,0,0,0,0,0,0,0,0,0,0,0,0,0,0,0,0,0,0,0,0,0,0,0,0,0,0,0,0,0,0,0,0,0,0,0,0,0,0,0,0,0,0,0,0,0,0,0,0,0,0,0,0,0,0,0,0,0,0,0,0,0,0,0,0,0],"id":16,"left_children":[1,3,5,-1,7,9,11,13,15,17,19,21,23,25,27,29,-1,31,33,35,37,39,41,43,45,47,-1,-1,-1,-1,49,51,53,-1,55,57,-1,59,61,-1,-1,-1,63,65,-1,67,69,-1,-1,-1,-1,-1,-1,-1,-1,-1,-1,-1,-1,-1,-1,-1,-1,-1,-1,-1,-1,-1,-1,-1,-1],"loss_changes":[2.1068854E4,1.4642002E3,4.3795054E3,0E0,5.7959863E2,1.7083389E3,1.7589663E3,1.6875781E2,9.384232E2,7.3618945E2,1.9736279E3,6.5327216E2,2.1367285E2,2.6992676E2,1.6229187E1,3.2813464E2,0E0,6.777832E2,8.722477E2,1.7716823E3,2.4224902E2,1.618042E-1,6.9516254E2,2.2681934E2,5.8013983E2,6.4930664E1,0E0,0E0,0E0,0E0,2.2514551E2,6.6855273E2,6.1644836E1,0E0,5.3042285E2,8.717079E2,0E0,9.779932E1,9.586646E1,0E0,0E0,0E0,1.9499054E2,1.623479E2,0E0,8.548584E-1,3.1640137E1,0E0,0E0,0E0,0E0,0E0,0E0,0E0,0E0,0E0,0E0,0E0,0E0,0E0,0E0,0E0,0E0,0E0,0E0,0E0,0E0,0E0,0E0,0E0,0E0],"parents":[2147483647,0,0,1,1,2,2,4,4,5,5,6,6,7,7,8,8,9,9,10,10,11,11,12,12,13,13,14,14,15,15,17,17,18,18,19,19,20,20,21,21,22,22,23,23,24,24,25,25,30,30,31,31,32,32,34,34,35,35,37,37,38,38,42,42,43,43,45,45,46,46],"right_children":[2,4,6,-1,8,10,12,14,16,18,20,22,24,26,28,30,-1,32,34,36,38,40,42,44,46,48,-1,-1,-1,-1,50,52,54,-1,56,58,-1,60,62,-1,-1,-1,64,66,-1,68,70,-1,-1,-1,-1,-1,-1,-1,-1,-1,-1,-1,-1,-1,-1,-1,-1,-1,-1,-1,-1,-1,-1,-1,-1],"split_conditions":[-4.0675625E-2,-6.1329657E-1,-2.789848E-1,-1.1409171E-1,-1.3664135E-1,4.9316418E-1,-3.7430033E-1,-1.3741055E-1,-4.8542503E-1,3.5366496E-1,-1.3403168E-1,-8.831664E-2,1.5972073E-1,6.6943526E-1,7.114487E-1,-5.2221704E-1,-1.2089177E-1,-1.06181264E-1,5.1743066E-1,5.743185E-1,9.69524E-1,3.7531847E-1,9.2241794E-1,7.165315E-1,2.3391472E-1,4.084932E-1,-1.1414402E-1,-7.1363114E-2,2.225863E-1,-1.1723156E-1,-2.0456453E-1,-2.7111825E-2,-4.8233214E-1,-1.2264635E-1,1.7328691E-1,3.433959E-1,-1.15003444E-1,4.761464E-1,-4.500021E-1,-1.2860502E-1,-1.1766394E-1,-1.1940848E-1,-9.992636E-1,2.1437097E-1,-1.1681799E-1,5.5668205E-1,2.3540905E-1,1.1143519E-1,-1.1006645E-1,9.715623E-2,-1.3660257E-1,-9.76174E-2,8.921724E-2,1.1932434E-1,-1.0516093E-1,-1.2087103E-1,1.6953234E-1,-1.2278696E-1,7.971474E-2,-1.18349366E-1,-6.1512064E-2,1.0488979E-1,-1.1985437E-1,1.1631352E-1,-1.1564984E-1,1.1974182E-1,-1.345413E-1,-1.2018343E-1,-1.5648352E-1,1.6733597E-1,-1.0236975E-1],"split_indices":[10,4,4,0,16,17,11,16,6,23,13,26,20,3,3,4,0,11,2,8,0,12,1,3,25,12,0,0,0,0,15,15,7,0,25,12,0,12,15,0,0,0,29,25,0,17,25,0,0,0,0,0,0,0,0,0,0,0,0,0,0,0,0,0,0,0,0,0,0,0,0],"split_type":[0,0,0,0,0,0,0,0,0,0,0,0,0,0,0,0,0,0,0,0,0,0,0,0,0,0,0,0,0,0,0,0,0,0,0,0,0,0,0,0,0,0,0,0,0,0,0,0,0,0,0,0,0,0,0,0,0,0,0,0,0,0,0,0,0,0,0,0,0,0,0],"sum_hessian":[3.8833176E4,1.5013078E4,2.38201E4,3.140968E2,1.4698981E4,2.0211031E4,3.6090674E3,1.279603E4,1.9029514E3,1.4769155E4,5.4418765E3,1.2623981E3,2.3466692E3,1.265191E4,1.4411937E2,1.6351206E3,2.6783078E2,1.4111075E4,6.580804E2,3.388035E3,2.0538416E3,5.9486664E2,6.675314E2,2.0652776E3,2.8139163E2,1.2599291E4,5.2619503E1,1.4718965E0,1.4264748E2,7.883879E1,1.5562819E3,1.3936445E4,1.7462987E2,2.688337E2,3.892467E2,2.672897E3,7.151378E2,1.9524153E3,1.0142631E2,2.1280276E2,3.8206387E2,2.2741454E2,4.4011685E2,2.0235266E3,4.175099E1,1.3823961E2,1.4315201E2,1.258679E4,1.2500869E1,1.5147682E3,4.1513622E1,1.374295E4,1.9349524E2,1.6216179E2,1.2468084E1,7.7988594E1,3.1125812E2,2.3195819E2,2.440939E3,1.5731064E3,3.7930878E2,7.728429E1,2.4142021E1,4.0108383E2,3.9033012E1,1.9988839E3,2.464274E1,1.17160965E2,2.107864E1,1.3929274E2,3.8592749E0],"tree_param":{"num_deleted":"0","num_feature":"30","num_nodes":"71","size_leaf_vector":"1"}},{"base_weights":[9.5101506E-2,-5.8902496E-1,9.00259E-1,5.2224433E-1,-7.356444E-1,1.0561706E0,2.3224952E-2,9.862975E-1,-4.6024507E-1,-8.98492E-1,-2.5660336E-1,1.0666467E0,-1.1251402E-1,4.4038588E-1,-1.1820002E-1,-1.121818E-1,1.1425453E0,5.5933124E-1,-1.2178112E0,5.0214464E-3,-9.943584E-1,2.1020594E-1,-9.606493E-1,-1.168942E-1,1.0750028E0,-5.810162E-1,8.443158E-1,1.190702E0,-1.09437265E-1,1.0636379E0,-1.1696956E-1,-1.1513641E-1,-1.4523951E0,-7.455622E-1,1.2510068E0,-1.0698565E0,-1.05920605E-1,5.377628E-1,-1.1353921E-1,-3.1828043E-1,-1.1588213E0,1.0940348E0,6.9832116E-1,-1.1815349E-1,1.2151493E0,9.62699E-1,-1.1605977E-1,1.1036141E-1,1.9669855E-1,1.1702068E-1,-1.2424173E-1,-1.7552052E-1,-1.2624232E-1,-1.1173882E-1,1.3415602E-1,-1.1152724E-1,1.7863566E-1,-1.121166E-1,-2.0582844E-2,6.74944E-2,-1.13222614E-1,7.338951E-2,-1.3317165E-1,-1.23626135E-1,6.528777E-2,-1.1322571E-1,-1.20032944E-1,-1.2164781E-1,1.0966128E-1,-1.2405993E-1,1.0964151E-1,1.4282674E-1,-1.1915826E-1,1.0362195E-1,-1.223585E-1],"categories":[],"categories_nodes":[],"categories_segments":[],"categories_sizes":[],"default_left":[0,0,0,0,0,0,0,0,0,0,0,0,0,0,0,0,0,0,0,0,0,0,0,0,0,0,0,0,0,0,0,0,0,0,0,0,0,0,0,0,0,0,0,0,0,0,0,0,0,0,0,0,0,0,0,0,0,0,0,0,0,0,0,0,0,0,0,0,0,0,0,0,0,0,0],"id":17,"left_children":[1,3,5,7,9,11,13,15,17,19,21,23,-1,25,-1,-1,27,29,31,33,35,37,39,-1,41,43,45,47,-1,49,-1,-1,51,53,55,57,59,61,-1,63,65,67,69,-1,71,73,-1,-1,-1,-1,-1,-1,-1,-1,-1,-1,-1,-1,-1,-1,-1,-1,-1,-1,-1,-1,-1,-1,-1,-1,-1,-1,-1,-1,-1],"loss_changes":[2.0582387E4,3.2918896E3,2.3470723E3,1.0742861E3,1.392043E3,3.3423926E2,1.3036278E3,5.2830786E2,5.8481104E2,1.1536494E3,1.4887645E3,2.722129E2,0E0,7.951653E2,0E0,0E0,1.6182104E2,2.8294354E2,5.095642E0,1.1967283E3,8.075654E2,1.2013735E3,2.2952795E2,0E0,1.0283789E2,5.908499E2,3.2882104E2,9.647681E1,0E0,6.304904E1,0E0,0E0,3.0774078E0,6.2122845E2,6.113894E2,4.917793E2,7.5746906E2,8.045747E2,0E0,3.8162476E2,1.6235352E-1,8.3265625E1,5.3997437E2,0E0,7.218295E1,2.109093E2,0E0,0E0,0E0,0E0,0E0,0E0,0E0,0E0,0E0,0E0,0E0,0E0,0E0,0E0,0E0,0E0,0E0,0E0,0E0,0E0,0E0,0E0,0E0,0E0,0E0,0E0,0E0,0E0,0E0],"parents":[2147483647,0,0,1,1,2,2,3,3,4,4,5,5,6,6,7,7,8,8,9,9,10,10,11,11,13,13,16,16,17,17,18,18,19,19,20,20,21,21,22,22,24,24,25,25,26,26,27,27,29,29,32,32,33,33,34,34,35,35,36,36,37,37,39,39,40,40,41,41,42,42,44,44,45,45],"right_children":[2,4,6,8,10,12,14,16,18,20,22,24,-1,26,-1,-1,28,30,32,34,36,38,40,-1,42,44,46,48,-1,50,-1,-1,52,54,56,58,60,62,-1,64,66,68,70,-1,72,74,-1,-1,-1,-1,-1,-1,-1,-1,-1,-1,-1,-1,-1,-1,-1,-1,-1,-1,-1,-1,-1,-1,-1,-1,-1,-1,-1,-1,-1],"split_conditions":[-3.524314E-1,-4.2440698E-2,3.580177E-1,-1.3664135E-1,4.9517787E-1,7.4599427E-1,-9.982173E-1,-6.1329657E-1,-7.460509E-2,-3.3576933E-1,-1.4396319E-1,-6.1230433E-1,-1.1251402E-1,-4.1304067E-1,-1.1820002E-1,-1.121818E-1,2.6873335E-2,3.5667163E-1,5.689152E-1,-9.9009776E-1,3.070937E-1,5.743185E-1,6.068916E-1,-1.168942E-1,6.780234E-1,-4.5368022E-1,5.797343E-1,-1.3741055E-1,-1.09437265E-1,3.2000193E-1,-1.1696956E-1,-1.1513641E-1,-2.4092975E-1,1.8689862E-1,-3.06856E-1,1.3848257E-1,5.280326E-1,-6.2792085E-2,-1.1353921E-1,1.5608682E-1,3.150335E-1,-5.643453E-1,5.1261403E-2,-1.1815349E-1,-4.5322928E-1,1.6045748E-1,-1.1605977E-1,1.1036141E-1,1.9669855E-1,1.1702068E-1,-1.2424173E-1,-1.7552052E-1,-1.2624232E-1,-1.1173882E-1,1.3415602E-1,-1.1152724E-1,1.7863566E-1,-1.121166E-1,-2.0582844E-2,6.74944E-2,-1.13222614E-1,7.338951E-2,-1.3317165E-1,-1.23626135E-1,6.528777E-2,-1.1322571E-1,-1.20032944E-1,-1.2164781E-1,1.0966128E-1,-1.2405993E-1,1.0964151E-1,1.4282674E-1,-1.1915826E-1,1.0362195E-1,-1.223585E-1],"split_indices":[4,10,12,16,17,3,29,4,10,13,13,11,0,11,0,0,9,12,17,29,19,8,3,0,3,7,8,16,0,23,0,0,26,22,11,13,5,26,0,19,18,11,22,0,7,20,0,0,0,0,0,0,0,0,0,0,0,0,0,0,0,0,0,0,0,0,0,0,0,0,0,0,0,0,0],"split_type":[0,0,0,0,0,0,0,0,0,0,0,0,0,0,0,0,0,0,0,0,0,0,0,0,0,0,0,0,0,0,0,0,0,0,0,0,0,0,0,0,0,0,0,0,0,0,0,0,0,0,0,0,0,0,0,0,0,0,0,0,0,0,0,0,0,0,0,0,0,0,0,0,0,0,0],"sum_hessian":[3.73642E4,2.02005E4,1.71637E4,2.3542705E3,1.7846229E4,1.4572857E4,2.590841E3,1.5990142E3,7.5525635E2,1.3317977E4,4.5282534E3,1.4503712E4,6.9145645E1,1.9251346E3,6.657064E2,1.0991034E2,1.4891039E3,3.2206473E2,4.3319162E2,1.2776299E3,1.2040347E4,2.7233018E3,1.8049515E3,5.3491833E1,1.445022E4,5.454466E2,1.3796881E3,1.4581797E3,3.0924173E1,2.4963757E2,7.242715E1,3.421764E2,9.1015236E1,7.975725E2,4.8005734E2,1.1097124E4,9.432221E2,2.1906384E3,5.326634E2,4.2616284E2,1.3787887E3,1.3753418E4,6.96802E2,4.0903467E2,1.3641191E2,1.3032552E3,7.643289E1,1.3132711E3,1.4490848E2,2.3908154E2,1.055604E1,3.1910856E1,5.9104378E1,6.773632E2,1.2020933E2,8.8370575E1,3.9168677E2,1.0474793E4,6.2233154E2,5.3585736E2,4.0736472E2,1.9831844E3,2.0745392E2,2.189391E2,2.0722374E2,8.579801E2,5.208086E2,1.4804405E1,1.3738613E4,1.183348E2,5.784672E2,1.2568863E2,1.0723278E1,1.2613641E3,4.1891148E1],"tree_param":{"num_deleted":"0","num_feature":"30","num_nodes":"75","size_leaf_vector":"1"}},{"base_weights":[6.812774E-2,-5.731417E-1,8.729322E-1,5.971876E-2,-8.025622E-1,-2.1285498E-1,1.0063449E0,-1.1413282E-1,2.442926E-1,-9.0678173E-1,8.815183E-3,6.619352E-1,-1.15837E0,1.0629845E0,1.07387945E-1,7.1293867E-1,-2.1457015E-1,-1.009703E0,-2.7487457E-1,-1.1221792E-1,5.640424E-1,-1.216861E-1,1.062654E0,-1.440148E-1,-1.14900194E-1,1.0781438E0,-1.1315671E-1,9.939578E-1,-1.1844857E-1,9.6807534E-1,-7.1319275E-2,5.508012E-1,-7.4579114E-1,5.036175E-1,-1.0530775E0,-6.727882E-1,1.2718858E0,9.485764E-1,-1.1221617E-1,1.1940393E0,-1.1712771E-1,1.0665292E0,2.0514166E-1,1.245832E0,-1.1764479E-1,1.03564315E-1,-1.3209489E-1,1.2380182E-1,-8.877566E-2,-1.2684785E-1,1.1212986E-1,-2.696125E-3,-1.1835366E-1,-1.1088075E-1,1.9569218E-1,-1.1084693E-1,-2.890568E-2,6.8046436E-2,-1.10919766E-1,1.7501874E-1,-1.1081789E-1,-1.1303385E-1,1.1581091E-1,1.2630637E-1,-1.2939888E-1,1.070593E-1,-1.1996104E-1,1.3272688E-1,-1.1793915E-1],"categories":[],"categories_nodes":[],"categories_segments":[],"categories_sizes":[],"default_left":[0,0,0,0,0,0,0,0,0,0,0,0,0,0,0,0,0,0,0,0,0,0,0,0,0,0,0,0,0,0,0,0,0,0,0,0,0,0,0,0,0,0,0,0,0,0,0,0,0,0,0,0,0,0,0,0,0,0,0,0,0,0,0,0,0,0,0,0,0],"id":18,"left_children":[1,3,5,7,9,11,13,-1,15,17,19,21,23,25,27,29,31,33,35,-1,37,-1,39,-1,-1,41,-1,43,-1,45,47,49,51,53,55,57,59,61,-1,63,-1,65,-1,67,-1,-1,-1,-1,-1,-1,-1,-1,-1,-1,-1,-1,-1,-1,-1,-1,-1,-1,-1,-1,-1,-1,-1,-1,-1],"loss_changes":[1.7402592E4,2.7247861E3,2.166292E3,1.1073586E3,1.1647178E3,1.3548511E3,6.7794336E2,0E0,9.312068E2,7.935449E2,9.857686E2,6.419741E2,4.2297363E-1,4.1798828E2,9.0648944E2,4.287068E2,8.901731E2,6.894697E2,1.0538953E3,0E0,6.8376483E2,0E0,2.0741718E2,0E0,0E0,1.3846191E2,0E0,2.580127E2,0E0,2.5137146E2,5.642102E2,9.325945E2,4.0658545E2,6.89059E2,4.3150488E2,8.0481915E2,4.008673E2,3.7501764E2,0E0,1.1556824E2,0E0,1.1453125E2,0E0,8.470972E1,0E0,0E0,0E0,0E0,0E0,0E0,0E0,0E0,0E0,0E0,0E0,0E0,0E0,0E0,0E0,0E0,0E0,0E0,0E0,0E0,0E0,0E0,0E0,0E0,0E0],"parents":[2147483647,0,0,1,1,2,2,3,3,4,4,5,5,6,6,8,8,9,9,10,10,11,11,12,12,13,13,14,14,15,15,16,16,17,17,18,18,20,20,22,22,25,25,27,27,29,29,30,30,31,31,32,32,33,33,34,34,35,35,36,36,37,37,39,39,41,41,43,43],"right_children":[2,4,6,8,10,12,14,-1,16,18,20,22,24,26,28,30,32,34,36,-1,38,-1,40,-1,-1,42,-1,44,-1,46,48,50,52,54,56,58,60,62,-1,64,-1,66,-1,68,-1,-1,-1,-1,-1,-1,-1,-1,-1,-1,-1,-1,-1,-1,-1,-1,-1,-1,-1,-1,-1,-1,-1,-1,-1],"split_conditions":[-3.524314E-1,2.3775056E-1,-4.1304067E-1,-5.6357694E-1,-9.7820264E-1,3.5545465E-1,2.9499742E-1,-1.1413282E-1,3.8430175E-1,1.0496022E-1,-3.0284813E-1,3.3317837E-1,1.7161702E-1,7.1756876E-1,2.5514963E-1,5.379996E-1,-2.4189778E-1,-2.3829004E-1,7.421126E-1,-1.1221792E-1,4.1067415E-1,-1.216861E-1,5.72198E-1,-1.440148E-1,-1.14900194E-1,2.945969E-1,-1.1315671E-1,3.0106282E-1,-1.1844857E-1,2.2524096E-1,5.556347E-1,2.2004692E-1,6.068916E-1,-4.1692254E-1,1.3848257E-1,5.513581E-1,1.0743944E-1,-1.1247914E-1,-1.1221617E-1,5.59881E-1,-1.1712771E-1,2.8288728E-1,2.0514166E-1,3.9488807E-1,-1.1764479E-1,1.03564315E-1,-1.3209489E-1,1.2380182E-1,-8.877566E-2,-1.2684785E-1,1.1212986E-1,-2.696125E-3,-1.1835366E-1,-1.1088075E-1,1.9569218E-1,-1.1084693E-1,-2.890568E-2,6.8046436E-2,-1.10919766E-1,1.7501874E-1,-1.1081789E-1,-1.1303385E-1,1.1581091E-1,1.2630637E-1,-1.2939888E-1,1.070593E-1,-1.1996104E-1,1.3272688E-1,-1.1793915E-1],"split_indices":[4,14,11,4,29,12,14,0,12,22,15,12,14,3,12,5,0,16,3,0,12,0,8,0,0,14,0,18,0,14,3,14,3,4,13,8,22,9,0,2,0,14,0,14,0,0,0,0,0,0,0,0,0,0,0,0,0,0,0,0,0,0,0,0,0,0,0,0,0],"split_type":[0,0,0,0,0,0,0,0,0,0,0,0,0,0,0,0,0,0,0,0,0,0,0,0,0,0,0,0,0,0,0,0,0,0,0,0,0,0,0,0,0,0,0,0,0,0,0,0,0,0,0,0,0,0,0,0,0,0,0,0,0,0,0,0,0,0,0,0,0],"sum_hessian":[3.3717684E4,1.876555E4,1.4952132E4,4.9930034E3,1.3772547E4,1.6360929E3,1.3316038E4,6.644105E2,4.328593E3,1.2204757E4,1.5677903E3,8.49986E2,7.861069E2,1.2526605E4,7.894335E2,2.1411936E3,2.1873992E3,1.0494824E4,1.7099323E3,5.158947E2,1.0518955E3,1.4906207E2,7.0092395E2,2.0379692E1,7.657272E2,1.2441174E4,8.543141E1,4.6829132E2,3.2114215E2,1.6154252E3,5.2576843E2,8.961743E2,1.2912249E3,2.9212347E2,1.0202701E4,1.3605002E3,3.49432E2,8.569158E2,1.9497974E2,6.624297E2,3.8494297E1,1.2296527E4,1.4464604E2,4.1997903E2,4.831229E1,1.5696398E3,4.578533E1,2.0173132E2,3.240371E2,2.136463E2,6.82528E2,4.8910995E2,8.021149E2,1.3859306E2,1.5353041E2,9.512584E3,6.9011725E2,3.3162192E2,1.0288783E3,2.9118054E2,5.8251457E1,7.805773E1,7.7885803E2,6.450273E2,1.7402382E1,1.2275043E4,2.148451E1,4.067727E2,1.3206342E1],"tree_param":{"num_deleted":"0","num_feature":"30","num_nodes":"69","size_leaf_vector":"1"}},{"base_weights":[6.1452147E-2,-5.066856E-1,8.5567874E-1,2.9778017E-3,-8.400922E-1,-1.2809499E-1,9.906235E-1,-7.4995184E-1,3.297563E-1,-9.757793E-1,1.6987121E-1,5.604736E-1,-8.408541E-1,1.046193E0,1.9246168E-1,-6.047721E-3,-1.12620056E-1,5.041082E-1,-4.4415307E-1,-4.1530192E-1,-1.056446E0,-1.11311816E-1,8.6681163E-1,9.887784E-1,-1.1820473E-1,1.0689472E0,-1.1578288E-1,1.0607307E0,-1.11584485E-1,-1.1668422E-1,8.0112386E-1,-8.7702394E-1,8.0389816E-1,6.337542E-1,-9.783848E-1,3.8796106E-1,-1.1620246E0,-8.627213E-1,3.8798568E0,-1.0931312E-1,4.534081E-1,1.0969863E0,-1.1214129E-1,-1.1471411E-1,1.2468296E0,1.2602495E-1,-1.1420884E-1,1.0495284E0,1.8521193E-1,1.068817E0,-1.1896272E-1,9.451555E-2,-1.1232828E-1,1.2492275E-1,-1.1252028E-1,-9.271168E-2,7.576395E-2,1.0400738E-1,-1.2612669E-1,1.02732114E-1,-1.5325193E-1,-1.4215833E-1,-1.1389227E-1,-1.1004523E-1,1.1863679E-1,-1.0605464E-1,5.3551495E-1,1.391357E-1,-1.1331298E-1,1.23798266E-1,-1.1533028E-1,1.3139932E-1,-1.1171712E-1,1.0534572E-1,-1.17066465E-1,1.2607948E-1,-1.1199223E-1],"categories":[],"categories_nodes":[],"categories_segments":[],"categories_sizes":[],"default_left":[0,0,0,0,0,0,0,0,0,0,0,0,0,0,0,0,0,0,0,0,0,0,0,0,0,0,0,0,0,0,0,0,0,0,0,0,0,0,0,0,0,0,0,0,0,0,0,0,0,0,0,0,0,0,0,0,0,0,0,0,0,0,0,0,0,0,0,0,0,0,0,0,0,0,0,0,0],"id":19,"left_children":[1,3,5,7,9,11,13,15,17,19,21,23,25,27,29,31,-1,33,35,37,39,-1,41,43,-1,45,-1,47,-1,-1,49,51,53,55,57,59,61,63,65,-1,67,69,-1,-1,71,-1,-1,73,-1,75,-1,-1,-1,-1,-1,-1,-1,-1,-1,-1,-1,-1,-1,-1,-1,-1,-1,-1,-1,-1,-1,-1,-1,-1,-1,-1,-1],"loss_changes":[1.391471E4,3.0548286E3,1.7073359E3,1.7497241E3,1.4895029E3,7.622143E2,5.0138086E2,6.024155E2,6.693777E2,4.327334E2,1.1526699E3,5.908027E2,4.6315735E2,3.3348633E2,6.10956E2,5.11413E2,0E0,7.7860864E2,5.4544336E2,2.3230645E3,4.6437402E2,0E0,3.8344824E2,3.5126917E2,0E0,4.760206E1,0E0,9.1163086E1,0E0,0E0,2.7298462E2,1.5780771E2,3.241131E2,7.2059753E2,1.8740378E2,5.213372E2,1.319397E0,5.342444E2,8.370123E2,0E0,2.9825082E2,2.3908612E2,0E0,0E0,9.145752E1,0E0,0E0,9.1583984E1,0E0,1.9047992E2,0E0,0E0,0E0,0E0,0E0,0E0,0E0,0E0,0E0,0E0,0E0,0E0,0E0,0E0,0E0,0E0,0E0,0E0,0E0,0E0,0E0,0E0,0E0,0E0,0E0,0E0,0E0],"parents":[2147483647,0,0,1,1,2,2,3,3,4,4,5,5,6,6,7,7,8,8,9,9,10,10,11,11,12,12,13,13,14,14,15,15,17,17,18,18,19,19,20,20,22,22,23,23,25,25,27,27,30,30,31,31,32,32,33,33,34,34,35,35,36,36,37,37,38,38,40,40,41,41,44,44,47,47,49,49],"right_children":[2,4,6,8,10,12,14,16,18,20,22,24,26,28,30,32,-1,34,36,38,40,-1,42,44,-1,46,-1,48,-1,-1,50,52,54,56,58,60,62,64,66,-1,68,70,-1,-1,72,-1,-1,74,-1,76,-1,-1,-1,-1,-1,-1,-1,-1,-1,-1,-1,-1,-1,-1,-1,-1,-1,-1,-1,-1,-1,-1,-1,-1,-1,-1,-1],"split_conditions":[-3.479542E-1,2.6077446E-1,-4.1150874E-1,-5.207469E-1,-4.5368022E-1,-9.9940836E-1,2.9499742E-1,-2.4092975E-1,9.689817E-1,-9.9989957E-1,-3.0284813E-1,-5.6264347E-1,1.0025507E-1,7.165315E-1,-1.6874418E-1,2.1495825E-1,-1.12620056E-1,-4.580033E-1,-1.8849E-2,-9.9991435E-1,5.0943047E-1,-1.11311816E-1,5.3357077E-1,3.0119276E-1,-1.1820473E-1,-3.428632E-1,-1.1578288E-1,2.945969E-1,-1.11584485E-1,-1.1668422E-1,9.1308653E-1,-9.407535E-2,-2.3585583E-1,-5.027316E-1,-2.3954776E-1,-4.4986004E-1,1.7161702E-1,1.8689862E-1,2.2971284E-1,-1.0931312E-1,-6.082075E-1,-1.5880719E-1,-1.1214129E-1,-1.1471411E-1,5.638376E-1,1.2602495E-1,-1.1420884E-1,2.8288728E-1,1.8521193E-1,3.4339315E-1,-1.1896272E-1,9.451555E-2,-1.1232828E-1,1.2492275E-1,-1.1252028E-1,-9.271168E-2,7.576395E-2,1.0400738E-1,-1.2612669E-1,1.02732114E-1,-1.5325193E-1,-1.4215833E-1,-1.1389227E-1,-1.1004523E-1,1.1863679E-1,-1.0605464E-1,5.3551495E-1,1.391357E-1,-1.1331298E-1,1.23798266E-1,-1.1533028E-1,1.3139932E-1,-1.1171712E-1,1.0534572E-1,-1.17066465E-1,1.2607948E-1,-1.1199223E-1],"split_indices":[4,14,11,4,7,29,14,26,1,29,15,11,20,3,24,19,0,7,10,29,19,0,2,14,0,4,0,14,0,0,1,10,0,0,9,4,14,22,25,0,24,26,0,0,2,0,0,14,0,18,0,0,0,0,0,0,0,0,0,0,0,0,0,0,0,0,0,0,0,0,0,0,0,0,0,0,0],"split_type":[0,0,0,0,0,0,0,0,0,0,0,0,0,0,0,0,0,0,0,0,0,0,0,0,0,0,0,0,0,0,0,0,0,0,0,0,0,0,0,0,0,0,0,0,0,0,0,0,0,0,0,0,0,0,0,0,0,0,0,0,0,0,0,0,0,0,0,0,0,0,0,0,0,0,0,0,0],"sum_hessian":[3.0835322E4,1.7976484E4,1.2858838E4,7.109503E3,1.086698E4,1.5510957E3,1.1307742E4,2.1513308E3,4.9581724E3,9.579961E3,1.2870198E3,7.890445E2,7.620512E2,1.0571429E4,7.363133E2,7.2295294E2,1.4283779E3,4.0468232E3,9.113489E2,1.2060939E3,8.373867E3,4.5282413E2,8.341957E2,6.337129E2,1.5533159E2,1.08137955E2,6.5391327E2,1.0501326E4,7.010223E1,2.2744695E2,5.0886636E2,3.483122E2,3.7464075E2,3.72191E3,3.249135E2,4.2230154E2,4.8904733E2,1.0930336E3,1.1306031E2,8.1755015E3,1.9836557E2,7.480437E2,8.615199E1,6.793788E1,5.65775E2,9.9922516E1,8.215436E0,1.0357046E4,1.4428073E2,4.489587E2,5.9907654E1,4.1130573E1,3.0718164E2,3.046624E2,6.9978325E1,2.7320667E2,3.4487031E3,3.9609528E1,2.85304E2,3.1717404E2,1.0512748E2,3.5022366E1,4.5402496E2,9.798198E2,1.13213684E2,2.6062922E1,8.699739E1,1.2474206E2,7.362351E1,7.043605E2,4.3683235E1,5.505768E2,1.519826E1,1.0339275E4,1.777067E1,4.1314505E2,3.5813656E1],"tree_param":{"num_deleted":"0","num_feature":"30","num_nodes":"77","size_leaf_vector":"1"}},{"base_weights":[6.161843E-2,9.426421E-1,-5.3154296E-1,1.0615399E0,4.0596977E-1,-7.5699985E-1,2.3203802E-1,-1.05874375E-1,1.0637038E0,-9.6166074E-2,9.064154E-1,-3.227006E-1,-9.491265E-1,7.283317E-1,-3.190014E-1,1.0649675E0,-1.2010266E-1,-1.2939117E0,3.7488058E-1,-1.270744E-1,9.5468384E-1,-9.1646147E-1,1.1291658E-1,-9.9458194E-1,5.57525E-1,8.112538E-1,-1.1563202E-1,-7.954843E-1,5.310406E-1,1.0656925E0,-1.061724E-1,-1.1611656E-1,-1.3900669E0,7.8976274E-1,-1.2023156E-1,9.842106E-1,-1.6912468E-1,-1.1277838E0,1.1737374E0,-1.1824508E0,4.9585247E-1,-4.894761E-1,-1.08599745E-1,1.2036642E0,-1.09306626E-1,1.0092944E0,1.5748493E-1,-1.1273773E-1,6.0903335E-1,-1.1639159E-1,8.6164224E-1,-7.142758E-2,1.06606E-1,-1.2256352E-1,-1.4634602E-1,9.438046E-2,-1.862934E-1,1.0058526E-1,-1.7679296E-1,-1.1099588E-1,-1.1791178E-1,-1.1021101E-1,1.5598337E-1,-1.13877594E-1,-1.3137753E-1,8.781444E-2,-1.1973923E-1,-8.5765325E-2,8.655E-2,1.2460189E-1,-9.204562E-2,-1.1086794E-1,1.0495651E-1,7.573387E-2,-1.2893818E-1,1.5944009E-1,-1.1187645E-1,1.0423093E-1,-1.142424E-1],"categories":[],"categories_nodes":[],"categories_segments":[],"categories_sizes":[],"default_left":[0,0,0,0,0,0,0,0,0,0,0,0,0,0,0,0,0,0,0,0,0,0,0,0,0,0,0,0,0,0,0,0,0,0,0,0,0,0,0,0,0,0,0,0,0,0,0,0,0,0,0,0,0,0,0,0,0,0,0,0,0,0,0,0,0,0,0,0,0,0,0,0,0,0,0,0,0,0,0],"id":20,"left_children":[1,3,5,7,9,11,13,-1,15,17,19,21,23,25,27,29,-1,31,33,-1,35,37,39,41,43,45,-1,47,49,51,-1,-1,53,55,-1,57,-1,59,61,63,65,67,-1,69,-1,71,73,-1,75,-1,77,-1,-1,-1,-1,-1,-1,-1,-1,-1,-1,-1,-1,-1,-1,-1,-1,-1,-1,-1,-1,-1,-1,-1,-1,-1,-1,-1,-1],"loss_changes":[1.5276046E4,7.5007324E2,3.0076802E3,4.529883E1,5.3654156E2,1.1251133E3,1.0895212E3,0E0,2.8807617E1,6.02197E2,1.135827E2,1.0704662E3,6.409248E2,3.2849292E2,7.651792E2,1.5958008E1,0E0,2.2313538E0,5.0233606E2,0E0,8.343628E1,7.7490295E2,1.185078E3,4.1859473E2,2.940527E2,2.598501E2,0E0,5.648819E2,3.813805E2,7.046875E0,0E0,0E0,2.5350952E-1,2.4989978E2,0E0,6.3469177E1,0E0,1.4709473E-1,1.4344925E2,1.6305542E0,1.1945352E3,6.955939E2,0E0,1.8936646E1,0E0,1.3261035E2,4.0722922E2,0E0,3.967483E2,0E0,2.0706177E2,0E0,0E0,0E0,0E0,0E0,0E0,0E0,0E0,0E0,0E0,0E0,0E0,0E0,0E0,0E0,0E0,0E0,0E0,0E0,0E0,0E0,0E0,0E0,0E0,0E0,0E0,0E0,0E0],"parents":[2147483647,0,0,1,1,2,2,3,3,4,4,5,5,6,6,8,8,9,9,10,10,11,11,12,12,13,13,14,14,15,15,17,17,18,18,20,20,21,21,22,22,23,23,24,24,25,25,27,27,28,28,29,29,32,32,33,33,35,35,37,37,38,38,39,39,40,40,41,41,43,43,45,45,46,46,48,48,50,50],"right_children":[2,4,6,8,10,12,14,-1,16,18,20,22,24,26,28,30,-1,32,34,-1,36,38,40,42,44,46,-1,48,50,52,-1,-1,54,56,-1,58,-1,60,62,64,66,68,-1,70,-1,72,74,-1,76,-1,78,-1,-1,-1,-1,-1,-1,-1,-1,-1,-1,-1,-1,-1,-1,-1,-1,-1,-1,-1,-1,-1,-1,-1,-1,-1,-1,-1,-1],"split_conditions":[1.7161702E-1,-6.0805753E-2,-3.7238738E-1,-5.3911203E-1,-3.023029E-1,2.593016E-1,3.6614177E-1,-1.05874375E-1,4.154956E-1,5.004746E-1,-4.0138045E-1,3.4121215E-1,1.6921599E-1,3.9488807E-1,5.4500544E-1,6.6887164E-1,-1.2010266E-1,-4.4162485E-1,-1.8774618E-1,-1.270744E-1,5.8099794E-1,-1.2773816E-1,6.573369E-1,-3.2431853E-1,1.3942654E-1,3.1997538E-1,-1.1563202E-1,5.015868E-1,-1.987204E-1,-4.8718572E-1,-1.061724E-1,-1.1611656E-1,1.4046219E-1,-4.2731664E-1,-1.2023156E-1,8.038798E-1,-1.6912468E-1,5.100171E-1,6.9309413E-1,-4.3810937E-1,-3.72117E-1,1.738144E-1,-1.08599745E-1,3.3653823E-1,-1.09306626E-1,-6.1230433E-1,-1.678864E-1,-1.1273773E-1,5.034163E-1,-1.1639159E-1,1.7439243E-1,-7.142758E-2,1.06606E-1,-1.2256352E-1,-1.4634602E-1,9.438046E-2,-1.862934E-1,1.0058526E-1,-1.7679296E-1,-1.1099588E-1,-1.1791178E-1,-1.1021101E-1,1.5598337E-1,-1.13877594E-1,-1.3137753E-1,8.781444E-2,-1.1973923E-1,-8.5765325E-2,8.655E-2,1.2460189E-1,-9.204562E-2,-1.1086794E-1,1.0495651E-1,7.573387E-2,-1.2893818E-1,1.5944009E-1,-1.1187645E-1,1.0423093E-1,-1.142424E-1],"split_indices":[14,10,4,4,4,14,12,0,12,0,11,18,22,14,5,3,0,4,26,0,8,27,3,26,20,18,0,12,24,11,0,0,25,4,0,0,0,17,3,4,28,20,0,23,0,11,27,0,12,0,25,0,0,0,0,0,0,0,0,0,0,0,0,0,0,0,0,0,0,0,0,0,0,0,0,0,0,0,0],"split_type":[0,0,0,0,0,0,0,0,0,0,0,0,0,0,0,0,0,0,0,0,0,0,0,0,0,0,0,0,0,0,0,0,0,0,0,0,0,0,0,0,0,0,0,0,0,0,0,0,0,0,0,0,0,0,0,0,0,0,0,0,0,0,0,0,0,0,0,0,0,0,0,0,0,0,0,0,0,0,0],"sum_hessian":[2.92295E4,1.1760709E4,1.7468791E4,9.626922E3,2.1337876E3,1.3486687E4,3.9821045E3,9.316828E0,9.6176045E3,1.0654984E3,1.0682892E3,4.137228E3,9.349458E3,2.0949585E3,1.8871461E3,9.6127705E3,4.834237E0,3.00263E2,7.6523535E2,2.2621368E1,1.0456678E3,1.7503448E3,2.386883E3,9.075978E3,2.7348083E2,2.0072134E3,8.774509E1,1.2093313E3,6.778149E2,9.609993E3,2.7777326E0,1.3162514E2,1.6863785E2,6.062581E2,1.5897722E2,1.0347488E3,1.0919061E1,1.590049E3,1.6029596E2,5.4413513E2,1.8427479E3,1.3918473E3,7.68413E3,1.9673706E2,7.6743774E1,1.5401309E3,4.6708246E2,9.7834247E2,2.3098877E2,1.102182E2,5.675967E2,1.5821432E0,9.60841E3,5.7504135E1,1.1113372E2,5.735938E2,3.266432E1,1.0273049E3,7.4438825E0,1.1970217E3,3.9302725E2,2.2980818E1,1.3731514E2,4.1559235E2,1.2854277E2,1.503726E3,3.3902203E2,1.0947472E3,2.9710016E2,1.9329614E2,3.4409118E0,2.8242308E1,1.5118885E3,3.305266E2,1.3655585E2,1.4714743E2,8.384134E1,5.2109937E2,4.6497314E1],"tree_param":{"num_deleted":"0","num_feature":"30","num_nodes":"79","size_leaf_vector":"1"}},{"base_weights":[4.935119E-2,9.232E-1,-4.9291372E-1,1.0516224E0,3.9907295E-1,-6.765505E-1,3.0473924E-1,-1.1838665E-1,1.055043E0,-2.1680806E-2,8.841706E-1,-2.2647823E-1,-9.011932E-1,9.9613243E-1,-8.494279E-3,-7.4034974E-2,1.0555284E0,-1.2634457E0,3.4189883E-1,1.9542809E-1,1.0322746E0,2.2570397E-1,-8.1390566E-1,-1.0239757E0,3.0338608E-2,1.1051103E0,-1.1460431E-1,3.363188E-1,-1.1565287E0,1.0609893E0,9.3810195E-1,-1.1487146E-1,-1.3349605E-1,6.456163E-1,-1.1824455E-1,-1.758977E0,8.733556E-1,1.0538132E0,-1.5065463E-1,-1.1760067E0,5.059115E-1,-1.113087E0,5.7221264E-1,-1.0764455E-1,6.977834E-1,-1.0926342E-1,5.2008146E-1,1.1797801E0,-1.2763731E-1,6.613671E-1,